0.00898297,0.000788648,0.0449786,-5.34486e-05,2.12753,10.8704,-3.97898e-06,-1.51385e-07,-4.95323e-05,1.46818e-07,-0.0760503,-9.90591e-06,-0.00233132,-0.000335882,-3.18844e-06,-0.024208,7.82604e-05,-0.000109231,3.74216e-06,-2.03621e-05,2.15058e-05,-7.28508e-06,-0.0203502,5.36571e-05,-8.03752,8.95465e-07,0.00543779
0.000788648,0.00401113,0.00752387,-1.71037e-05,-0.611915,1.98441,-9.87712e-07,-1.1412e-06,-0.000244337,1.4943e-08,0.0126024,-2.59756e-05,-0.00208625,-0.000434415,-1.68009e-07,-0.00143239,8.47935e-05,-0.000345986,1.14797e-05,-3.45528e-05,6.82406e-05,9.11812e-06,-0.054869,0.000178082,-1.46429,-2.1115e-06,0.0116846
0.0449786,0.00752387,4.16687,-0.00449966,4.44897,16.7813,-5.42899e-06,-2.40139e-06,0.00750261,2.13287e-06,-0.116438,0.000175879,-0.371426,-0.0394858,-2.031e-05,-0.0997524,0.00753523,-0.000173067,-2.74383e-06,-0.00137967,5.14581e-05,-0.000327148,-0.792132,-0.00234933,-12.4389,6.00554e-05,0.15718
-5.34486e-05,-1.71037e-05,-0.00449966,0.000221459,0.312543,1.03629,1.59965e-07,7.0732e-10,8.76713e-05,-4.63733e-08,-0.0112387,4.65309e-06,0.000355168,0.000129504,-2.93812e-08,8.38035e-05,-2.45299e-05,2.41957e-05,-8.64814e-07,2.9143e-05,-4.98897e-06,-2.73945e-06,0.00996147,-4.13482e-05,-0.766003,5.32681e-07,-0.00195696
2.12753,-0.611915,4.44897,0.312543,2962.2,11666.5,-3.63354e-05,7.8727e-05,-0.606958,-3.28452e-05,-103.802,-0.0247379,0.398277,-0.510917,-0.00120897,-13.3966,0.107986,0.0385527,-0.00117897,0.110246,-0.00744665,0.0178209,28.5401,0.242045,-8626.71,-0.00282925,-4.93179
10.8704,1.98441,16.7813,1.03629,11666.5,68084.3,-0.00146747,-0.00104661,5.46833,-7.99304e-05,-478.701,0.219793,-2.61593,4.93118,-0.0059192,-67.3741,-0.875998,-0.0715694,0.00277027,1.14595,0.0112148,-0.196952,273.826,-2.24087,-50332.2,0.0399114,-43.9735
-3.97898e-06,-9.87712e-07,-5.42899e-06,1.59965e-07,-3.63354e-05,-0.00146747,1.16161e-08,4.24917e-10,-1.91077e-06,-3.69782e-12,-5.54194e-06,-7.09737e-08,3.48241e-07,-1.93063e-06,-7.09942e-10,1.64128e-06,3.61657e-07,4.20579e-07,-1.53353e-08,9.43558e-08,-8.56042e-08,7.13016e-08,1.04055e-05,7.37756e-07,0.0010849,-1.30997e-08,-1.8801e-06
-1.51385e-07,-1.1412e-06,-2.40139e-06,7.0732e-10,7.8727e-05,-0.00104661,4.24917e-10,7.62907e-10,-1.44624e-06,6.58671e-13,3.42853e-06,-5.57256e-08,6.38931e-07,-1.34757e-06,-3.32994e-11,1.93864e-07,2.54752e-07,8.06786e-08,-2.7436e-09,-9.33125e-08,-1.75589e-08,5.12707e-08,1.64902e-05,5.68844e-07,0.000772926,-9.62072e-09,-3.27926e-06
-4.95323e-05,-0.000244337,0.00750261,8.76713e-05,-0.606958,5.46833,-1.91077e-06,-1.44624e-06,0.0529753,-3.96805e-08,-0.035279,0.00219436,-0.00880006,0.0488837,6.06845e-07,0.00159088,-0.00926538,0.00118596,-4.21281e-05,0.00115035,-0.000235008,-0.00184811,0.353537,-0.0215994,-4.02943,0.000349867,-0.0674691
1.46818e-07,1.4943e-08,2.13287e-06,-4.63733e-08,-3.28452e-05,-7.99304e-05,-3.69782e-12,6.58671e-13,-3.96805e-08,1.58427e-11,1.25614e-06,-2.21114e-09,-1.47634e-07,-5.86618e-08,-8.35163e-11,-6.07079e-07,1.16502e-08,-5.83033e-09,2.01876e-10,-7.67713e-09,1.18389e-09,1.0834e-09,-3.64424e-06,1.91302e-08,5.90791e-05,-2.6573e-10,7.2594e-07
-0.0760503,0.0126024,-0.116438,-0.0112387,-103.802,-478.701,-5.54194e-06,3.42853e-06,-0.035279,1.25614e-06,4.21299,-0.0015499,0.000688212,-0.03352,4.47373e-05,0.494552,0.00595456,-0.00588009,0.000205784,-0.0121084,0.00119903,0.00128665,-2.07606,0.0150296,353.925,-0.00026677,0.362367
-9.90591e-06,-2.59756e-05,0.000175879,4.65309e-06,-0.0247379,0.219793,-7.09737e-08,-5.57256e-08,0.00219436,-2.21114e-09,-0.0015499,9.11097e-05,-0.000350497,0.00202619,2.92014e-08,0.000118469,-0.000384114,5.22561e-05,-1.85367e-06,4.99774e-05,-1.03743e-05,-7.64955e-05,0.0155018,-0.000895759,-0.161951,1.44883e-05,-0.00296468
-0.00233132,-0.00208625,-0.371426,0.000355168,0.398277,-2.61593,3.48241e-07,6.38931e-07,-0.00880006,-1.47634e-07,0.000688212,-0.000350497,0.0376896,-0.00361309,1.14722e-06,0.00374255,0.000681922,-6.26731e-06,9.22093e-07,-0.000158961,2.50714e-06,0.000302691,-0.0400972,0.00351626,1.92991,-5.71978e-05,0.00677884
-0.000335882,-0.000434415,-0.0394858,0.000129504,-0.510917,4.93118,-1.93063e-06,-1.34757e-06,0.0488837,-5.86618e-08,-0.03352,0.00202619,-0.00361309,0.0457151,7.58066e-07,0.00200459,-0.00866501,0.00109089,-3.85976e-05,0.00106752,-0.00021577,-0.0017063,0.326609,-0.0199379,-3.63354,0.000323017,-0.0624631
-3.18844e-06,-1.68009e-07,-2.031e-05,-2.93812e-08,-0.00120897,-0.0059192,-7.09942e-10,-3.32994e-11,6.06845e-07,-8.35163e-11,4.47373e-05,2.92014e-08,1.14722e-06,7.58066e-07,1.97799e-09,1.3633e-05,-1.5486e-07,-3.00056e-08,1.2153e-09,-6.38221e-09,6.54033e-09,-1.74181e-08,6.76557e-06,-2.64937e-07,0.00437655,3.60775e-09,-2.23182e-06
-0.024208,-0.00143239,-0.0997524,8.38035e-05,-13.3966,-67.3741,1.64128e-06,1.93864e-07,0.00159088,-6.07079e-07,0.494552,0.000118469,0.00374255,0.00200459,1.3633e-05,0.149869,-0.00050803,-4.0018e-05,2.04503e-06,-9.0544e-05,9.78805e-06,-2.25148e-05,0.0906201,-0.000881599,49.8112,7.72537e-06,-0.0275794
7.82604e-05,8.47935e-05,0.00753523,-2.45299e-05,0.107986,-0.875998,3.61657e-07,2.54752e-07,-0.00926538,1.16502e-08,0.00595456,-0.000384114,0.000681922,-0.00866501,-1.5486e-07,-0.00050803,0.00164254,-0.000207505,7.34226e-06,-0.000202478,4.10455e-05,0.000323378,-0.0619866,0.00377935,0.645335,-6.1223e-05,0.0118634
-0.000109231,-0.000345986,-0.000173067,2.41957e-05,0.0385527,-0.0715694,4.20579e-07,8.06786e-08,0.00118596,-5.83033e-09,-0.00588009,5.22561e-05,-6.26731e-06,0.00109089,-3.00056e-08,-4.0018e-05,-0.000207505,0.000192735,-6.96967e-06,8.02191e-05,-3.89942e-05,-4.02938e-05,0.0174446,-0.000499783,0.0529554,7.7429e-06,-0.00328566
3.74216e-06,1.14797e-05,-2.74383e-06,-8.64814e-07,-0.00117897,0.00277027,-1.53353e-08,-2.7436e-09,-4.21281e-05,2.01876e-10,0.000205784,-1.85367e-06,9.22093e-07,-3.85976e-05,1.2153e-09,2.04503e-06,7.34226e-06,-6.96967e-06,2.52636e-07,-2.83922e-06,1.41025e-06,1.43048e-06,-0.000598999,1.77412e-05,-0.00204962,-2.74894e-07,0.000112315
-2.03621e-05,-3.45528e-05,-0.00137967,2.9143e-05,0.110246,1.14595,9.43558e-08,-9.33125e-08,0.00115035,-7.67713e-09,-0.0121084,4.99774e-05,-0.000158961,0.00106752,-6.38221e-09,-9.0544e-05,-0.000202478,8.02191e-05,-2.83922e-06,0.00015435,-1.63688e-05,-3.91574e-05,0.0224082,-0.000481018,-0.846693,7.49214e-06,-0.00427541
2.15058e-05,6.82406e-05,5.14581e-05,-4.98897e-06,-0.00744665,0.0112148,-8.56042e-08,-1.75589e-08,-0.000235008,1.18389e-09,0.00119903,-1.03743e-05,2.50714e-06,-0.00021577,6.54033e-09,9.78805e-06,4.10455e-05,-3.89942e-05,1.41025e-06,-1.63688e-05,7.90314e-06,7.96731e-06,-0.00365725,9.91393e-05,-0.00830472,-1.53157e-06,0.000687361
-7.28508e-06,9.11812e-06,-0.000327148,-2.73945e-06,0.0178209,-0.196952,7.13016e-08,5.12707e-08,-0.00184811,1.0834e-09,0.00128665,-7.64955e-05,0.000302691,-0.0017063,-1.74181e-08,-2.25148e-05,0.000323378,-4.02938e-05,1.43048e-06,-3.91574e-05,7.96731e-06,6.45354e-05,-0.0119417,0.000753224,0.145157,-1.22151e-05,0.00227923
-0.0203502,-0.054869,-0.792132,0.00996147,28.5401,273.826,1.04055e-05,1.64902e-05,0.353537,-3.64424e-06,-2.07606,0.0155018,-0.0400972,0.326609,6.76557e-06,0.0906201,-0.0619866,0.0174446,-0.000598999,0.0224082,-0.00365725,-0.0119417,9.18253,-0.148774,-202.283,0.0023034,-1.73527
5.36571e-05,0.000178082,-0.00234933,-4.13482e-05,0.242045,-2.24087,7.37756e-07,5.68844e-07,-0.0215994,1.91302e-08,0.0150296,-0.000895759,0.00351626,-0.0199379,-2.64937e-07,-0.000881599,0.00377935,-0.000499783,1.77412e-05,-0.000481018,9.91393e-05,0.000753224,-0.148774,0.00881218,1.65128,-0.000142631,0.0284089
-8.03752,-1.46429,-12.4389,-0.766003,-8626.71,-50332.2,0.0010849,0.000772926,-4.02943,5.90791e-05,353.925,-0.161951,1.92991,-3.63354,0.00437655,49.8112,0.645335,0.0529554,-0.00204962,-0.846693,-0.00830472,0.145157,-202.283,1.65128,37208.7,-0.0294228,32.4809
8.95465e-07,-2.1115e-06,6.00554e-05,5.32681e-07,-0.00282925,0.0399114,-1.30997e-08,-9.62072e-09,0.000349867,-2.6573e-10,-0.00026677,1.44883e-05,-5.71978e-05,0.000323017,3.60775e-09,7.72537e-06,-6.1223e-05,7.7429e-06,-2.74894e-07,7.49214e-06,-1.53157e-06,-1.22151e-05,0.0023034,-0.000142631,-0.0294228,2.31341e-06,-0.000439302
0.00543779,0.0116846,0.15718,-0.00195696,-4.93179,-43.9735,-1.8801e-06,-3.27926e-06,-0.0674691,7.2594e-07,0.362367,-0.00296468,0.00677884,-0.0624631,-2.23182e-06,-0.0275794,0.0118634,-0.00328566,0.000112315,-0.00427541,0.000687361,0.00227923,-1.73527,0.0284089,32.4809,-0.000439302,0.33099
