3.59383e+25,-3.36985e+25,2.95969e+25,-1.99127e+25,1.98599e+25,-1.44595e+25,2.08744e+22,-1.33152e+22,1.32689e+22,-8.97611e+19,8.95662e+19,-1.99392e+18,1.99388e+18,-1.35618e+18,1.18981e+17,-1.18454e+17,2.60433e+13,-2.5555e+13,2.11747e+13,-2.1127e+13,1.17569e+12,-1.17403e+12,1.17391e+12,-1.07956e+11,1.07937e+11,-3.67273e+07,3.66748e+07
-3.36985e+25,3.15983e+25,-2.77523e+25,1.86716e+25,-1.86222e+25,1.35584e+25,-1.95734e+22,1.24853e+22,-1.2442e+22,8.41669e+19,-8.39842e+19,1.86965e+18,-1.86962e+18,1.27166e+18,-1.11566e+17,1.11071e+17,-2.44202e+13,2.39624e+13,-1.9855e+13,1.98103e+13,-1.10242e+12,1.10086e+12,-1.10074e+12,1.01228e+11,-1.0121e+11,3.44384e+07,-3.43891e+07
2.95969e+25,-2.77523e+25,2.43745e+25,-1.6399e+25,1.63556e+25,-1.19081e+25,1.71911e+22,-1.09657e+22,1.09276e+22,-7.39226e+19,7.37621e+19,-1.64209e+18,1.64206e+18,-1.11688e+18,9.79867e+16,-9.75525e+16,2.14479e+13,-2.10458e+13,1.74384e+13,-1.73991e+13,9.68237e+11,-9.66872e+11,9.66769e+11,-8.89069e+10,8.88912e+10,-3.02468e+07,3.02035e+07
-1.99127e+25,1.86716e+25,-1.6399e+25,1.10332e+25,-1.1004e+25,8.01173e+24,-1.15661e+22,7.37767e+21,-7.35203e+21,4.97348e+19,-4.96268e+19,1.10479e+18,-1.10477e+18,7.5143e+17,-6.59249e+16,6.56328e+16,-1.443e+13,1.41595e+13,-1.17324e+13,1.17061e+13,-6.51425e+11,6.50507e+11,-6.50437e+11,5.98161e+10,-5.98056e+10,2.03499e+07,-2.03208e+07
1.98599e+25,-1.86222e+25,1.63556e+25,-1.1004e+25,1.09748e+25,-7.99051e+24,1.15354e+22,-7.35813e+21,7.33256e+21,-4.9603e+19,4.94954e+19,-1.10186e+18,1.10184e+18,-7.4944e+17,6.57503e+16,-6.5459e+16,1.43918e+13,-1.4122e+13,1.17014e+13,-1.16751e+13,6.497e+11,-6.48784e+11,6.48714e+11,-5.96577e+10,5.96472e+10,-2.0296e+07,2.02669e+07
-1.44595e+25,1.35584e+25,-1.19081e+25,8.01173e+24,-7.99051e+24,5.8177e+24,-8.39867e+21,5.35728e+21,-5.33866e+21,3.61148e+19,-3.60364e+19,8.02241e+17,-8.02226e+17,5.4565e+17,-4.78713e+16,4.76591e+16,-1.04783e+13,1.02819e+13,-8.51949e+12,8.50033e+12,-4.73031e+11,4.72364e+11,-4.72314e+11,4.34354e+10,-4.34277e+10,1.4777e+07,-1.47559e+07
2.08744e+22,-1.95734e+22,1.71911e+22,-1.15661e+22,1.15354e+22,-8.39867e+21,1.21247e+19,-7.73398e+18,7.70711e+18,-5.21368e+16,5.20236e+16,-1.15815e+15,1.15813e+15,-7.87722e+14,6.91089e+13,-6.88026e+13,1.5127e+10,-1.48434e+10,1.22991e+10,-1.22714e+10,6.82887e+08,-6.81924e+08,6.81851e+08,-6.2705e+07,6.2694e+07,-21332.7,21302.2
-1.33152e+22,1.24853e+22,-1.09657e+22,7.37767e+21,-7.35813e+21,5.35728e+21,-7.73398e+18,4.9333e+18,-4.91615e+18,3.32566e+16,-3.31844e+16,7.3875e+14,-7.38736e+14,5.02466e+14,-4.40827e+13,4.38873e+13,-9.64907e+09,9.46818e+09,-7.84524e+09,7.8276e+09,-4.35595e+08,4.34981e+08,-4.34934e+08,3.99978e+07,-3.99908e+07,13607.5,-13588.1
1.32689e+22,-1.2442e+22,1.09276e+22,-7.35203e+21,7.33256e+21,-5.33866e+21,7.70711e+18,-4.91615e+18,4.89907e+18,-3.3141e+16,3.30691e+16,-7.36183e+14,7.36169e+14,-5.0072e+14,4.39295e+13,-4.37348e+13,9.61554e+09,-9.43528e+09,7.81798e+09,-7.8004e+09,4.34081e+08,-4.33469e+08,4.33423e+08,-3.98588e+07,3.98518e+07,-13560.3,13540.9
-8.97611e+19,8.41669e+19,-7.39226e+19,4.97348e+19,-4.9603e+19,3.61148e+19,-5.21368e+16,3.32566e+16,-3.3141e+16,2.24191e+14,-2.23705e+14,4.9801e+12,-4.98001e+12,3.38725e+12,-2.97173e+11,2.95856e+11,-6.50469e+07,6.38274e+07,-5.28868e+07,5.27679e+07,-2.93646e+06,2.93232e+06,-2.932e+06,269636,-269588,91.7319,-91.6007
8.95662e+19,-8.39842e+19,7.37621e+19,-4.96268e+19,4.94954e+19,-3.60364e+19,5.20236e+16,-3.31844e+16,3.30691e+16,-2.23705e+14,2.23219e+14,-4.96929e+12,4.9692e+12,-3.3799e+12,2.96527e+11,-2.95213e+11,6.49057e+07,-6.36889e+07,5.2772e+07,-5.26533e+07,2.93008e+06,-2.92595e+06,2.92564e+06,-269050,269003,-91.5328,91.4019
-1.99392e+18,1.86965e+18,-1.64209e+18,1.10479e+18,-1.10186e+18,8.02241e+17,-1.15815e+15,7.3875e+14,-7.36183e+14,4.9801e+12,-4.96929e+12,1.10626e+11,-1.10624e+11,7.52432e+10,-6.60128e+09,6.57203e+09,-1.44493e+06,1.41784e+06,-1.17481e+06,1.17217e+06,-65229.3,65137.4,-65130.4,5989.58,-5988.53,2.0377,-2.03478
1.99388e+18,-1.86962e+18,1.64206e+18,-1.10477e+18,1.10184e+18,-8.02226e+17,1.15813e+15,-7.38736e+14,7.36169e+14,-4.98001e+12,4.9692e+12,-1.10624e+11,1.10622e+11,-7.52417e+10,6.60115e+09,-6.5719e+09,1.4449e+06,-1.41781e+06,1.17479e+06,-1.17214e+06,65228.1,-65136.1,65129.1,-5989.47,5988.41,-2.03766,2.03475
-1.35618e+18,1.27166e+18,-1.11688e+18,7.5143e+17,-7.4944e+17,5.4565e+17,-7.87722e+14,5.02466e+14,-5.0072e+14,3.38725e+12,-3.3799e+12,7.52432e+10,-7.52417e+10,5.11772e+10,-4.48991e+09,4.47001e+09,-982777,964353,-799053,797257,-44366.2,44303.6,-44298.9,4073.86,-4073.14,1.38595,-1.38397
1.18981e+17,-1.11566e+17,9.79867e+16,-6.59249e+16,6.57503e+16,-4.78713e+16,6.91089e+13,-4.40827e+13,4.39295e+13,-2.97173e+11,2.96527e+11,-6.60128e+09,6.60115e+09,-4.48991e+09,3.93911e+08,-3.92166e+08,86221.6,-84605.2,70103,-69945.4,3892.36,-3886.87,3886.46,-357.41,357.347,-0.121593,0.12142
-1.18454e+17,1.11071e+17,-9.75525e+16,6.56328e+16,-6.5459e+16,4.76591e+16,-6.88026e+13,4.38873e+13,-4.37348e+13,2.95856e+11,-2.95213e+11,6.57203e+09,-6.5719e+09,4.47001e+09,-3.92166e+08,3.90428e+08,-85839.5,84230.3,-69792.4,69635.5,-3875.11,3869.65,-3869.23,355.826,-355.764,0.121055,-0.120882
2.60433e+13,-2.44202e+13,2.14479e+13,-1.443e+13,1.43918e+13,-1.04783e+13,1.5127e+10,-9.64907e+09,9.61554e+09,-6.50469e+07,6.49057e+07,-1.44493e+06,1.4449e+06,-982777,86221.6,-85839.5,18.8727,-18.5189,15.3446,-15.3101,0.851983,-0.850782,0.850691,-0.078232,0.0782182,-2.66151e-05,2.6577e-05
-2.5555e+13,2.39624e+13,-2.10458e+13,1.41595e+13,-1.4122e+13,1.02819e+13,-1.48434e+10,9.46818e+09,-9.43528e+09,6.38274e+07,-6.36889e+07,1.41784e+06,-1.41781e+06,964353,-84605.2,84230.3,-18.5189,18.1717,-15.0569,15.023,-0.836011,0.834832,-0.834742,0.0767654,-0.0767519,2.61161e-05,-2.60788e-05
2.11747e+13,-1.9855e+13,1.74384e+13,-1.17324e+13,1.17014e+13,-8.51949e+12,1.22991e+10,-7.84524e+09,7.81798e+09,-5.28868e+07,5.2772e+07,-1.17481e+06,1.17479e+06,-799053,70103,-69792.4,15.3446,-15.0569,12.476,-12.4479,0.69271,-0.691734,0.69166,-0.0636071,0.0635959,-2.16396e-05,2.16086e-05
-2.1127e+13,1.98103e+13,-1.73991e+13,1.17061e+13,-1.16751e+13,8.50033e+12,-1.22714e+10,7.8276e+09,-7.8004e+09,5.27679e+07,-5.26533e+07,1.17217e+06,-1.17214e+06,797257,-69945.4,69635.5,-15.3101,15.023,-12.4479,12.42,-0.691153,0.690178,-0.690104,0.063464,-0.0634528,2.15909e-05,-2.156e-05
1.17569e+12,-1.10242e+12,9.68237e+11,-6.51425e+11,6.497e+11,-4.73031e+11,6.82887e+08,-4.35595e+08,4.34081e+08,-2.93646e+06,2.93008e+06,-65229.3,65228.1,-44366.2,3892.36,-3875.11,0.851983,-0.836011,0.69271,-0.691153,0.0384617,-0.0384074,0.0384033,-0.00353168,0.00353106,-1.2015e-06,1.19978e-06
-1.17403e+12,1.10086e+12,-9.66872e+11,6.50507e+11,-6.48784e+11,4.72364e+11,-6.81924e+08,4.34981e+08,-4.33469e+08,2.93232e+06,-2.92595e+06,65137.4,-65136.1,44303.6,-3886.87,3869.65,-0.850782,0.834832,-0.691734,0.690178,-0.0384074,0.0383533,-0.0383492,0.0035267,-0.00352608,1.19981e-06,-1.19809e-06
1.17391e+12,-1.10074e+12,9.66769e+11,-6.50437e+11,6.48714e+11,-4.72314e+11,6.81851e+08,-4.34934e+08,4.33423e+08,-2.932e+06,2.92564e+06,-65130.4,65129.1,-44298.9,3886.46,-3869.23,0.850691,-0.834742,0.69166,-0.690104,0.0384033,-0.0383492,0.0383451,-0.00352632,0.0035257,-1.19968e-06,1.19797e-06
-1.07956e+11,1.01228e+11,-8.89069e+10,5.98161e+10,-5.96577e+10,4.34354e+10,-6.2705e+07,3.99978e+07,-3.98588e+07,269636,-269050,5989.58,-5989.47,4073.86,-357.41,355.826,-0.078232,0.0767654,-0.0636071,0.063464,-0.00353168,0.0035267,-0.00352632,0.000324291,-0.000324234,1.10326e-07,-1.10168e-07
1.07937e+11,-1.0121e+11,8.88912e+10,-5.98056e+10,5.96472e+10,-4.34277e+10,6.2694e+07,-3.99908e+07,3.98518e+07,-269588,269003,-5988.53,5988.41,-4073.14,357.347,-355.764,0.0782182,-0.0767519,0.0635959,-0.0634528,0.00353106,-0.00352608,0.0035257,-0.000324234,0.000324177,-1.10307e-07,1.10149e-07
-3.67273e+07,3.44384e+07,-3.02468e+07,2.03499e+07,-2.0296e+07,1.4777e+07,-21332.7,13607.5,-13560.3,91.7319,-91.5328,2.0377,-2.03766,1.38595,-0.121593,0.121055,-2.66151e-05,2.61161e-05,-2.16396e-05,2.15909e-05,-1.2015e-06,1.19981e-06,-1.19968e-06,1.10326e-07,-1.10307e-07,3.7534e-11,-3.74803e-11
3.66748e+07,-3.43891e+07,3.02035e+07,-2.03208e+07,2.02669e+07,-1.47559e+07,21302.2,-13588.1,13540.9,-91.6007,91.4019,-2.03478,2.03475,-1.38397,0.12142,-0.120882,2.6577e-05,-2.60788e-05,2.16086e-05,-2.156e-05,1.19978e-06,-1.19809e-06,1.19797e-06,-1.10168e-07,1.10149e-07,-3.74803e-11,3.74267e-11
