6.15215e-05,7.51246e-06,-1.75762e-05,2.1921e-07,1.74675e-06,-2.27853e-08,-2.28763e-12,-2.24724e-14,3.35476e-14,-8.86357e-17,-7.37777e-16,5.74151e-18,-1.13742e-16,-8.12562e-18,1.20199e-22,-1.97998e-18,8.57833e-28,1.13389e-29,-9.41827e-32,-3.5221e-29,3.18485e-32,1.58416e-31,4.8237e-28,-6.25851e-29,1.9507e-26,-1.12985e-35,-5.13395e-33
7.51246e-06,2.57174e-06,-6.01684e-06,7.50421e-08,5.97965e-07,-7.80008e-09,-7.83122e-13,-7.69295e-15,1.14843e-14,-3.03426e-17,-2.52563e-16,1.96549e-18,-3.89374e-17,-2.78164e-18,4.11477e-23,-6.77805e-19,2.93662e-28,3.88165e-30,-3.22415e-32,-1.20572e-29,1.09027e-32,5.42305e-32,1.65129e-28,-2.14247e-29,6.67783e-27,-3.86781e-36,-1.7575e-33
-1.75762e-05,-6.01684e-06,0.000145929,-1.82003e-06,-1.45027e-05,1.89179e-07,1.89934e-11,1.86581e-13,-2.78535e-13,7.35913e-16,6.12552e-15,-4.76699e-17,9.44366e-16,6.74644e-17,-9.97974e-22,1.64391e-17,-7.1223e-27,-9.41435e-29,7.81968e-31,2.92428e-28,-2.64428e-31,-1.31528e-30,-4.00496e-27,5.19624e-28,-1.61961e-25,9.38076e-35,4.26255e-32
2.1921e-07,7.50421e-08,-1.82003e-06,1.9982e-06,1.59225e-05,-2.07698e-07,-2.08528e-11,-2.04846e-13,3.05802e-13,-8.07955e-16,-6.72518e-15,5.23365e-17,-1.03681e-15,-7.40688e-17,1.09567e-21,-1.80484e-17,7.81954e-27,1.0336e-28,-8.58519e-31,-3.21055e-28,2.90314e-31,1.44404e-30,4.39702e-27,-5.70492e-28,1.77816e-25,-1.02991e-34,-4.67983e-32
1.74675e-06,5.97965e-07,-1.45027e-05,1.59225e-05,0.00961079,-0.000125367,-1.25867e-08,-1.23645e-10,1.84582e-10,-4.87682e-13,-4.05932e-12,3.15903e-14,-6.2582e-13,-4.47079e-14,6.61346e-19,-1.0894e-14,4.71987e-24,6.23878e-26,-5.18202e-28,-1.93789e-25,1.75233e-28,8.71619e-28,2.65404e-24,-3.44349e-25,1.07329e-22,-6.21653e-32,-2.82474e-29
-2.27853e-08,-7.80008e-09,1.89179e-07,-2.07698e-07,-0.000125367,7.86919e-05,7.90061e-09,7.76112e-11,-1.15861e-10,3.06115e-13,2.54801e-12,-1.9829e-14,3.92824e-13,2.80629e-14,-4.15123e-19,6.8381e-15,-2.96264e-24,-3.91605e-26,3.25272e-28,1.2164e-25,-1.09993e-28,-5.4711e-28,-1.66593e-24,2.16146e-25,-6.737e-23,3.90208e-32,1.77307e-29
-2.28763e-12,-7.83122e-13,1.89934e-11,-2.08528e-11,-1.25867e-08,7.90061e-09,3.47378e-10,3.41245e-12,-5.09423e-12,1.34594e-14,1.12032e-13,-8.71853e-16,1.72719e-14,1.23388e-15,-1.82523e-20,3.00661e-16,-1.30263e-25,-1.72183e-27,1.43017e-29,5.34833e-27,-4.83623e-30,-2.40556e-29,-7.32482e-26,9.5036e-27,-2.96216e-24,1.71568e-33,7.79594e-31
-2.24724e-14,-7.69295e-15,1.86581e-13,-2.04846e-13,-1.23645e-10,7.76112e-11,3.41245e-12,5.00107e-13,-7.46579e-13,1.97253e-15,1.64187e-14,-1.27773e-16,2.53126e-15,1.8083e-16,-2.67495e-21,4.40631e-17,-1.90905e-26,-2.52341e-28,2.09597e-30,7.83819e-28,-7.08768e-31,-3.52545e-30,-1.07348e-26,1.39279e-27,-4.34116e-25,2.5144e-34,1.14253e-31
3.35476e-14,1.14843e-14,-2.78535e-13,3.05802e-13,1.84582e-10,-1.15861e-10,-5.09423e-12,-7.46579e-13,1.65748e-09,-4.37922e-12,-3.64513e-11,2.8367e-13,-5.61966e-12,-4.01462e-13,5.93867e-18,-9.78245e-14,4.23829e-23,5.60222e-25,-4.65328e-27,-1.74016e-24,1.57354e-27,7.82685e-27,2.38324e-23,-3.09214e-24,9.63782e-22,-5.58223e-31,-2.53652e-28
-8.86357e-17,-3.03426e-17,7.35913e-16,-8.07955e-16,-4.87682e-13,3.06115e-13,1.34594e-14,1.97253e-15,-4.37922e-12,2.8028e-13,2.33297e-12,-1.81556e-14,3.59671e-13,2.56945e-14,-3.80089e-19,6.261e-15,-2.7126e-24,-3.58555e-26,2.97821e-28,1.11374e-25,-1.0071e-28,-5.00937e-28,-1.52533e-24,1.97904e-25,-6.16843e-23,3.57276e-32,1.62344e-29
-7.37777e-16,-2.52563e-16,6.12552e-15,-6.72518e-15,-4.05932e-12,2.54801e-12,1.12032e-13,1.64187e-14,-3.64513e-11,2.33297e-12,7.01439e-08,-5.45872e-10,1.0814e-08,7.7254e-10,-1.14279e-14,1.88246e-10,-8.15581e-20,-1.07804e-21,8.95439e-24,3.34862e-21,-3.02799e-24,-1.50614e-23,-4.58611e-20,5.95026e-21,-1.85462e-18,1.0742e-27,4.88108e-25
5.74151e-18,1.96549e-18,-4.76699e-17,5.23365e-17,3.15903e-14,-1.9829e-14,-8.71853e-16,-1.27773e-16,2.8367e-13,-1.81556e-14,-5.45872e-10,2.94558e-10,-5.83534e-09,-4.1687e-10,6.16659e-15,-1.01579e-10,4.40095e-20,5.81723e-22,-4.83187e-24,-1.80695e-21,1.63393e-24,8.12725e-24,2.47471e-20,-3.21082e-21,1.00077e-18,-5.79648e-28,-2.63388e-25
-1.13742e-16,-3.89374e-17,9.44366e-16,-1.03681e-15,-6.2582e-13,3.92824e-13,1.72719e-14,2.53126e-15,-5.61966e-12,3.59671e-13,1.0814e-08,-5.83534e-09,1.56225e-06,1.11605e-07,-1.65093e-12,2.71949e-08,-1.17823e-17,-1.5574e-19,1.29359e-21,4.83758e-19,-4.37438e-22,-2.17584e-21,-6.62532e-18,8.59603e-19,-2.67928e-16,1.55184e-25,7.05145e-23
-8.12562e-18,-2.78164e-18,6.74644e-17,-7.40688e-17,-4.47079e-14,2.80629e-14,1.23388e-15,1.8083e-16,-4.01462e-13,2.56945e-14,7.7254e-10,-4.1687e-10,1.11605e-07,1.89098e-08,-2.79725e-13,4.60776e-09,-1.99633e-18,-2.63877e-20,2.1918e-22,8.19655e-20,-7.41173e-23,-3.68663e-22,-1.12256e-18,1.45647e-19,-4.53964e-17,2.62936e-26,1.19476e-23
1.20199e-22,4.11477e-23,-9.97974e-22,1.09567e-21,6.61346e-19,-4.15123e-19,-1.82523e-20,-2.67495e-21,5.93867e-18,-3.80089e-19,-1.14279e-14,6.16659e-15,-1.65093e-12,-2.79725e-13,6.54946e-15,-1.07886e-10,4.6742e-20,6.17841e-22,-5.13187e-24,-1.91914e-21,1.73538e-24,8.63185e-24,2.62836e-20,-3.41017e-21,1.06291e-18,-6.15637e-28,-2.79741e-25
-1.97998e-18,-6.77805e-19,1.64391e-17,-1.80484e-17,-1.0894e-14,6.8381e-15,3.00661e-16,4.40631e-17,-9.78245e-14,6.261e-15,1.88246e-10,-1.01579e-10,2.71949e-08,4.60776e-09,-1.07886e-10,1.77715e-06,-7.69956e-16,-1.01774e-17,8.45346e-20,3.16129e-17,-2.8586e-20,-1.42188e-19,-4.32956e-16,5.61739e-17,-1.75087e-14,1.01411e-23,4.60802e-21
8.57833e-28,2.93662e-28,-7.1223e-27,7.81954e-27,4.71987e-24,-2.96264e-24,-1.30263e-25,-1.90905e-26,4.23829e-23,-2.7126e-24,-8.15581e-20,4.40095e-20,-1.17823e-17,-1.99633e-18,4.6742e-20,-7.69956e-16,6.84572e-19,9.04876e-21,-7.51602e-23,-2.81072e-20,2.54159e-23,1.2642e-22,3.84943e-19,-4.99445e-20,1.55671e-17,-9.01648e-27,-4.09702e-24
1.13389e-29,3.88165e-30,-9.41435e-29,1.0336e-28,6.23878e-26,-3.91605e-26,-1.72183e-27,-2.52341e-28,5.60222e-25,-3.58555e-26,-1.07804e-21,5.81723e-22,-1.5574e-19,-2.63877e-20,6.17841e-22,-1.01774e-17,9.04876e-21,4.96821e-21,-4.12666e-23,-1.54322e-20,1.39546e-23,6.94108e-23,2.11353e-19,-2.7422e-20,8.5471e-18,-4.95049e-27,-2.24946e-24
-9.41827e-32,-3.22415e-32,7.81968e-31,-8.58519e-31,-5.18202e-28,3.25272e-28,1.43017e-29,2.09597e-30,-4.65328e-27,2.97821e-28,8.95439e-24,-4.83187e-24,1.29359e-21,2.1918e-22,-5.13187e-24,8.45346e-20,-7.51602e-23,-4.12666e-23,7.35413e-24,2.75018e-21,-2.48685e-24,-1.23697e-23,-3.76652e-20,4.88687e-21,-1.52318e-18,8.82227e-28,4.00877e-25
-3.5221e-29,-1.20572e-29,2.92428e-28,-3.21055e-28,-1.93789e-25,1.2164e-25,5.34833e-27,7.83819e-28,-1.74016e-24,1.11374e-25,3.34862e-21,-1.80695e-21,4.83758e-19,8.19655e-20,-1.91914e-21,3.16129e-17,-2.81072e-20,-1.54322e-20,2.75018e-21,2.05363e-18,-1.85699e-21,-9.23678e-21,-2.81256e-17,3.64915e-18,-1.1374e-15,6.58782e-25,2.99345e-22
3.18485e-32,1.09027e-32,-2.64428e-31,2.90314e-31,1.75233e-28,-1.09993e-28,-4.83623e-30,-7.08768e-31,1.57354e-27,-1.0071e-28,-3.02799e-24,1.63393e-24,-4.37438e-22,-7.41173e-23,1.73538e-24,-2.8586e-20,2.54159e-23,1.39546e-23,-2.48685e-24,-1.85699e-21,1.15307e-21,5.73545e-21,1.74642e-17,-2.26589e-18,7.06251e-16,-4.09061e-25,-1.85874e-22
1.58416e-31,5.42305e-32,-1.31528e-30,1.44404e-30,8.71619e-28,-5.4711e-28,-2.40556e-29,-3.52545e-30,7.82685e-27,-5.00937e-28,-1.50614e-23,8.12725e-24,-2.17584e-21,-3.68663e-22,8.63185e-24,-1.42188e-19,1.2642e-22,6.94108e-23,-1.23697e-23,-9.23678e-21,5.73545e-21,5.04802e-20,1.5371e-16,-1.99431e-17,6.21603e-15,-3.60033e-24,-1.63596e-21
4.8237e-28,1.65129e-28,-4.00496e-27,4.39702e-27,2.65404e-24,-1.66593e-24,-7.32482e-26,-1.07348e-26,2.38324e-23,-1.52533e-24,-4.58611e-20,2.47471e-20,-6.62532e-18,-1.12256e-18,2.62836e-20,-4.32956e-16,3.84943e-19,2.11353e-19,-3.76652e-20,-2.81256e-17,1.74642e-17,1.5371e-16,4.78169e-13,-6.204e-14,1.93371e-11,-1.12001e-20,-5.08923e-18
-6.25851e-29,-2.14247e-29,5.19624e-28,-5.70492e-28,-3.44349e-25,2.16146e-25,9.5036e-27,1.39279e-27,-3.09214e-24,1.97904e-25,5.95026e-21,-3.21082e-21,8.59603e-19,1.45647e-19,-3.41017e-21,5.61739e-17,-4.99445e-20,-2.7422e-20,4.88687e-21,3.64915e-18,-2.26589e-18,-1.99431e-17,-6.204e-14,3.92849e-14,-1.22446e-11,7.0921e-21,3.2226e-18
1.9507e-26,6.67783e-27,-1.61961e-25,1.77816e-25,1.07329e-22,-6.737e-23,-2.96216e-24,-4.34116e-25,9.63782e-22,-6.16843e-23,-1.85462e-18,1.00077e-18,-2.67928e-16,-4.53964e-17,1.06291e-18,-1.75087e-14,1.55671e-17,8.5471e-18,-1.52318e-18,-1.1374e-15,7.06251e-16,6.21603e-15,1.93371e-11,-1.22446e-11,3.81666e-09,-2.21061e-18,-1.00448e-15
-1.12985e-35,-3.86781e-36,9.38076e-35,-1.02991e-34,-6.21653e-32,3.90208e-32,1.71568e-33,2.5144e-34,-5.58223e-31,3.57276e-32,1.0742e-27,-5.79648e-28,1.55184e-25,2.62936e-26,-6.15637e-28,1.01411e-23,-9.01648e-27,-4.95049e-27,8.82227e-28,6.58782e-25,-4.09061e-25,-3.60033e-24,-1.12001e-20,7.0921e-21,-2.21061e-18,3.62771e-21,1.64841e-18
-5.13395e-33,-1.7575e-33,4.26255e-32,-4.67983e-32,-2.82474e-29,1.77307e-29,7.79594e-31,1.14253e-31,-2.53652e-28,1.62344e-29,4.88108e-25,-2.63388e-25,7.05145e-23,1.19476e-23,-2.79741e-25,4.60802e-21,-4.09702e-24,-2.24946e-24,4.00877e-25,2.99345e-22,-1.85874e-22,-1.63596e-21,-5.08923e-18,3.2226e-18,-1.00448e-15,1.64841e-18,1.00471e-15
