0.0424722,0.000304349,0.0679884,-0.00628266,0.0223551,-0.0428396,-3.58086e-05,-1.6404e-07,0.00181505,1.40336e-06,0.000264185,9.70037e-05,-0.00093672,0.00164987,-4.76618e-06,-0.0721886,-0.00026844,-5.37875e-05,6.0164e-06,-5.07782e-05,1.45756e-05,-0.000203979,-0.0730924,-0.000819231,0.0311883,3.11598e-05,0.0166014
0.000304349,0.00019863,0.000191561,0.000117049,-0.00104823,0.00155751,-5.30674e-07,-3.41505e-08,5.1859e-05,-4.13786e-08,-6.18881e-07,2.38954e-06,-1.73974e-05,4.82173e-05,9.91089e-08,-0.000438846,-8.43263e-06,-1.62307e-06,1.07454e-07,-3.21521e-07,2.06522e-07,-5.30441e-06,-0.000848179,-2.2161e-05,-0.000868687,6.34041e-07,0.000197
0.0679884,0.000191561,0.169537,-0.0114481,0.0408212,-0.110917,-1.22926e-05,-1.9767e-07,0.00148633,5.59467e-06,0.000626413,8.38017e-05,-0.00546668,0.000942076,-2.94986e-05,-0.101202,-0.000147075,-0.000130721,1.4177e-05,-9.9316e-05,3.57126e-05,-0.000209432,-0.138519,-0.000679696,0.0794983,3.54763e-05,0.0313505
-0.00628266,0.000117049,-0.0114481,0.00127863,-0.00121215,0.00889786,5.04464e-06,1.10464e-08,-0.000276085,-3.12485e-07,-5.31746e-05,-1.47639e-05,0.000201532,-0.000246066,7.88244e-07,0.0111303,4.01235e-05,1.18418e-05,-1.37609e-06,8.85196e-06,-3.44803e-06,3.14431e-05,0.0138046,0.000123259,-0.00618426,-5.04301e-06,-0.00313422
0.0223551,-0.00104823,0.0408212,-0.00121215,4.86828,-0.0263366,-2.85225e-05,-3.6381e-08,0.000896596,-1.49068e-07,0.00527537,4.76312e-05,-9.15642e-05,0.000912623,3.08725e-07,-0.0390388,-0.000125692,-0.000680063,7.35958e-05,-0.00170839,0.000186113,-0.000108359,-0.0586547,-0.000350273,0.00766197,1.63381e-05,0.00633563
-0.0428396,0.00155751,-0.110917,0.00889786,-0.0263366,7.27148,-5.93656e-05,-5.05644e-07,0.0042385,-9.19477e-06,-0.0318211,0.000262752,0.00126585,0.00421621,5.60617e-05,0.221313,-0.000958856,-0.00030048,3.42508e-05,0.00167293,6.73879e-05,-0.000365361,0.495431,-0.00229578,-5.40342,0.000101734,-0.098216
-3.58086e-05,-5.30674e-07,-1.22926e-05,5.04464e-06,-2.85225e-05,-5.93656e-05,2.12009e-07,5.62635e-10,-6.87846e-06,8.02158e-09,2.39924e-07,-3.6214e-07,-2.3231e-06,-6.80519e-06,-7.67684e-08,3.78628e-05,1.17353e-06,-5.81184e-08,5.07636e-09,-1.10112e-08,1.20527e-08,6.51066e-07,-1.54664e-05,3.12798e-06,5.22908e-05,-9.82776e-08,3.40212e-06
-1.6404e-07,-3.41505e-08,-1.9767e-07,1.10464e-08,-3.6381e-08,-5.05644e-07,5.62635e-10,1.53839e-11,-4.21228e-08,2.37475e-11,-1.05799e-09,-2.1048e-09,7.38488e-09,-4.02349e-08,-1.92117e-10,3.86784e-07,6.99402e-09,1.13119e-09,-1.20569e-10,3.42741e-10,-3.27562e-10,4.24631e-09,6.22607e-07,1.86775e-08,3.33761e-07,-6.3683e-10,-1.42043e-07
0.00181505,5.1859e-05,0.00148633,-0.000276085,0.000896596,0.0042385,-6.87846e-06,-4.21228e-08,0.00056729,-2.84623e-07,-1.54861e-05,3.00788e-05,-2.70097e-06,0.000542344,2.43387e-06,-0.00391163,-9.51901e-05,5.67384e-06,-5.35565e-07,5.96271e-07,-1.26118e-06,-5.70362e-05,-0.000251302,-0.000258757,-0.00333301,9.17455e-06,6.70571e-05
1.40336e-06,-4.13786e-08,5.59467e-06,-3.12485e-07,-1.49068e-07,-9.19477e-06,8.02158e-09,2.37475e-11,-2.84623e-07,6.42269e-10,5.10218e-08,-1.656e-08,-2.58973e-07,-2.97312e-07,-4.78914e-09,-4.98017e-06,5.75724e-08,-1.28441e-08,1.34736e-09,-6.92224e-09,3.24376e-09,2.4222e-08,-9.58363e-06,1.37373e-07,7.39699e-06,-4.37849e-09,2.16902e-06
0.000264185,-6.18881e-07,0.000626413,-5.31746e-05,0.00527537,-0.0318211,2.39924e-07,-1.05799e-09,-1.54861e-05,5.10218e-08,0.000184101,-1.42617e-06,-1.01365e-05,-1.53948e-05,-2.9554e-07,-0.00159364,4.35238e-06,-4.66262e-06,4.94402e-07,-1.35386e-05,1.28729e-06,1.14612e-06,-0.00348766,1.02772e-05,0.0237857,-5.14341e-07,0.000723387
9.70037e-05,2.38954e-06,8.38017e-05,-1.47639e-05,4.76312e-05,0.000262752,-3.6214e-07,-2.1048e-09,3.00788e-05,-1.656e-08,-1.42617e-06,1.66407e-06,3.05901e-08,2.87458e-05,1.36911e-07,-0.000122704,-5.20244e-06,5.30362e-07,-5.32153e-08,1.40562e-07,-1.26334e-07,-3.0112e-06,0.000122986,-1.3984e-05,-0.000225438,5.12353e-07,-2.74597e-05
-0.00093672,-1.73974e-05,-0.00546668,0.000201532,-9.15642e-05,0.00126585,-2.3231e-06,7.38488e-09,-2.70097e-06,-2.58973e-07,-1.01365e-05,3.05901e-08,0.000367953,2.91372e-05,1.73894e-06,0.0016098,-6.02613e-06,3.74834e-06,-4.046e-07,1.69898e-06,-9.67457e-07,2.56576e-06,0.0023322,2.4897e-07,-0.000916244,-5.63837e-07,-0.000529877
0.00164987,4.82173e-05,0.000942076,-0.000246066,0.000912623,0.00421621,-6.80519e-06,-4.02349e-08,0.000542344,-2.97312e-07,-1.53948e-05,2.87458e-05,2.91372e-05,0.000521593,2.4982e-06,-0.00362353,-9.15868e-05,5.4955e-06,-5.18388e-07,6.48862e-07,-1.22124e-06,-5.43103e-05,-9.72608e-05,-0.000247369,-0.0032984,8.71058e-06,3.15767e-05
-4.76618e-06,9.91089e-08,-2.94986e-05,7.88244e-07,3.08725e-07,5.60617e-05,-7.67684e-08,-1.92117e-10,2.43387e-06,-4.78914e-09,-2.9554e-07,1.36911e-07,1.73894e-06,2.4982e-06,3.97712e-08,2.80963e-05,-4.7087e-07,7.28624e-08,-7.41101e-09,4.0281e-08,-1.76287e-08,-2.12701e-07,5.28144e-05,-1.15063e-06,-4.61769e-05,3.62062e-08,-1.19528e-05
-0.0721886,-0.000438846,-0.101202,0.0111303,-0.0390388,0.221313,3.78628e-05,3.86784e-07,-0.00391163,-4.98017e-06,-0.00159364,-0.000122704,0.0016098,-0.00362353,2.80963e-05,0.337041,0.000324183,0.000343503,-3.77829e-05,0.000270131,-9.09949e-05,0.000451368,0.404989,0.00137556,-0.199924,-2.45623e-05,-0.0919767
-0.00026844,-8.43263e-06,-0.000147075,4.01235e-05,-0.000125692,-0.000958856,1.17353e-06,6.99402e-09,-9.51901e-05,5.75724e-08,4.35238e-06,-5.20244e-06,-6.02613e-06,-9.15868e-05,-4.7087e-07,0.000324183,1.66052e-05,-1.39772e-06,1.38142e-07,-3.9454e-07,3.26227e-07,9.48883e-06,-0.000356752,4.41221e-05,0.000784096,-1.60036e-06,7.94043e-05
-5.37875e-05,-1.62307e-06,-0.000130721,1.18418e-05,-0.000680063,-0.00030048,-5.81184e-08,1.13119e-09,5.67384e-06,-1.28441e-08,-4.66262e-06,5.30362e-07,3.74834e-06,5.4955e-06,7.28624e-08,0.000343503,-1.39772e-06,2.58495e-06,-2.79408e-07,9.86712e-07,-6.73896e-07,-4.64066e-07,0.000756736,-3.52333e-06,0.000154858,1.55126e-07,-0.000171678
6.0164e-06,1.07454e-07,1.4177e-05,-1.37609e-06,7.35958e-05,3.42508e-05,5.07636e-09,-1.20569e-10,-5.35565e-07,1.34736e-09,4.94402e-07,-5.32153e-08,-4.046e-07,-5.18388e-07,-7.41101e-09,-3.77829e-05,1.38142e-07,-2.79408e-07,3.02668e-08,-1.05709e-07,7.29091e-08,4.24955e-08,-8.12861e-05,3.45168e-07,-1.81226e-05,-1.55173e-08,1.84438e-05
-5.07782e-05,-3.21521e-07,-9.9316e-05,8.85196e-06,-0.00170839,0.00167293,-1.10112e-08,3.42741e-10,5.96271e-07,-6.92224e-09,-1.35386e-05,1.40562e-07,1.69898e-06,6.48862e-07,4.0281e-08,0.000270131,-3.9454e-07,9.86712e-07,-1.05709e-07,1.73908e-06,-2.66105e-07,5.88534e-09,0.00049693,-7.79612e-07,-0.00127351,4.7706e-08,-0.000108306
1.45756e-05,2.06522e-07,3.57126e-05,-3.44803e-06,0.000186113,6.73879e-05,1.20527e-08,-3.27562e-10,-1.26118e-06,3.24376e-09,1.28729e-06,-1.26334e-07,-9.67457e-07,-1.22124e-06,-1.76287e-08,-9.09949e-05,3.26227e-07,-6.73896e-07,7.29091e-08,-2.66105e-07,1.76905e-07,9.90817e-08,-0.00020262,8.18932e-07,-3.29162e-05,-3.65414e-08,4.59384e-05
-0.000203979,-5.30441e-06,-0.000209432,3.14431e-05,-0.000108359,-0.000365361,6.51066e-07,4.24631e-09,-5.70362e-05,2.4222e-08,1.14612e-06,-3.0112e-06,2.56576e-06,-5.43103e-05,-2.12701e-07,0.000451368,9.48883e-06,-4.64066e-07,4.24955e-08,5.88534e-09,9.90817e-08,5.7756e-06,0.000110475,2.59514e-05,0.000286202,-9.25076e-07,-2.60488e-05
-0.0730924,-0.000848179,-0.138519,0.0138046,-0.0586547,0.495431,-1.54664e-05,6.22607e-07,-0.000251302,-9.58363e-06,-0.00348766,0.000122986,0.0023322,-9.72608e-05,5.28144e-05,0.404989,-0.000356752,0.000756736,-8.12861e-05,0.00049693,-0.00020262,0.000110475,0.712552,-0.000543263,-0.428448,5.42089e-05,-0.161273
-0.000819231,-2.2161e-05,-0.000679696,0.000123259,-0.000350273,-0.00229578,3.12798e-06,1.86775e-08,-0.000258757,1.37373e-07,1.02772e-05,-1.3984e-05,2.4897e-07,-0.000247369,-1.15063e-06,0.00137556,4.41221e-05,-3.52333e-06,3.45168e-07,-7.79612e-07,8.18932e-07,2.59514e-05,-0.000543263,0.00011921,0.0018624,-4.29588e-06,0.000118628
0.0311883,-0.000868687,0.0794983,-0.00618426,0.00766197,-5.40342,5.22908e-05,3.33761e-07,-0.00333301,7.39699e-06,0.0237857,-0.000225438,-0.000916244,-0.0032984,-4.61769e-05,-0.199924,0.000784096,0.000154858,-1.81226e-05,-0.00127351,-3.29162e-05,0.000286202,-0.428448,0.0018624,4.02629,-8.75626e-05,0.0867234
3.11598e-05,6.34041e-07,3.54763e-05,-5.04301e-06,1.63381e-05,0.000101734,-9.82776e-08,-6.3683e-10,9.17455e-06,-4.37849e-09,-5.14341e-07,5.12353e-07,-5.63837e-07,8.71058e-06,3.62062e-08,-2.45623e-05,-1.60036e-06,1.55126e-07,-1.55173e-08,4.7706e-08,-3.65414e-08,-9.25076e-07,5.42089e-05,-4.29588e-06,-8.75626e-05,1.62722e-07,-1.21288e-05
0.0166014,0.000197,0.0313505,-0.00313422,0.00633563,-0.098216,3.40212e-06,-1.42043e-07,6.70571e-05,2.16902e-06,0.000723387,-2.74597e-05,-0.000529877,3.15767e-05,-1.19528e-05,-0.0919767,7.94043e-05,-0.000171678,1.84438e-05,-0.000108306,4.59384e-05,-2.60488e-05,-0.161273,0.000118628,0.0867234,-1.21288e-05,0.0365439
