0.00867387,0.000501738,0.0401068,-0.000255706,0.761485,2.05673,-3.72132e-06,-7.04672e-08,-0.000693261,2.03739e-07,0.00213549,-3.79686e-05,-0.00180279,-0.000871196,-3.02261e-06,-0.0212722,0.000177635,-0.000328089,1.16692e-05,-0.000566607,6.8128e-05,1.4972e-05,-0.0679562,0.000326449,-1.5211,-4.21433e-06,0.0130734
0.000501738,0.00144485,0.00231346,9.03306e-05,0.0807807,0.491318,-2.11683e-07,-2.62623e-07,0.000196249,-7.34476e-09,0.000276612,1.74693e-06,-0.000892775,8.94909e-05,-2.12399e-07,-0.00147696,-1.55483e-05,-5.19432e-05,1.45616e-06,-9.87684e-05,9.65615e-06,-5.95145e-06,-0.0217534,-4.67665e-05,-0.362093,9.67532e-07,0.00430602
0.0401068,0.00231346,2.33682,-0.00684658,1.25631,-3.51036,-5.55873e-07,5.69145e-07,-0.0981659,2.65894e-06,0.00640548,-0.00413014,-0.192603,-0.116415,-1.91481e-05,-0.115564,0.0221286,-0.00136742,4.39694e-05,-0.00153364,0.00028252,0.00339907,-1.22572,0.0403732,2.56162,-0.000650058,0.234872
-0.000255706,9.03306e-05,-0.00684658,0.000237778,0.189359,-0.35385,5.50321e-08,-1.24679e-08,-0.000225179,-5.26814e-08,0.00100324,-8.87098e-06,0.000565651,-0.000131688,1.08375e-07,0.00155143,2.3925e-05,-2.47885e-05,8.62441e-07,-9.87428e-05,5.20926e-06,8.21208e-06,-0.000278173,9.00638e-05,0.261646,-1.61948e-06,-0.000263075
0.761485,0.0807807,1.25631,0.189359,1876.91,-913.41,-0.0010725,-7.19054e-05,-1.94794,-2.86811e-05,8.66049,-0.0854331,0.512143,-1.72777,-0.000183429,-3.20547,0.332034,-0.461367,0.0165819,-1.11202,0.0973371,0.0642127,-57.9842,0.827378,672.591,-0.0121875,8.93388
2.05673,0.491318,-3.51036,-0.35385,-913.41,11649.9,-0.00112724,-0.000138141,3.37443,8.38288e-05,-10.6265,0.13453,-0.937658,3.1061,-0.000978637,-11.5043,-0.576665,-0.251324,0.00917921,0.200427,0.0508996,-0.117358,85.3269,-1.38334,-8608.12,0.0223253,-11.449
-3.72132e-06,-2.11683e-07,-5.55873e-07,5.50321e-08,-0.0010725,-0.00112724,1.05782e-08,1.82022e-10,-1.78735e-06,2.46985e-11,-4.30356e-06,-6.79694e-08,-4.51009e-07,-1.89958e-06,-6.89979e-10,4.21784e-06,3.53996e-07,4.45656e-07,-1.62824e-08,6.74973e-07,-9.31264e-08,6.70228e-08,1.838e-05,6.96757e-07,0.000834749,-1.25132e-08,-2.69088e-06
-7.04672e-08,-2.62623e-07,5.69145e-07,-1.24679e-08,-7.19054e-05,-0.000138141,1.82022e-10,2.10087e-10,-6.8836e-07,3.35375e-12,-3.04453e-07,-2.66803e-08,9.44413e-08,-6.65877e-07,-6.71504e-12,2.69778e-07,1.25736e-07,2.85229e-08,-1.00578e-09,4.71909e-08,-6.70819e-09,2.4479e-08,9.48572e-06,2.7091e-07,0.00010197,-4.62026e-09,-1.75166e-06
-0.000693261,0.000196249,-0.0981659,-0.000225179,-1.94794,3.37443,-1.78735e-06,-6.8836e-07,0.0416207,-2.43239e-09,-0.0100933,0.00172561,0.00151121,0.0396092,8.63922e-07,0.00211917,-0.00750781,0.00110951,-3.92797e-05,0.00128718,-0.000225961,-0.00144773,0.325122,-0.0169839,-2.48172,0.000274204,-0.0597894
2.03739e-07,-7.34476e-09,2.65894e-06,-5.26814e-08,-2.86811e-05,8.38288e-05,2.46985e-11,3.35375e-12,-2.43239e-09,1.87418e-11,-1.67556e-07,-6.25885e-10,-1.90242e-07,-3.05742e-08,-1.20706e-10,-9.66942e-07,6.58816e-09,7.24362e-10,-2.65405e-11,1.24149e-08,-1.77227e-10,-2.42014e-10,-2.5926e-06,3.56461e-09,-6.19502e-05,-2.5513e-11,5.57744e-07
0.00213549,0.000276612,0.00640548,0.00100324,8.66049,-10.6265,-4.30356e-06,-3.04453e-07,-0.0100933,-1.67556e-07,0.0443909,-0.000437329,0.00262376,-0.00899753,-1.68103e-07,-0.00722682,0.00171866,-0.00196872,7.07151e-05,-0.00495992,0.000415845,0.000335411,-0.304844,0.00427292,7.8422,-6.38117e-05,0.0460092
-3.79686e-05,1.74693e-06,-0.00413014,-8.87098e-06,-0.0854331,0.13453,-6.79694e-08,-2.66803e-08,0.00172561,-6.25885e-10,-0.000437329,7.17106e-05,6.96061e-05,0.00164275,4.10728e-08,0.000155591,-0.000311459,4.852e-05,-1.71785e-06,5.68748e-05,-9.89444e-06,-5.99814e-05,0.0141744,-0.000704992,-0.098927,1.13682e-05,-0.0026099
-0.00180279,-0.000892775,-0.192603,0.000565651,0.512143,-0.937658,-4.51009e-07,9.44413e-08,0.00151121,-1.90242e-07,0.00262376,6.96061e-05,0.0197143,0.00381436,1.09349e-06,0.0061487,-0.000727054,-9.9831e-05,3.86548e-06,-0.000249995,2.26175e-05,-5.98536e-05,0.00417045,-0.000649716,0.690193,1.16171e-05,-0.00170102
-0.000871196,8.94909e-05,-0.116415,-0.000131688,-1.72777,3.1061,-1.89958e-06,-6.65877e-07,0.0396092,-3.05742e-08,-0.00899753,0.00164275,0.00381436,0.0380127,9.88932e-07,0.00277246,-0.00720556,0.00101143,-3.57098e-05,0.0011557,-0.000205551,-0.00137894,0.306622,-0.0161654,-2.28444,0.00026121,-0.056546
-3.02261e-06,-2.12399e-07,-1.91481e-05,1.08375e-07,-0.000183429,-0.000978637,-6.89979e-10,-6.71504e-12,8.63922e-07,-1.20706e-10,-1.68103e-07,4.10728e-08,1.09349e-06,9.88932e-07,1.85649e-09,1.12963e-05,-1.96895e-07,8.81105e-08,-3.04252e-09,1.69056e-07,-1.81659e-08,-2.63254e-08,3.28145e-05,-3.78457e-07,0.000723461,5.84809e-09,-6.54653e-06
-0.0212722,-0.00147696,-0.115564,0.00155143,-3.20547,-11.5043,4.21784e-06,2.69778e-07,0.00211917,-9.66942e-07,-0.00722682,0.000155591,0.0061487,0.00277246,1.12963e-05,0.122282,-0.00063653,0.00141597,-5.04575e-05,0.00255636,-0.000295906,-4.03247e-05,0.371853,-0.00120659,8.50223,1.69382e-05,-0.0727479
0.000177635,-1.55483e-05,0.0221286,2.3925e-05,0.332034,-0.576665,3.53996e-07,1.25736e-07,-0.00750781,6.58816e-09,0.00171866,-0.000311459,-0.000727054,-0.00720556,-1.96895e-07,-0.00063653,0.00136599,-0.000193726,6.84115e-06,-0.000222404,3.93821e-05,0.000261342,-0.0584577,0.00306453,0.424074,-4.95145e-05,0.010783
-0.000328089,-5.19432e-05,-0.00136742,-2.47885e-05,-0.461367,-0.251324,4.45656e-07,2.85229e-08,0.00110951,7.24362e-10,-0.00196872,4.852e-05,-9.9831e-05,0.00101143,8.81105e-08,0.00141597,-0.000193726,0.000205283,-7.44248e-06,0.000293229,-4.26427e-05,-3.71219e-05,0.0209073,-0.000466511,0.186491,7.08291e-06,-0.0035989
1.16692e-05,1.45616e-06,4.39694e-05,8.62441e-07,0.0165819,0.00917921,-1.62824e-08,-1.00578e-09,-3.92797e-05,-2.65405e-11,7.07151e-05,-1.71785e-06,3.86548e-06,-3.57098e-05,-3.04252e-09,-5.04575e-05,6.84115e-06,-7.44248e-06,2.70205e-07,-1.05222e-05,1.54569e-06,1.31286e-06,-0.00073518,1.65162e-05,-0.00681064,-2.50514e-07,0.000126196
-0.000566607,-9.87684e-05,-0.00153364,-9.87428e-05,-1.11202,0.200427,6.74973e-07,4.71909e-08,0.00128718,1.24149e-08,-0.00495992,5.68748e-05,-0.000249995,0.0011557,1.69056e-07,0.00255636,-0.000222404,0.000293229,-1.05222e-05,0.000680523,-6.17525e-05,-4.25088e-05,0.0366003,-0.000547123,-0.146627,8.07486e-06,-0.00587692
6.8128e-05,9.65615e-06,0.00028252,5.20926e-06,0.0973371,0.0508996,-9.31264e-08,-6.70819e-09,-0.000225961,-1.77227e-10,0.000415845,-9.89444e-06,2.26175e-05,-0.000205551,-1.81659e-08,-0.000295906,3.93821e-05,-4.26427e-05,1.54569e-06,-6.17525e-05,8.87082e-06,7.54659e-06,-0.00443186,9.50877e-05,-0.0377772,-1.43979e-06,0.000762612
1.4972e-05,-5.95145e-06,0.00339907,8.21208e-06,0.0642127,-0.117358,6.70228e-08,2.4479e-08,-0.00144773,-2.42014e-10,0.000335411,-5.99814e-05,-5.98536e-05,-0.00137894,-2.63254e-08,-4.03247e-05,0.000261342,-3.71219e-05,1.31286e-06,-4.25088e-05,7.54659e-06,5.0408e-05,-0.0109605,0.000590532,0.0863239,-9.54455e-06,0.00201649
-0.0679562,-0.0217534,-1.22572,-0.000278173,-57.9842,85.3269,1.838e-05,9.48572e-06,0.325122,-2.5926e-06,-0.304844,0.0141744,0.00417045,0.306622,3.28145e-05,0.371853,-0.0584577,0.0209073,-0.00073518,0.0366003,-0.00443186,-0.0109605,8.00438,-0.136665,-62.8969,0.00211497,-1.45311
0.000326449,-4.67665e-05,0.0403732,9.00638e-05,0.827378,-1.38334,6.96757e-07,2.7091e-07,-0.0169839,3.56461e-09,0.00427292,-0.000704992,-0.000649716,-0.0161654,-3.78457e-07,-0.00120659,0.00306453,-0.000466511,1.65162e-05,-0.000547123,9.50877e-05,0.000590532,-0.136665,0.00693507,1.0174,-0.000111887,0.0251308
-1.5211,-0.362093,2.56162,0.261646,672.591,-8608.12,0.000834749,0.00010197,-2.48172,-6.19502e-05,7.8422,-0.098927,0.690193,-2.28444,0.000723461,8.50223,0.424074,0.186491,-0.00681064,-0.146627,-0.0377772,0.0863239,-62.8969,1.0174,6360.56,-0.0164235,8.43283
-4.21433e-06,9.67532e-07,-0.000650058,-1.61948e-06,-0.0121875,0.0223253,-1.25132e-08,-4.62026e-09,0.000274204,-2.5513e-11,-6.38117e-05,1.13682e-05,1.16171e-05,0.00026121,5.84809e-09,1.69382e-05,-4.95145e-05,7.08291e-06,-2.50514e-07,8.07486e-06,-1.43979e-06,-9.54455e-06,0.00211497,-0.000111887,-0.0164235,1.80887e-06,-0.000389297
0.0130734,0.00430602,0.234872,-0.000263075,8.93388,-11.449,-2.69088e-06,-1.75166e-06,-0.0597894,5.57744e-07,0.0460092,-0.0026099,-0.00170102,-0.056546,-6.54653e-06,-0.0727479,0.010783,-0.0035989,0.000126196,-0.00587692,0.000762612,0.00201649,-1.45311,0.0251308,8.43283,-0.000389297,0.26704
