0.0429765,0.000493951,0.0731576,-0.00596191,0.3455,0.356566,-2.07541e-05,-1.3671e-07,0.000830199,2.41508e-06,-0.00669328,4.27817e-05,-0.00113381,0.000678445,-1.36851e-05,-0.0574218,-0.000103979,-1.29929e-05,1.32977e-06,1.33362e-05,3.27012e-06,-0.000111081,-0.0678749,-0.00037084,-0.266017,1.81047e-05,0.0164504
0.000493951,0.000227843,0.000531793,9.04565e-05,-0.00261009,0.000632839,-6.6539e-07,-4.84849e-08,6.0556e-05,-3.26153e-08,-2.25479e-05,2.96373e-06,-2.98957e-05,5.535e-05,5.45399e-08,-0.000441674,-9.90986e-06,2.80087e-07,-1.05207e-07,8.52803e-07,-2.65091e-07,-6.2835e-06,-0.00084323,-2.64686e-05,-0.000261634,8.62001e-07,0.0001982
0.0731576,0.000531793,0.176028,-0.0112273,0.685518,0.688504,-6.26044e-07,-1.41887e-07,-3.45598e-05,6.90266e-06,-0.0129575,-4.47054e-06,-0.00536737,-0.000519265,-4.13706e-05,-0.0893957,0.0001151,-6.4734e-05,6.62258e-06,1.62182e-05,1.71583e-05,-6.38385e-05,-0.137299,2.92351e-05,-0.514321,1.31888e-05,0.0331453
-0.00596191,9.04565e-05,-0.0112273,0.00112653,-0.0429901,-0.0452076,2.72229e-06,6.08913e-10,-0.000116378,-4.12795e-07,0.000831118,-5.7502e-06,0.000201153,-9.25543e-05,1.90052e-06,0.0088492,1.37611e-05,7.57033e-06,-8.7177e-07,1.83537e-07,-2.19203e-06,1.58339e-05,0.0124539,5.05111e-05,0.0338628,-2.67891e-06,-0.00296173
0.3455,-0.00261009,0.685518,-0.0429901,53.8277,57.3705,0.000182689,3.28818e-06,-0.0207879,4.90837e-05,-1.02925,-0.00191888,-0.00163228,-0.020535,-0.000352091,-1.7898,0.0055771,0.00439387,-0.000478183,0.00462414,-0.00117073,0.00165466,-2.86845,0.0124543,-42.3137,-0.000480579,0.803577
0.356566,0.000632839,0.688504,-0.0452076,57.3705,67.5241,0.000203598,2.88104e-06,-0.020671,5.23088e-05,-1.21434,-0.00205367,-0.00148137,-0.020512,-0.000376548,-2.03062,0.00584159,0.00577295,-0.000627056,0.00730889,-0.00154765,0.00162214,-3.18885,0.0128132,-49.7851,-0.000508895,0.910426
-2.07541e-05,-6.6539e-07,-6.26044e-07,2.72229e-06,0.000182689,0.000203598,1.45894e-07,5.33235e-10,-5.15619e-06,6.06099e-09,-4.16607e-06,-2.73117e-07,-1.665e-06,-5.10554e-06,-5.57801e-08,1.61031e-05,8.88391e-07,-3.77604e-08,3.20457e-09,1.24852e-08,7.70072e-09,4.87646e-07,-2.95879e-05,2.35422e-06,-0.000144873,-7.43615e-08,7.33219e-06
-1.3671e-07,-4.84849e-08,-1.41887e-07,6.08913e-10,3.28818e-06,2.88104e-06,5.33235e-10,2.17645e-11,-4.52117e-08,2.87066e-11,-6.25007e-08,-2.32559e-09,9.53221e-09,-4.31435e-08,-2.07109e-10,2.31794e-07,7.71564e-09,7.72495e-10,-7.80385e-11,2.98823e-10,-2.3966e-10,4.52433e-09,3.80682e-07,2.03923e-08,-2.1709e-06,-7.07798e-10,-7.76467e-08
0.000830199,6.0556e-05,-3.45598e-05,-0.000116378,-0.0207879,-0.020671,-5.15619e-06,-4.52117e-08,0.000485942,-2.96305e-07,0.000410605,2.64269e-05,1.08982e-05,0.00046669,2.28699e-06,-0.00100601,-8.43666e-05,6.04336e-06,-5.85615e-07,-3.61543e-07,-1.39381e-06,-4.83552e-05,0.0030592,-0.000224797,0.015017,8.07782e-06,-0.000754232
2.41508e-06,-3.26153e-08,6.90266e-06,-4.12795e-07,4.90837e-05,5.23088e-05,6.06099e-09,2.87066e-11,-2.96305e-07,6.55662e-10,-9.92137e-07,-1.77833e-08,-2.40252e-07,-3.08548e-07,-4.71504e-09,-5.5526e-06,6.05285e-08,-8.27074e-09,8.4043e-10,1.17204e-09,2.02666e-09,2.51512e-08,-1.09116e-05,1.44209e-07,-3.82848e-05,-4.58965e-09,2.63217e-06
-0.00669328,-2.25479e-05,-0.0129575,0.000831118,-1.02925,-1.21434,-4.16607e-06,-6.25007e-08,0.000410605,-9.92137e-07,0.0227665,3.84199e-05,2.43915e-05,0.000408854,7.20282e-06,0.0369959,-0.000112405,-0.000131682,1.43028e-05,-0.000151978,3.52536e-05,-3.29073e-05,0.0574641,-0.000246885,0.895455,9.71887e-06,-0.0164931
4.27817e-05,2.96373e-06,-4.47054e-06,-5.7502e-06,-0.00191888,-0.00205367,-2.73117e-07,-2.32559e-09,2.64269e-05,-1.77833e-08,3.84199e-05,1.51889e-06,5.75904e-07,2.53637e-05,1.32339e-07,5.07149e-05,-4.7599e-06,4.79216e-07,-4.80494e-08,-3.51706e-08,-1.15161e-07,-2.61342e-06,0.000351576,-1.25284e-05,0.00148153,4.66856e-07,-8.56888e-05
-0.00113381,-2.98957e-05,-0.00536737,0.000201153,-0.00163228,-0.00148137,-1.665e-06,9.53221e-09,1.08982e-05,-2.40252e-07,2.43915e-05,5.75904e-07,0.000343997,3.98583e-05,1.60414e-06,0.000867088,-7.33064e-06,2.93085e-06,-3.10883e-07,5.95814e-07,-7.36177e-07,1.0146e-06,0.00126758,-5.08022e-06,0.00127816,-4.123e-07,-0.000293236
0.000678445,5.535e-05,-0.000519265,-9.25543e-05,-0.020535,-0.020512,-5.10554e-06,-4.31435e-08,0.00046669,-3.08548e-07,0.000408854,2.53637e-05,3.98583e-05,0.000451107,2.35933e-06,-0.000882346,-8.1554e-05,5.70929e-06,-5.50408e-07,-4.44023e-07,-1.30891e-06,-4.62274e-05,0.0030141,-0.00021584,0.0149337,7.69336e-06,-0.000743962
-1.36851e-05,5.45399e-08,-4.13706e-05,1.90052e-06,-0.000352091,-0.000376548,-5.57801e-08,-2.07109e-10,2.28699e-06,-4.71504e-09,7.20282e-06,1.32339e-07,1.60414e-06,2.35933e-06,3.69403e-08,3.26039e-05,-4.51637e-07,3.60397e-08,-3.39194e-09,-1.63312e-08,-8.06156e-09,-1.96825e-07,6.24463e-05,-1.09216e-06,0.00027598,3.38241e-08,-1.52915e-05
-0.0574218,-0.000441674,-0.0893957,0.0088492,-1.7898,-2.03062,1.61031e-05,2.31794e-07,-0.00100601,-5.5526e-06,0.0369959,5.07149e-05,0.000867088,-0.000882346,3.26039e-05,0.297546,-0.000141475,0.000133803,-1.44925e-05,-7.623e-05,-3.53533e-05,0.000155692,0.430893,2.35889e-05,1.46495,2.11245e-05,-0.103717
-0.000103979,-9.90986e-06,0.0001151,1.37611e-05,0.0055771,0.00584159,8.88391e-07,7.71564e-09,-8.43666e-05,6.05285e-08,-0.000112405,-4.7599e-06,-7.33064e-06,-8.1554e-05,-4.51637e-07,-0.000141475,1.52468e-05,-1.2285e-06,1.20857e-07,1.51541e-07,2.87438e-07,8.31456e-06,-0.000967255,3.97428e-05,-0.00423355,-1.46016e-06,0.000236585
-1.29929e-05,2.80087e-07,-6.4734e-05,7.57033e-06,0.00439387,0.00577295,-3.77604e-08,7.72495e-10,6.04336e-06,-8.27074e-09,-0.000131682,4.79216e-07,2.93085e-06,5.70929e-06,3.60397e-08,0.000133803,-1.2285e-06,3.44833e-06,-3.7245e-07,1.83793e-06,-9.08448e-07,-5.47686e-07,0.000502887,-3.40997e-06,-0.00432664,1.47276e-07,-9.50901e-05
1.32977e-06,-1.05207e-07,6.62258e-06,-8.7177e-07,-0.000478183,-0.000627056,3.20457e-09,-7.80385e-11,-5.85615e-07,8.4043e-10,1.43028e-05,-4.80494e-08,-3.10883e-07,-5.50408e-07,-3.39194e-09,-1.44925e-05,1.20857e-07,-3.7245e-07,4.02955e-08,-1.98215e-07,9.81741e-08,5.2709e-08,-5.31041e-05,3.36839e-07,0.000469845,-1.48047e-08,9.98262e-06
1.33362e-05,8.52803e-07,1.62182e-05,1.83537e-07,0.00462414,0.00730889,1.24852e-08,2.98823e-10,-3.61543e-07,1.17204e-09,-0.000151978,-3.51706e-08,5.95814e-07,-4.44023e-07,-1.63312e-08,-7.623e-05,1.51541e-07,1.83793e-06,-1.98215e-07,2.13309e-06,-4.92435e-07,2.87787e-08,-2.11347e-05,1.77855e-07,-0.00541296,-1.30281e-09,2.75545e-05
3.27012e-06,-2.65091e-07,1.71583e-05,-2.19203e-06,-0.00117073,-0.00154765,7.70072e-09,-2.3966e-10,-1.39381e-06,2.02666e-09,3.52536e-05,-1.15161e-07,-7.36177e-07,-1.30891e-06,-8.06156e-09,-3.53533e-05,2.87438e-07,-9.08448e-07,9.81741e-08,-4.92435e-07,2.4045e-07,1.24919e-07,-0.000134506,8.0513e-07,0.00115919,-3.52178e-08,2.54185e-05
-0.000111081,-6.2835e-06,-6.38385e-05,1.58339e-05,0.00165466,0.00162214,4.87646e-07,4.52433e-09,-4.83552e-05,2.51512e-08,-3.29073e-05,-2.61342e-06,1.0146e-06,-4.62274e-05,-1.96825e-07,0.000155692,8.31456e-06,-5.47686e-07,5.2709e-08,2.87787e-08,1.24919e-07,4.85363e-06,-0.000219363,2.23019e-05,-0.00117438,-8.07326e-07,5.44991e-05
-0.0678749,-0.00084323,-0.137299,0.0124539,-2.86845,-3.18885,-2.95879e-05,3.80682e-07,0.0030592,-1.09116e-05,0.0574641,0.000351576,0.00126758,0.0030141,6.24463e-05,0.430893,-0.000967255,0.000502887,-5.31041e-05,-2.11347e-05,-0.000134506,-0.000219363,0.817128,-0.00217806,2.28743,0.000114872,-0.194588
-0.00037084,-2.64686e-05,2.92351e-05,5.05111e-05,0.0124543,0.0128132,2.35422e-06,2.03923e-08,-0.000224797,1.44209e-07,-0.000246885,-1.25284e-05,-5.08022e-06,-0.00021584,-1.09216e-06,2.35889e-05,3.97428e-05,-3.40997e-06,3.36839e-07,1.77855e-07,8.0513e-07,2.23019e-05,-0.00217806,0.000105238,-0.00927014,-3.84953e-06,0.000531331
-0.266017,-0.000261634,-0.514321,0.0338628,-42.3137,-49.7851,-0.000144873,-2.1709e-06,0.015017,-3.82848e-05,0.895455,0.00148153,0.00127816,0.0149337,0.00027598,1.46495,-0.00423355,-0.00432664,0.000469845,-0.00541296,0.00115919,-0.00117438,2.28743,-0.00927014,36.7173,0.000362083,-0.656764
1.81047e-05,8.62001e-07,1.31888e-05,-2.67891e-06,-0.000480579,-0.000508895,-7.43615e-08,-7.07798e-10,8.07782e-06,-4.58965e-09,9.71887e-06,4.66856e-07,-4.123e-07,7.69336e-06,3.38241e-08,2.11245e-05,-1.46016e-06,1.47276e-07,-1.48047e-08,-1.30281e-09,-3.52178e-08,-8.07326e-07,0.000114872,-3.84953e-06,0.000362083,1.48535e-07,-2.75565e-05
0.0164504,0.0001982,0.0331453,-0.00296173,0.803577,0.910426,7.33219e-06,-7.76467e-08,-0.000754232,2.63217e-06,-0.0164931,-8.56888e-05,-0.000293236,-0.000743962,-1.52915e-05,-0.103717,0.000236585,-9.50901e-05,9.98262e-06,2.75545e-05,2.54185e-05,5.44991e-05,-0.194588,0.000531331,-0.656764,-2.75565e-05,0.0467748
