2.94081,-0.943407,0.941975,-0.941186,0.93787,-0.932108,0.755656,-0.00131128,0.00131092,-0.00130973,0.00130694,-0.00128302,0.00128197,-0.00127738,0.00127618,-0.00127408,0.000444428,-1.5869e-05,1.58551e-05,-1.57907e-05,1.57575e-05,-1.57551e-05,1.57139e-05,-1.47616e-05,1.47133e-05,-2.33772e-10,2.2786e-10
-0.943407,0.304471,-0.304009,0.303754,-0.302684,0.300824,-0.243877,0.000423196,-0.00042308,0.000422696,-0.000421797,0.000414075,-0.000413736,0.000412256,-0.000411869,0.000411192,-0.000143433,5.12149e-06,-5.117e-06,5.09622e-06,-5.08552e-06,5.08474e-06,-5.07142e-06,4.76408e-06,-4.74849e-06,7.54466e-11,-7.35385e-11
0.941975,-0.304009,0.303549,-0.303295,0.302226,-0.300369,0.243508,-0.000422556,0.00042244,-0.000422057,0.000421159,-0.000413449,0.000413111,-0.000411633,0.000411246,-0.00041057,0.000143216,-5.11374e-06,5.10926e-06,-5.08851e-06,5.07783e-06,-5.07705e-06,5.06375e-06,-4.75688e-06,4.74131e-06,-7.53325e-11,7.34273e-11
-0.941186,0.303754,-0.303295,0.303041,-0.301973,0.300118,-0.243304,0.000422202,-0.000422086,0.000421704,-0.000420806,0.000413103,-0.000412765,0.000411288,-0.000410902,0.000410226,-0.000143096,5.10946e-06,-5.10498e-06,5.08425e-06,-5.07357e-06,5.07279e-06,-5.05951e-06,4.75289e-06,-4.73734e-06,7.52693e-11,-7.33658e-11
0.93787,-0.302684,0.302226,-0.301973,0.300909,-0.29906,0.242447,-0.000420714,0.000420599,-0.000420218,0.000419324,-0.000411647,0.000411311,-0.000409839,0.000409454,-0.000408781,0.000142592,-5.09146e-06,5.087e-06,-5.06634e-06,5.0557e-06,-5.05492e-06,5.04169e-06,-4.73615e-06,4.72065e-06,-7.50042e-11,7.31073e-11
-0.932108,0.300824,-0.300369,0.300118,-0.29906,0.297223,-0.240957,0.00041813,-0.000418015,0.000417636,-0.000416748,0.000409118,-0.000408784,0.000407321,-0.000406939,0.00040627,-0.000141716,5.06018e-06,-5.05575e-06,5.03521e-06,-5.02464e-06,5.02387e-06,-5.01071e-06,4.70705e-06,-4.69165e-06,7.45434e-11,-7.26582e-11
0.755656,-0.243877,0.243508,-0.243304,0.242447,-0.240957,0.195343,-0.000338976,0.000338883,-0.000338576,0.000337856,-0.00033167,0.000331399,-0.000330213,0.000329903,-0.000329361,0.000114888,-4.10226e-06,4.09867e-06,-4.08202e-06,4.07345e-06,-4.07283e-06,4.06216e-06,-3.81599e-06,3.8035e-06,-6.0432e-11,5.89037e-11
-0.00131128,0.000423196,-0.000422556,0.000422202,-0.000420714,0.00041813,-0.000338976,5.88219e-07,-5.88059e-07,5.87525e-07,-5.86275e-07,5.75542e-07,-5.75071e-07,5.73014e-07,-5.72476e-07,5.71535e-07,-1.99364e-07,7.11859e-09,-7.11236e-09,7.08347e-09,-7.0686e-09,7.06751e-09,-7.04901e-09,6.62182e-09,-6.60015e-09,1.04867e-13,-1.02215e-13
0.00131092,-0.00042308,0.00042244,-0.000422086,0.000420599,-0.000418015,0.000338883,-5.88059e-07,5.87898e-07,-5.87365e-07,5.86115e-07,-5.75385e-07,5.74914e-07,-5.72858e-07,5.72319e-07,-5.71378e-07,1.99309e-07,-7.11665e-09,7.11041e-09,-7.08153e-09,7.06666e-09,-7.06558e-09,7.04708e-09,-6.62001e-09,6.59834e-09,-1.04838e-13,1.02187e-13
-0.00130973,0.000422696,-0.000422057,0.000421704,-0.000420218,0.000417636,-0.000338576,5.87525e-07,-5.87365e-07,5.86832e-07,-5.85584e-07,5.74863e-07,-5.74393e-07,5.72338e-07,-5.71801e-07,5.7086e-07,-1.99129e-07,7.11019e-09,-7.10397e-09,7.07511e-09,-7.06026e-09,7.05917e-09,-7.04069e-09,6.61401e-09,-6.59236e-09,1.04743e-13,-1.02094e-13
0.00130694,-0.000421797,0.000421159,-0.000420806,0.000419324,-0.000416748,0.000337856,-5.86275e-07,5.86115e-07,-5.85584e-07,5.84338e-07,-5.7364e-07,5.73171e-07,-5.71121e-07,5.70584e-07,-5.69646e-07,1.98705e-07,-7.09507e-09,7.08885e-09,-7.06006e-09,7.04524e-09,-7.04415e-09,7.02571e-09,-6.59994e-09,6.57834e-09,-1.0452e-13,1.01877e-13
-0.00128302,0.000414075,-0.000413449,0.000413103,-0.000411647,0.000409118,-0.00033167,5.75542e-07,-5.75385e-07,5.74863e-07,-5.7364e-07,5.63138e-07,-5.62678e-07,5.60665e-07,-5.60138e-07,5.59217e-07,-1.95067e-07,6.96517e-09,-6.95908e-09,6.93081e-09,-6.91626e-09,6.9152e-09,-6.89709e-09,6.47911e-09,-6.45791e-09,1.02607e-13,-1.00012e-13
0.00128197,-0.000413736,0.000413111,-0.000412765,0.000411311,-0.000408784,0.000331399,-5.75071e-07,5.74914e-07,-5.74393e-07,5.73171e-07,-5.62678e-07,5.62217e-07,-5.60206e-07,5.5968e-07,-5.5876e-07,1.94908e-07,-6.95948e-09,6.95338e-09,-6.92514e-09,6.9106e-09,-6.90954e-09,6.89145e-09,-6.47381e-09,6.45262e-09,-1.02523e-13,9.99299e-14
-0.00127738,0.000412256,-0.000411633,0.000411288,-0.000409839,0.000407321,-0.000330213,5.73014e-07,-5.72858e-07,5.72338e-07,-5.71121e-07,5.60665e-07,-5.60206e-07,5.58203e-07,-5.57678e-07,5.56762e-07,-1.94211e-07,6.93459e-09,-6.92852e-09,6.90038e-09,-6.88589e-09,6.88483e-09,-6.8668e-09,6.45066e-09,-6.42955e-09,1.02156e-13,-9.95725e-14
0.00127618,-0.000411869,0.000411246,-0.000410902,0.000409454,-0.000406939,0.000329903,-5.72476e-07,5.72319e-07,-5.71801e-07,5.70584e-07,-5.60138e-07,5.5968e-07,-5.57678e-07,5.57155e-07,-5.56239e-07,1.94028e-07,-6.92807e-09,6.92201e-09,-6.89389e-09,6.87942e-09,-6.87836e-09,6.86035e-09,-6.4446e-09,6.42351e-09,-1.0206e-13,9.9479e-14
-0.00127408,0.000411192,-0.00041057,0.000410226,-0.000408781,0.00040627,-0.000329361,5.71535e-07,-5.71378e-07,5.7086e-07,-5.69646e-07,5.59217e-07,-5.5876e-07,5.56762e-07,-5.56239e-07,5.55324e-07,-1.93709e-07,6.91668e-09,-6.91063e-09,6.88256e-09,-6.86811e-09,6.86705e-09,-6.84907e-09,6.434e-09,-6.41295e-09,1.01892e-13,-9.93154e-14
0.000444428,-0.000143433,0.000143216,-0.000143096,0.000142592,-0.000141716,0.000114888,-1.99364e-07,1.99309e-07,-1.99129e-07,1.98705e-07,-1.95067e-07,1.94908e-07,-1.94211e-07,1.94028e-07,-1.93709e-07,7.62083e-08,-2.72114e-09,2.71875e-09,-2.70771e-09,2.70202e-09,-2.70161e-09,2.69454e-09,-2.53124e-09,2.52296e-09,-4.00861e-14,3.90723e-14
-1.5869e-05,5.12149e-06,-5.11374e-06,5.10946e-06,-5.09146e-06,5.06018e-06,-4.10226e-06,7.11859e-09,-7.11665e-09,7.11019e-09,-7.09507e-09,6.96517e-09,-6.95948e-09,6.93459e-09,-6.92807e-09,6.91668e-09,-2.72114e-09,9.71625e-11,-9.70774e-11,9.66831e-11,-9.64801e-11,9.64653e-11,-9.62127e-11,9.0382e-11,-9.00862e-11,1.43134e-15,-1.39514e-15
1.58551e-05,-5.117e-06,5.10926e-06,-5.10498e-06,5.087e-06,-5.05575e-06,4.09867e-06,-7.11236e-09,7.11041e-09,-7.10397e-09,7.08885e-09,-6.95908e-09,6.95338e-09,-6.92852e-09,6.92201e-09,-6.91063e-09,2.71875e-09,-9.70774e-11,9.69924e-11,-9.65985e-11,9.63956e-11,-9.63808e-11,9.61285e-11,-9.03029e-11,9.00073e-11,-1.43008e-15,1.39392e-15
-1.57907e-05,5.09622e-06,-5.08851e-06,5.08425e-06,-5.06634e-06,5.03521e-06,-4.08202e-06,7.08347e-09,-7.08153e-09,7.07511e-09,-7.06006e-09,6.93081e-09,-6.92514e-09,6.90038e-09,-6.89389e-09,6.88256e-09,-2.70771e-09,9.66831e-11,-9.65985e-11,9.62061e-11,-9.60041e-11,9.59894e-11,-9.5738e-11,8.99361e-11,-8.96418e-11,1.42428e-15,-1.38826e-15
1.57575e-05,-5.08552e-06,5.07783e-06,-5.07357e-06,5.0557e-06,-5.02464e-06,4.07345e-06,-7.0686e-09,7.06666e-09,-7.06026e-09,7.04524e-09,-6.91626e-09,6.9106e-09,-6.88589e-09,6.87942e-09,-6.86811e-09,2.70202e-09,-9.64801e-11,9.63956e-11,-9.60041e-11,9.58025e-11,-9.57878e-11,9.5537e-11,-8.97472e-11,8.94535e-11,-1.42128e-15,1.38534e-15
-1.57551e-05,5.08474e-06,-5.07705e-06,5.07279e-06,-5.05492e-06,5.02387e-06,-4.07283e-06,7.06751e-09,-7.06558e-09,7.05917e-09,-7.04415e-09,6.9152e-09,-6.90954e-09,6.88483e-09,-6.87836e-09,6.86705e-09,-2.70161e-09,9.64653e-11,-9.63808e-11,9.59894e-11,-9.57878e-11,9.57731e-11,-9.55223e-11,8.97335e-11,-8.94398e-11,1.42107e-15,-1.38513e-15
1.57139e-05,-5.07142e-06,5.06375e-06,-5.05951e-06,5.04169e-06,-5.01071e-06,4.06216e-06,-7.04901e-09,7.04708e-09,-7.04069e-09,7.02571e-09,-6.89709e-09,6.89145e-09,-6.8668e-09,6.86035e-09,-6.84907e-09,2.69454e-09,-9.62127e-11,9.61285e-11,-9.5738e-11,9.5537e-11,-9.55223e-11,9.52722e-11,-8.94985e-11,8.92056e-11,-1.41735e-15,1.3815e-15
-1.47616e-05,4.76408e-06,-4.75688e-06,4.75289e-06,-4.73615e-06,4.70705e-06,-3.81599e-06,6.62182e-09,-6.62001e-09,6.61401e-09,-6.59994e-09,6.47911e-09,-6.47381e-09,6.45066e-09,-6.4446e-09,6.434e-09,-2.53124e-09,9.0382e-11,-9.03029e-11,8.99361e-11,-8.97472e-11,8.97335e-11,-8.94985e-11,8.40749e-11,-8.37997e-11,1.33145e-15,-1.29778e-15
1.47133e-05,-4.74849e-06,4.74131e-06,-4.73734e-06,4.72065e-06,-4.69165e-06,3.8035e-06,-6.60015e-09,6.59834e-09,-6.59236e-09,6.57834e-09,-6.45791e-09,6.45262e-09,-6.42955e-09,6.42351e-09,-6.41295e-09,2.52296e-09,-9.00862e-11,9.00073e-11,-8.96418e-11,8.94535e-11,-8.94398e-11,8.92056e-11,-8.37997e-11,8.35255e-11,-1.3271e-15,1.29353e-15
-2.33772e-10,7.54466e-11,-7.53325e-11,7.52693e-11,-7.50042e-11,7.45434e-11,-6.0432e-11,1.04867e-13,-1.04838e-13,1.04743e-13,-1.0452e-13,1.02607e-13,-1.02523e-13,1.02156e-13,-1.0206e-13,1.01892e-13,-4.00861e-14,1.43134e-15,-1.43008e-15,1.42428e-15,-1.42128e-15,1.42107e-15,-1.41735e-15,1.33145e-15,-1.3271e-15,2.98695e-17,-2.91141e-17
2.2786e-10,-7.35385e-11,7.34273e-11,-7.33658e-11,7.31073e-11,-7.26582e-11,5.89037e-11,-1.02215e-13,1.02187e-13,-1.02094e-13,1.01877e-13,-1.00012e-13,9.99299e-14,-9.95725e-14,9.9479e-14,-9.93154e-14,3.90723e-14,-1.39514e-15,1.39392e-15,-1.38826e-15,1.38534e-15,-1.38513e-15,1.3815e-15,-1.29778e-15,1.29353e-15,-2.91141e-17,2.89723e-17
