1056.54,0.888513,-3280.46,262.181,-0.138491,285.633,182.482,-6.5789e-05,-2.09969,-8.33573,0.000102333,-9.48947,299.51,28.6426,-57.0582,-0.0969638,-63.2813,0.0248253,-0.0481286,9.53131e-06,-0.0542476,8.36897,-0.00312457,8.94075,-0.0677986,-17.8054,0.00787377
0.888513,0.00157142,-1.61987,0.0597493,-3.64989e-05,0.0669564,0.0805043,-7.92771e-08,0.00116848,0.00607003,-2.17981e-07,0.00636308,0.150768,0.0204349,-0.0411831,-1.58583e-05,-0.0455985,5.06798e-05,-0.000104933,-1.007e-07,-0.000111762,-0.00535145,-1.4326e-05,-0.00545427,9.95313e-05,0.0124424,3.22199e-05
-3280.46,-1.61987,183833,-304.558,2.60498,-338.63,-12318.9,0.00104864,6.1253,32.4351,0.000852673,27.6369,-17487.1,-10.9458,-99.046,-1.59009,-49.2331,0.00233488,-0.099239,-0.00338636,-0.0621382,-27.7496,-0.177641,-25.7602,2.31299,60.3475,0.408784
262.181,0.0597493,-304.558,606.046,0.81073,626.218,-1.36862,1.17349e-06,-6.03405,-27.4888,-4.16608e-05,-29.4993,1.96858,10.6253,-22.4737,0.0412294,-23.7808,0.0026656,-0.00555221,1.96047e-05,-0.00599971,25.7547,0.0347532,26.6854,0.0132347,-56.9435,-0.077773
-0.138491,-3.64989e-05,2.60498,0.81073,0.0558709,0.484298,-0.162914,6.7252e-08,-0.000501628,-0.0174332,-1.80905e-05,-0.0018243,-0.274318,-0.0295036,0.0526868,-0.00394102,0.062706,-1.87213e-05,3.09461e-05,-3.76072e-06,3.92148e-05,0.00909105,0.00171225,0.00194348,0.00447883,-0.0187222,-0.00373893
285.633,0.0669564,-338.63,626.218,0.484298,654.008,-0.5323,1.02567e-06,-6.29008,-28.4643,0.000326395,-30.7792,4.16009,11.5548,-24.3473,0.0381096,-25.8414,0.00300938,-0.00613757,2.82761e-05,-0.00677299,26.7627,0.0299298,27.8306,-0.184918,-59.2206,-0.0678243
182.482,0.0805043,-12318.9,-1.36862,-0.162914,-0.5323,828.045,-6.75426e-05,-0.205551,-1.28838,-5.91677e-05,-0.86909,1172.86,-0.346004,8.78671,0.100908,5.69108,-0.000951497,0.00810381,0.000217984,0.00587961,1.00836,0.0118474,0.828383,-0.153672,-2.17783,-0.0271499
-6.5789e-05,-7.92771e-08,0.00104864,1.17349e-06,6.7252e-08,1.02567e-06,-6.75426e-05,2.66497e-11,2.77722e-08,1.72191e-07,1.62906e-11,1.42079e-07,-9.98303e-05,3.72664e-07,-1.59182e-06,-5.21961e-08,-1.18775e-06,6.75284e-10,-2.28423e-09,-5.19626e-11,-2.08988e-09,-1.36363e-07,-1.02295e-09,-1.2464e-07,1.05592e-08,3.14205e-07,2.90532e-09
-2.09969,0.00116848,6.1253,-6.03405,-0.000501628,-6.29008,-0.205551,2.77722e-08,0.0669799,0.3026,-2.93663e-06,0.326544,-0.312584,-0.090558,0.189785,-0.000366395,0.200926,6.07729e-05,-0.000130721,-1.3719e-07,-0.000133872,-0.284741,-9.13413e-05,-0.295794,0.00114172,0.628841,0.000212337
-8.33573,0.00607003,32.4351,-27.4888,-0.0174332,-28.4643,-1.28838,1.72191e-07,0.3026,1.3843,-1.1839e-05,1.47476,-1.86307,-0.348523,0.730219,-0.00149739,0.772278,0.000314994,-0.000684416,-1.11999e-06,-0.000695101,-1.29445,-0.00111121,-1.3361,0.00618824,2.85828,0.00250458
0.000102333,-2.17981e-07,0.000852673,-4.16608e-05,-1.80905e-05,0.000326395,-5.91677e-05,1.62906e-11,-2.93663e-06,-1.1839e-05,4.33838e-08,-1.43108e-05,-8.46546e-05,6.08552e-06,-1.40889e-05,-6.06755e-07,-1.36848e-05,-6.51191e-09,1.51778e-08,-8.75086e-11,1.3691e-08,1.22748e-05,1.25746e-07,1.29918e-05,-1.67443e-05,-2.88369e-05,-3.53579e-07
-9.48947,0.00636308,27.6369,-29.4993,-0.0018243,-30.7792,-0.86909,1.42079e-07,0.326544,1.47476,-1.43108e-05,1.59568,-1.30848,-0.405319,0.852167,-0.00140633,0.900613,0.000326591,-0.000696847,-2.28156e-07,-0.000721153,-1.38798,-0.000379237,-1.44374,0.00529172,3.06881,0.000883824
299.51,0.150768,-17487.1,1.96858,-0.274318,4.16009,1172.86,-9.98303e-05,-0.312584,-1.86307,-8.46546e-05,-1.30848,1664.67,0.532571,10.5025,0.149644,5.8266,-0.000366129,0.00974186,0.000321283,0.00623817,1.49059,0.0156432,1.25593,-0.218739,-3.19967,-0.0360669
28.6426,0.0204349,-10.9458,10.6253,-0.0295036,11.5548,-0.346004,3.72664e-07,-0.090558,-0.348523,6.08552e-06,-0.405319,0.532571,1.28791,-2.65458,0.00944898,-2.86021,0.000978382,-0.00200617,7.70783e-06,-0.00219481,0.356087,-0.000736576,0.383723,-0.00164494,-0.752888,0.00146356
-57.0582,-0.0411831,-99.046,-22.4737,0.0526868,-24.3473,8.78671,-1.59182e-06,0.189785,0.730219,-1.40889e-05,0.852167,10.5025,-2.65458,5.56957,-0.0159288,5.94749,-0.00202126,0.00423426,-1.09583e-05,0.00457517,-0.746659,0.00152605,-0.805607,0.00187155,1.58025,-0.00307886
-0.0969638,-1.58583e-05,-1.59009,0.0412294,-0.00394102,0.0381096,0.100908,-5.21961e-08,-0.000366395,-0.00149739,-6.06755e-07,-0.00140633,0.149644,0.00944898,-0.0159288,0.00342684,-0.020123,6.19682e-06,-1.23612e-05,2.20523e-06,-1.1571e-05,0.00144576,-3.29838e-05,0.00144209,3.66481e-05,-0.00285417,2.52499e-05
-63.2813,-0.0455985,-49.2331,-23.7808,0.062706,-25.8414,5.69108,-1.18775e-06,0.200926,0.772278,-1.36848e-05,0.900613,5.8266,-2.86021,5.94749,-0.020123,6.38824,-0.00217464,0.00449909,-1.54622e-05,0.00490579,-0.789817,0.00164672,-0.852137,0.00270708,1.67061,-0.00328567
0.0248253,5.06798e-05,0.00233488,0.0026656,-1.87213e-05,0.00300938,-0.000951497,6.75284e-10,6.07729e-05,0.000314994,-6.51191e-09,0.000326591,-0.000366129,0.000978382,-0.00202126,6.19682e-06,-0.00217464,2.42764e-06,-5.09541e-06,4.89491e-09,-5.38107e-06,-0.000277702,-7.20676e-07,-0.000281919,1.92888e-06,0.000641417,1.48425e-06
-0.0481286,-0.000104933,-0.099239,-0.00555221,3.09461e-05,-0.00613757,0.00810381,-2.28423e-09,-0.000130721,-0.000684416,1.51778e-08,-0.000696847,0.00974186,-0.00200617,0.00423426,-1.23612e-05,0.00449909,-5.09541e-06,1.08428e-05,-2.52162e-09,1.13197e-05,0.000600134,1.83242e-06,0.000603732,-8.22757e-06,-0.00138187,-3.83769e-06
9.53131e-06,-1.007e-07,-0.00338636,1.96047e-05,-3.76072e-06,2.82761e-05,0.000217984,-5.19626e-11,-1.3719e-07,-1.11999e-06,-8.75086e-11,-2.28156e-07,0.000321283,7.70783e-06,-1.09583e-05,2.20523e-06,-1.54622e-05,4.89491e-09,-2.52162e-09,2.56444e-09,-9.3675e-09,7.88404e-07,3.24469e-08,4.00399e-07,-4.15533e-07,-1.40247e-06,-1.02577e-07
-0.0542476,-0.000111762,-0.0621382,-0.00599971,3.92148e-05,-0.00677299,0.00587961,-2.08988e-09,-0.000133872,-0.000695101,1.3691e-08,-0.000721153,0.00623817,-0.00219481,0.00457517,-1.1571e-05,0.00490579,-5.38107e-06,1.13197e-05,-9.3675e-09,1.19638e-05,0.000612136,1.58243e-06,0.000621683,-4.70208e-06,-0.00141584,-3.28855e-06
8.36897,-0.00535145,-27.7496,25.7547,0.00909105,26.7627,1.00836,-1.36363e-07,-0.284741,-1.29445,1.22748e-05,-1.38798,1.49059,0.356087,-0.746659,0.00144576,-0.789817,-0.000277702,0.000600134,7.88404e-07,0.000612136,1.21425,0.000717126,1.25737,-0.00555959,-2.68145,-0.00163076
-0.00312457,-1.4326e-05,-0.177641,0.0347532,0.00171225,0.0299298,0.0118474,-1.02295e-09,-9.13413e-05,-0.00111121,1.25746e-07,-0.000379237,0.0156432,-0.000736576,0.00152605,-3.29838e-05,0.00164672,-7.20676e-07,1.83242e-06,3.24469e-08,1.58243e-06,0.000717126,8.4532e-05,0.000373741,-0.000255269,-0.00153055,-0.000187323
8.94075,-0.00545427,-25.7602,26.6854,0.00194348,27.8306,0.828383,-1.2464e-07,-0.295794,-1.3361,1.29918e-05,-1.44374,1.25593,0.383723,-0.805607,0.00144209,-0.852137,-0.000281919,0.000603732,4.00399e-07,0.000621683,1.25737,0.000373741,1.30703,-0.00492997,-2.77844,-0.000869879
-0.0677986,9.95313e-05,2.31299,0.0132347,0.00447883,-0.184918,-0.153672,1.05592e-08,0.00114172,0.00618824,-1.67443e-05,0.00529172,-0.218739,-0.00164494,0.00187155,3.66481e-05,0.00270708,1.92888e-06,-8.22757e-06,-4.15533e-07,-4.70208e-06,-0.00555959,-0.000255269,-0.00492997,0.0110752,0.0131111,0.000605726
-17.8054,0.0124424,60.3475,-56.9435,-0.0187222,-59.2206,-2.17783,3.14205e-07,0.628841,2.85828,-2.88369e-05,3.06881,-3.19967,-0.752888,1.58025,-0.00285417,1.67061,0.000641417,-0.00138187,-1.40247e-06,-0.00141584,-2.68145,-0.00153055,-2.77844,0.0131111,5.92497,0.00348478
0.00787377,3.22199e-05,0.408784,-0.077773,-0.00373893,-0.0678243,-0.0271499,2.90532e-09,0.000212337,0.00250458,-3.53579e-07,0.000883824,-0.0360669,0.00146356,-0.00307886,2.52499e-05,-0.00328567,1.48425e-06,-3.83769e-06,-1.02577e-07,-3.28855e-06,-0.00163076,-0.000187323,-0.000869879,0.000605726,0.00348478,0.000416334
