22.9533,0.0250285,9.90257,-6.56212,0.240965,-7.74704,0.0914599,-5.64979e-06,0.453163,0.140782,-4.7385e-05,0.203307,0.172794,0.501227,-0.286584,0.0345929,-0.365406,-0.0013137,0.000727634,-9.22083e-06,0.000817236,-0.505449,0.0267497,-0.607473,-0.0132606,0.339154,-0.0172781
0.0250285,0.000229731,-0.00118418,-0.000894909,-8.81521e-05,-0.000914925,0.000235857,-2.90053e-08,0.000894685,0.000266455,-5.32303e-08,0.000381263,0.000294279,0.00104317,-0.000581069,6.15589e-05,-0.000718406,7.85098e-06,-4.38455e-06,1.43639e-07,-5.32562e-06,-0.000976701,2.59935e-05,-0.00116826,-9.58148e-06,0.000637963,-1.66848e-05
9.90257,-0.00118418,19.4749,-9.5951,0.414524,-11.3834,0.51439,-8.02689e-09,0.887553,0.26364,-0.000121004,0.384939,-0.17573,1.32816,-0.727615,0.0509845,-0.877148,-0.00137549,0.000732831,-3.71772e-05,0.000861286,-0.967309,0.0316855,-1.16937,-0.0436161,0.637114,-0.0207755
-6.56212,-0.000894909,-9.5951,5.20104,-0.219963,6.17698,-0.256018,6.54028e-07,-0.446081,-0.134385,6.11024e-05,-0.19563,0.00868314,-0.673128,0.369617,-0.0301249,0.44555,0.000749612,-0.000404395,1.45132e-05,-0.000474485,0.489714,-0.018347,0.591131,0.0190637,-0.324492,0.0120101
0.240965,-8.81521e-05,0.414524,-0.219963,0.133332,-0.258353,0.0313089,8.29999e-08,0.0537292,0.0157981,-4.65875e-05,0.0230275,-0.000467788,0.0817445,-0.0443438,0.00737238,-0.0534108,1.2775e-05,-7.90669e-06,-3.66817e-06,-8.6283e-06,-0.0582783,0.0213221,-0.0703786,-0.016922,0.0381848,-0.0134302
-7.74704,-0.000914925,-11.3834,6.17698,-0.258353,7.3494,-0.299202,7.84171e-07,-0.519491,-0.156702,6.26067e-05,-0.228171,0.00910989,-0.785228,0.431396,-0.0356581,0.519892,0.000887495,-0.000478054,1.82278e-05,-0.000563451,0.570682,-0.0210079,0.688934,0.0203132,-0.378431,0.0137881
0.0914599,0.000235857,0.51439,-0.256018,0.0313089,-0.299202,0.0583464,1.50687e-07,0.0956913,0.0280096,-1.57926e-05,0.0401015,-0.00328501,0.148715,-0.0804155,0.00588942,-0.095896,0.00020048,-0.000109559,4.55881e-06,-0.000128923,-0.103545,0.00617933,-0.123916,-0.0081356,0.0670389,-0.00391298
-5.64979e-06,-2.90053e-08,-8.02689e-09,6.54028e-07,8.29999e-08,7.84171e-07,1.50687e-07,9.52694e-12,1.52225e-07,4.47979e-08,8.39202e-12,6.47238e-08,-1.07492e-07,2.94682e-07,-1.6051e-07,-8.01796e-08,-1.8669e-07,1.22017e-09,-6.73373e-10,-4.58996e-11,-7.94257e-10,-1.65192e-07,1.35719e-09,-1.98655e-07,-9.76342e-09,1.07858e-07,-4.86879e-10
0.453163,0.000894685,0.887553,-0.446081,0.0537292,-0.519491,0.0956913,1.52225e-07,0.167705,0.0489285,-2.80028e-05,0.0701472,-0.00516992,0.252293,-0.136432,0.0102729,-0.16314,0.000336579,-0.000183416,8.03895e-06,-0.00021665,-0.181165,0.0107638,-0.216953,-0.014608,0.117172,-0.00681257
0.140782,0.000266455,0.26364,-0.134385,0.0157981,-0.156702,0.0280096,4.47979e-08,0.0489285,0.0142995,-8.02259e-06,0.0204853,-0.00124316,0.0737552,-0.0399129,0.00297547,-0.0477087,9.7758e-05,-5.33153e-05,2.30091e-06,-6.29451e-05,-0.0529015,0.00314879,-0.0633278,-0.00419544,0.0342334,-0.00199306
-4.7385e-05,-5.32303e-08,-0.000121004,6.11024e-05,-4.65875e-05,6.26067e-05,-1.57926e-05,8.39202e-12,-2.80028e-05,-8.02259e-06,1.30167e-07,-1.19816e-05,4.66658e-07,-4.19358e-05,2.24458e-05,-9.17584e-06,2.73902e-05,-3.25156e-08,1.74309e-08,-5.08811e-09,2.09508e-08,2.99773e-05,-4.86845e-06,3.66479e-05,1.00086e-05,-1.96127e-05,3.04687e-06
0.203307,0.000381263,0.384939,-0.19563,0.0230275,-0.228171,0.0401015,6.47238e-08,0.0701472,0.0204853,-1.19816e-05,0.0293968,-0.00191395,0.10565,-0.0571544,0.00428858,-0.0683706,0.000139757,-7.61967e-05,3.31154e-06,-9.00269e-05,-0.0758141,0.00452616,-0.090834,-0.00611899,0.0490833,-0.00286555
0.172794,0.000294279,-0.17573,0.00868314,-0.000467788,0.00910989,-0.00328501,-1.07492e-07,-0.00516992,-0.00124316,4.66658e-07,-0.00191395,0.0144998,-0.00663807,0.00353695,0.000458328,0.00429879,6.12064e-06,-2.56896e-06,9.93096e-07,-3.09673e-06,0.00508124,0.000237147,0.00629169,0.00066757,-0.00305074,-0.000151653
0.501227,0.00104317,1.32816,-0.673128,0.0817445,-0.785228,0.148715,2.94682e-07,0.252293,0.0737552,-4.19358e-05,0.10565,-0.00663807,0.385829,-0.208643,0.0156408,-0.249182,0.000517932,-0.000282502,1.22599e-05,-0.000333162,-0.272823,0.0163232,-0.326578,-0.0217022,0.176565,-0.0103339
-0.286584,-0.000581069,-0.727615,0.369617,-0.0443438,0.431396,-0.0804155,-1.6051e-07,-0.136432,-0.0399129,2.24458e-05,-0.0571544,0.00353695,-0.208643,0.112874,-0.00838198,0.134788,-0.000279496,0.000152536,-6.52525e-06,0.00017985,0.147587,-0.00882624,0.176638,0.0116481,-0.0955363,0.00558767
0.0345929,6.15589e-05,0.0509845,-0.0301249,0.00737238,-0.0356581,0.00588942,-8.01796e-08,0.0102729,0.00297547,-9.17584e-06,0.00428858,0.000458328,0.0156408,-0.00838198,0.0118043,-0.0101149,1.53703e-07,1.06746e-07,6.78246e-06,8.32659e-07,-0.011058,0.0031757,-0.0132778,-0.00266791,0.00714602,-0.00204488
-0.365406,-0.000718406,-0.877148,0.44555,-0.0534108,0.519892,-0.095896,-1.8669e-07,-0.16314,-0.0477087,2.73902e-05,-0.0683706,0.00429879,-0.249182,0.134788,-0.0101149,0.161068,-0.000331935,0.000181086,-7.8657e-06,0.000213701,0.176446,-0.010588,0.211259,0.0140586,-0.11424,0.00670365
-0.0013137,7.85098e-06,-0.00137549,0.000749612,1.2775e-05,0.000887495,0.00020048,1.22017e-09,0.000336579,9.7758e-05,-3.25156e-08,0.000139757,6.12064e-06,0.000517932,-0.000279496,1.53703e-07,-0.000331935,2.4768e-06,-1.35312e-06,3.84949e-08,-1.59319e-06,-0.000362802,1.38119e-05,-0.000433844,-2.05179e-05,0.000233796,-8.65681e-06
0.000727634,-4.38455e-06,0.000732831,-0.000404395,-7.90669e-06,-0.000478054,-0.000109559,-6.73373e-10,-0.000183416,-5.33153e-05,1.74309e-08,-7.61967e-05,-2.56896e-06,-0.000282502,0.000152536,1.06746e-07,0.000181086,-1.35312e-06,7.3979e-07,-2.04738e-08,8.70677e-07,0.000197786,-7.54802e-06,0.000236478,1.10782e-05,-0.000127492,4.73043e-06
-9.22083e-06,1.43639e-07,-3.71772e-05,1.45132e-05,-3.66817e-06,1.82278e-05,4.55881e-06,-4.58996e-11,8.03895e-06,2.30091e-06,-5.08811e-09,3.31154e-06,9.93096e-07,1.22599e-05,-6.52525e-06,6.78246e-06,-7.8657e-06,3.84949e-08,-2.04738e-08,7.35575e-09,-2.43177e-08,-8.60193e-06,1.65823e-06,-1.03214e-05,-1.50757e-06,5.52016e-06,-1.06599e-06
0.000817236,-5.32562e-06,0.000861286,-0.000474485,-8.6283e-06,-0.000563451,-0.000128923,-7.94257e-10,-0.00021665,-6.29451e-05,2.09508e-08,-9.00269e-05,-3.09673e-06,-0.000333162,0.00017985,8.32659e-07,0.000213701,-1.59319e-06,8.70677e-07,-2.43177e-08,1.02628e-06,0.000233566,-8.81976e-06,0.000279364,1.31931e-05,-0.000150575,5.52347e-06
-0.505449,-0.000976701,-0.967309,0.489714,-0.0582783,0.570682,-0.103545,-1.65192e-07,-0.181165,-0.0529015,2.99773e-05,-0.0758141,0.00508124,-0.272823,0.147587,-0.011058,0.176446,-0.000362802,0.000197786,-8.60193e-06,0.000233566,0.195792,-0.0116452,0.234424,0.0156571,-0.126666,0.00737068
0.0267497,2.59935e-05,0.0316855,-0.018347,0.0213221,-0.0210079,0.00617933,1.35719e-09,0.0107638,0.00314879,-4.86845e-06,0.00452616,0.000237147,0.0163232,-0.00882624,0.0031757,-0.010588,1.38119e-05,-7.54802e-06,1.65823e-06,-8.81976e-06,-0.0116452,0.00476381,-0.0139644,-0.00344884,0.00755767,-0.00299774
-0.607473,-0.00116826,-1.16937,0.591131,-0.0703786,0.688934,-0.123916,-1.98655e-07,-0.216953,-0.0633278,3.66479e-05,-0.090834,0.00629169,-0.326578,0.176638,-0.0132778,0.211259,-0.000433844,0.000236478,-1.03214e-05,0.000279364,0.234424,-0.0139644,0.280801,0.0189128,-0.151695,0.00883963
-0.0132606,-9.58148e-06,-0.0436161,0.0190637,-0.016922,0.0203132,-0.0081356,-9.76342e-09,-0.014608,-0.00419544,1.00086e-05,-0.00611899,0.00066757,-0.0217022,0.0116481,-0.00266791,0.0140586,-2.05179e-05,1.10782e-05,-1.50757e-06,1.31931e-05,0.0156571,-0.00344884,0.0189128,0.00357659,-0.0101339,0.00216899
0.339154,0.000637963,0.637114,-0.324492,0.0381848,-0.378431,0.0670389,1.07858e-07,0.117172,0.0342334,-1.96127e-05,0.0490833,-0.00305074,0.176565,-0.0955363,0.00714602,-0.11424,0.000233796,-0.000127492,5.52016e-06,-0.000150575,-0.126666,0.00755767,-0.151695,-0.0101339,0.0819896,-0.00478422
-0.0172781,-1.66848e-05,-0.0207755,0.0120101,-0.0134302,0.0137881,-0.00391298,-4.86879e-10,-0.00681257,-0.00199306,3.04687e-06,-0.00286555,-0.000151653,-0.0103339,0.00558767,-0.00204488,0.00670365,-8.65681e-06,4.73043e-06,-1.06599e-06,5.52347e-06,0.00737068,-0.00299774,0.00883963,0.00216899,-0.00478422,0.00188686
