21.7645,0.0321589,12.57,-7.39803,0.258617,-8.8071,0.263884,-5.67426e-06,0.487076,0.157247,8.55423e-05,0.226002,0.0620117,0.737652,-0.426476,0.0176483,-0.516285,-5.87464e-05,1.82571e-05,-1.74114e-05,1.4708e-05,-0.554323,0.022526,-0.66481,0.00878143,0.378452,-0.0148953
0.0321589,0.000247501,0.00510377,-0.00301964,6.27046e-05,-0.00371158,-0.000159342,-3.76953e-08,0.000324141,0.000108083,1.45877e-07,0.000158334,4.11583e-05,6.76125e-05,-8.31591e-05,-7.06622e-05,-8.36823e-05,6.88252e-06,-3.88318e-06,2.29914e-08,-4.60837e-06,-0.00037513,1.41815e-05,-0.000454714,5.03909e-05,0.000262767,-9.14579e-06
12.57,0.00510377,21.8822,-10.3404,0.378461,-12.2448,0.786753,9.94723e-07,1.12809,0.336611,1.9962e-05,0.486694,-0.276948,1.86214,-1.02199,0.0714121,-1.2363,-0.000286059,0.000129502,-1.38495e-05,0.000136074,-1.23232,0.0296778,-1.48221,-0.0365843,0.809618,-0.0199065
-7.39803,-0.00301964,-10.3404,5.64572,-0.176236,6.68794,-0.402534,2.80077e-07,-0.522868,-0.158678,-2.81959e-05,-0.22858,0.00464202,-0.9265,0.507065,-0.0417755,0.615941,0.000351722,-0.000186964,2.04987e-06,-0.000206014,0.576182,-0.0128668,0.691707,0.00879822,-0.381174,0.00879534
0.258617,6.27046e-05,0.378461,-0.176236,0.134348,-0.204271,0.0378032,1.28804e-07,0.056376,0.016547,-5.219e-05,0.0240453,-0.0045753,0.0921268,-0.0499849,0.00323796,-0.0605539,4.40364e-05,-2.48429e-05,-2.59226e-06,-3.00989e-05,-0.0610955,0.0227348,-0.07366,-0.0177866,0.0399305,-0.0142805
-8.8071,-0.00371158,-12.2448,6.68794,-0.204271,7.93657,-0.466258,4.01041e-07,-0.605361,-0.183941,-4.94049e-05,-0.265059,0.00508866,-1.07295,0.587574,-0.0489566,0.713783,0.000425496,-0.000225596,4.06959e-06,-0.000251169,0.667512,-0.013865,0.801464,0.00747693,-0.441939,0.00957766
0.263884,-0.000159342,0.786753,-0.402534,0.0378032,-0.466258,0.100657,3.88725e-07,0.133519,0.0393611,-1.93344e-05,0.0559092,-0.00357089,0.233493,-0.126134,0.00959023,-0.152051,0.000255768,-0.000139479,8.03736e-06,-0.000167127,-0.145001,0.00787552,-0.172821,-0.00962887,0.0938426,-0.00500905
-5.67426e-06,-3.76953e-08,9.94723e-07,2.80077e-07,1.28804e-07,4.01041e-07,3.88725e-07,1.36457e-11,4.68606e-07,1.36747e-07,-1.11474e-10,1.94804e-07,-1.33301e-07,8.4579e-07,-4.56055e-07,-2.11655e-08,-5.49774e-07,1.90878e-09,-1.04591e-09,8.94361e-12,-1.2608e-09,-5.06327e-07,2.19699e-08,-6.04339e-07,-3.83307e-08,3.26502e-07,-1.36692e-08
0.487076,0.000324141,1.12809,-0.522868,0.056376,-0.605361,0.133519,4.68606e-07,0.18887,0.0554334,-3.00885e-05,0.0790391,-0.0144215,0.317686,-0.171928,0.0120796,-0.2069,0.000386772,-0.000211403,1.06193e-05,-0.000252064,-0.204648,0.0114625,-0.244389,-0.0146899,0.1324,-0.0072772
0.157247,0.000108083,0.336611,-0.158678,0.016547,-0.183941,0.0393611,1.36747e-07,0.0554334,0.0162986,-8.51519e-06,0.0232188,-0.003891,0.0935108,-0.0506393,0.00354519,-0.0609306,0.00011322,-6.19208e-05,3.08647e-06,-7.38189e-05,-0.0601183,0.00335975,-0.0717609,-0.00421697,0.0389139,-0.00213343
8.55423e-05,1.45877e-07,1.9962e-05,-2.81959e-05,-5.219e-05,-4.94049e-05,-1.93344e-05,-1.11474e-10,-3.00885e-05,-8.51519e-06,1.76568e-07,-1.27168e-05,2.39296e-06,-4.80583e-05,2.55886e-05,-2.79266e-06,3.13525e-05,-7.99301e-08,4.28144e-08,-7.03219e-09,5.2436e-08,3.20164e-05,-5.13331e-06,3.91374e-05,1.17391e-05,-2.08119e-05,3.16936e-06
0.226002,0.000158334,0.486694,-0.22858,0.0240453,-0.265059,0.0559092,1.94804e-07,0.0790391,0.0232188,-1.27168e-05,0.0331345,-0.00576549,0.133022,-0.072018,0.00506082,-0.0867061,0.000161313,-8.81979e-05,4.42807e-06,-0.000105214,-0.0856807,0.00480675,-0.102363,-0.00613364,0.0554833,-0.00305312
0.0620117,4.11583e-05,-0.276948,0.00464202,-0.0045753,0.00508866,-0.00357089,-1.33301e-07,-0.0144215,-0.003891,2.39296e-06,-0.00576549,0.0246075,-0.0129831,0.00744113,0.000574968,0.00857157,-2.89806e-05,1.74037e-05,9.88384e-07,1.96127e-05,0.0149767,-0.000490914,0.0182316,0.00172472,-0.00943997,0.000303662
0.737652,6.76125e-05,1.86214,-0.9265,0.0921268,-1.07295,0.233493,8.4579e-07,0.317686,0.0935108,-4.80583e-05,0.133022,-0.0129831,0.547274,-0.295842,0.0218838,-0.356412,0.000627327,-0.000342265,1.87898e-05,-0.000409327,-0.344735,0.0190428,-0.41119,-0.0236479,0.223103,-0.0121025
-0.426476,-8.31591e-05,-1.02199,0.507065,-0.0499849,0.587574,-0.126134,-4.56055e-07,-0.171928,-0.0506393,2.55886e-05,-0.072018,0.00744113,-0.295842,0.160007,-0.0117347,0.192725,-0.000340595,0.000185957,-1.00426e-05,0.000222285,0.186627,-0.0103046,0.222576,0.0126952,-0.120806,0.00654887
0.0176483,-7.06622e-05,0.0714121,-0.0417755,0.00323796,-0.0489566,0.00959023,-2.11655e-08,0.0120796,0.00354519,-2.79266e-06,0.00506082,0.000574968,0.0218838,-0.0117347,0.00748739,-0.0142547,5.68274e-06,-2.9316e-06,4.59954e-06,-3.24823e-06,-0.0130899,0.00178802,-0.0156402,-0.0016401,0.00847432,-0.00115961
-0.516285,-8.36823e-05,-1.2363,0.615941,-0.0605539,0.713783,-0.152051,-5.49774e-07,-0.2069,-0.0609306,3.13525e-05,-0.0867061,0.00857157,-0.356412,0.192725,-0.0142547,0.232238,-0.000407402,0.00022235,-1.21888e-05,0.000265995,0.224572,-0.0124185,0.26791,0.0153741,-0.145401,0.00789397
-5.87464e-05,6.88252e-06,-0.000286059,0.000351722,4.40364e-05,0.000425496,0.000255768,1.90878e-09,0.000386772,0.00011322,-7.99301e-08,0.000161313,-2.89806e-05,0.000627327,-0.000340595,5.68274e-06,-0.000407402,2.52154e-06,-1.37935e-06,4.63627e-08,-1.6276e-06,-0.000418528,1.90061e-05,-0.000499621,-2.39418e-05,0.00027033,-1.19807e-05
1.82571e-05,-3.88318e-06,0.000129502,-0.000186964,-2.48429e-05,-0.000225596,-0.000139479,-1.04591e-09,-0.000211403,-6.19208e-05,4.28144e-08,-8.81979e-05,1.74037e-05,-0.000342265,0.000185957,-2.9316e-06,0.00022235,-1.37935e-06,7.55101e-07,-2.47698e-08,8.90597e-07,0.000228828,-1.0397e-05,0.000273126,1.29792e-05,-0.000147828,6.55321e-06
-1.74114e-05,2.29914e-08,-1.38495e-05,2.04987e-06,-2.59226e-06,4.06959e-06,8.03736e-06,8.94361e-12,1.06193e-05,3.08647e-06,-7.03219e-09,4.42807e-06,9.88384e-07,1.87898e-05,-1.00426e-05,4.59954e-06,-1.21888e-05,4.63627e-08,-2.47698e-08,6.68305e-09,-2.97986e-08,-1.14511e-05,1.36903e-06,-1.37172e-05,-1.40517e-06,7.39462e-06,-8.79375e-07
1.4708e-05,-4.60837e-06,0.000136074,-0.000206014,-3.00989e-05,-0.000251169,-0.000167127,-1.2608e-09,-0.000252064,-7.38189e-05,5.2436e-08,-0.000105214,1.96127e-05,-0.000409327,0.000222285,-3.24823e-06,0.000265995,-1.6276e-06,8.90597e-07,-2.97986e-08,1.05194e-06,0.00027282,-1.24609e-05,0.00032574,1.56643e-05,-0.00017629,7.85358e-06
-0.554323,-0.00037513,-1.23232,0.576182,-0.0610955,0.667512,-0.145001,-5.06327e-07,-0.204648,-0.0601183,3.20164e-05,-0.0856807,0.0149767,-0.344735,0.186627,-0.0130899,0.224572,-0.000418528,0.000228828,-1.14511e-05,0.00027282,0.221845,-0.0124137,0.264866,0.0157418,-0.143562,0.00788191
0.022526,1.41815e-05,0.0296778,-0.0128668,0.0227348,-0.013865,0.00787552,2.19699e-08,0.0114625,0.00335975,-5.13331e-06,0.00480675,-0.000490914,0.0190428,-0.0103046,0.00178802,-0.0124185,1.90061e-05,-1.0397e-05,1.36903e-06,-1.24609e-05,-0.0124137,0.00508054,-0.0148507,-0.00361123,0.00804546,-0.00318818
-0.66481,-0.000454714,-1.48221,0.691707,-0.07366,0.801464,-0.172821,-6.04339e-07,-0.244389,-0.0717609,3.91374e-05,-0.102363,0.0182316,-0.41119,0.222576,-0.0156402,0.26791,-0.000499621,0.000273126,-1.37172e-05,0.00032574,0.264866,-0.0148507,0.316369,0.0189889,-0.171438,0.00943048
0.00878143,5.03909e-05,-0.0365843,0.00879822,-0.0177866,0.00747693,-0.00962887,-3.83307e-08,-0.0146899,-0.00421697,1.17391e-05,-0.00613364,0.00172472,-0.0236479,0.0126952,-0.0016401,0.0153741,-2.39418e-05,1.29792e-05,-1.40517e-06,1.56643e-05,0.0157418,-0.00361123,0.0189889,0.00370057,-0.0101722,0.00226468
0.378452,0.000262767,0.809618,-0.381174,0.0399305,-0.441939,0.0938426,3.26502e-07,0.1324,0.0389139,-2.08119e-05,0.0554833,-0.00943997,0.223103,-0.120806,0.00847432,-0.145401,0.00027033,-0.000147828,7.39462e-06,-0.00017629,-0.143562,0.00804546,-0.171438,-0.0101722,0.0929482,-0.00510949
-0.0148953,-9.14579e-06,-0.0199065,0.00879534,-0.0142805,0.00957766,-0.00500905,-1.36692e-08,-0.0072772,-0.00213343,3.16936e-06,-0.00305312,0.000303662,-0.0121025,0.00654887,-0.00115961,0.00789397,-1.19807e-05,6.55321e-06,-8.79375e-07,7.85358e-06,0.00788191,-0.00318818,0.00943048,0.00226468,-0.00510949,0.00200114
