8.12934e-05,2.05041e-05,-8.8868e-05,-3.73064e-07,-4.77827e-06,3.64961e-08,6.27848e-12,1.32759e-13,-3.68701e-12,-7.29726e-17,-2.93468e-15,3.11316e-17,-3.85032e-15,4.08021e-17,-9.04933e-19,1.3162e-14,-9.13996e-18,-3.19942e-18,1.94006e-30,5.92288e-29,-3.06736e-31,8.31096e-31,2.05621e-27,-3.54315e-28,4.61656e-26,-2.32482e-35,-2.60894e-32
2.05041e-05,2.35262e-05,-0.000101966,-4.2805e-07,-5.48254e-06,4.18753e-08,7.20386e-12,1.52326e-13,-4.23043e-12,-8.37279e-17,-3.36722e-15,3.572e-17,-4.41781e-15,4.68159e-17,-1.03831e-18,1.51019e-14,-1.04871e-17,-3.67098e-18,2.226e-30,6.79585e-29,-3.51946e-31,9.53591e-31,2.35928e-27,-4.06537e-28,5.29699e-26,-2.66747e-35,-2.99347e-32
-8.8868e-05,-0.000101966,0.00136038,5.71083e-06,7.31454e-05,-5.58679e-07,-9.61103e-11,-2.03226e-12,5.64403e-11,1.11706e-15,4.49238e-14,-4.76559e-16,5.89403e-14,-6.24594e-16,1.38526e-17,-2.01482e-13,1.39914e-16,4.89764e-17,-2.96982e-29,-9.06669e-28,4.69549e-30,-1.27223e-29,-3.14763e-26,5.42382e-27,-7.06698e-25,3.55881e-34,3.99374e-31
-3.73064e-07,-4.2805e-07,5.71083e-06,1.91043e-06,2.44691e-05,-1.86893e-07,-3.21515e-11,-6.79845e-13,1.88808e-11,3.73686e-16,1.50282e-14,-1.59422e-16,1.97171e-14,-2.08944e-16,4.63408e-18,-6.74012e-14,4.68049e-17,1.63839e-17,-9.93485e-30,-3.03305e-28,1.57077e-30,-4.25596e-30,-1.05297e-26,1.81441e-27,-2.3641e-25,1.19052e-34,1.33601e-31
-4.77827e-06,-5.48254e-06,7.31454e-05,2.44691e-05,0.0246712,-0.000188437,-3.2417e-08,-6.85459e-10,1.90367e-08,3.76772e-13,1.51523e-11,-1.60738e-13,1.988e-11,-2.10669e-13,4.67235e-15,-6.79579e-11,4.71914e-14,1.65192e-14,-1.00169e-26,-3.0581e-25,1.58374e-27,-4.29111e-27,-1.06166e-23,1.8294e-24,-2.38362e-22,1.20035e-31,1.34705e-28
3.64961e-08,4.18753e-08,-5.58679e-07,-1.86893e-07,-0.000188437,7.76209e-05,1.33532e-08,2.82355e-10,-7.84162e-09,-1.552e-13,-6.24156e-12,6.62115e-14,-8.18896e-12,8.67789e-14,-1.92464e-15,2.79932e-11,-1.94391e-14,-6.80461e-15,4.12617e-27,1.25969e-25,-6.52375e-28,1.7676e-27,4.37321e-24,-7.53566e-25,9.81862e-23,-4.94448e-32,-5.54876e-29
6.27848e-12,7.20386e-12,-9.61103e-11,-3.21515e-11,-3.2417e-08,1.33532e-08,3.54933e-10,7.50508e-12,-2.08433e-10,-4.12526e-15,-1.65902e-13,1.75992e-15,-2.17665e-13,2.30661e-15,-5.11574e-17,7.44069e-13,-5.16697e-16,-1.80869e-16,1.09675e-28,3.3483e-27,-1.73403e-29,4.69833e-29,1.16241e-25,-2.003e-26,2.60982e-24,-1.31426e-33,-1.47488e-30
1.32759e-13,1.52326e-13,-2.03226e-12,-6.79845e-13,-6.85459e-10,2.82355e-10,7.50508e-12,7.76786e-12,-2.15731e-10,-4.2697e-15,-1.71711e-13,1.82154e-15,-2.25286e-13,2.38737e-15,-5.29486e-17,7.70121e-13,-5.34789e-16,-1.87202e-16,1.13515e-28,3.46554e-27,-1.79475e-29,4.86283e-29,1.20311e-25,-2.07314e-26,2.7012e-24,-1.36028e-33,-1.52652e-30
-3.68701e-12,-4.23043e-12,5.64403e-11,1.88808e-11,1.90367e-08,-7.84162e-09,-2.08433e-10,-2.15731e-10,5.28561e-08,1.04612e-12,4.2071e-11,-4.46296e-13,5.51974e-11,-5.8493e-13,1.29729e-14,-1.88687e-10,1.31029e-13,4.58662e-14,-2.78123e-26,-8.49092e-25,4.39731e-27,-1.19144e-26,-2.94775e-23,5.07938e-24,-6.6182e-22,3.33281e-31,3.74012e-28
-7.29726e-17,-8.37279e-17,1.11706e-15,3.73686e-16,3.76772e-13,-1.552e-13,-4.12526e-15,-4.2697e-15,1.04612e-12,1.22979e-13,4.94577e-12,-5.24655e-14,6.48887e-12,-6.8763e-14,1.52507e-15,-2.21817e-11,1.54034e-14,5.39193e-15,-3.26955e-27,-9.98173e-26,5.16937e-28,-1.40063e-27,-3.4653e-24,5.97121e-25,-7.7802e-23,3.91797e-32,4.3968e-29
-2.93468e-15,-3.36722e-15,4.49238e-14,1.50282e-14,1.51523e-11,-6.24156e-12,-1.65902e-13,-1.71711e-13,4.2071e-11,4.94577e-12,2.39161e-07,-2.53706e-09,3.1378e-07,-3.32515e-09,7.37472e-11,-1.07263e-06,7.44858e-10,2.60736e-10,-1.58104e-22,-4.82683e-21,2.49974e-23,-6.77299e-23,-1.6757e-19,2.88748e-20,-3.76225e-18,1.8946e-27,2.12615e-24
3.11316e-17,3.572e-17,-4.76559e-16,-1.59422e-16,-1.60738e-13,6.62115e-14,1.75992e-15,1.82154e-15,-4.46296e-13,-5.24655e-14,-2.53706e-09,5.7999e-10,-7.17325e-08,7.60154e-10,-1.68592e-11,2.45211e-07,-1.7028e-10,-5.96061e-11,3.61438e-23,1.10345e-21,-5.71458e-24,1.54836e-23,3.83078e-20,-6.60099e-21,8.60078e-19,-4.3312e-28,-4.86053e-25
-3.85032e-15,-4.41781e-15,5.89403e-14,1.97171e-14,1.988e-11,-8.18896e-12,-2.17665e-13,-2.25286e-13,5.51974e-11,6.48887e-12,3.1378e-07,-7.17325e-08,1.63383e-05,-1.73138e-07,3.83997e-09,-5.58511e-05,3.87842e-08,1.35763e-08,-8.23238e-21,-2.5133e-19,1.3016e-21,-3.52665e-21,-8.72527e-18,1.50349e-18,-1.95897e-16,9.86506e-26,1.10707e-22
4.08021e-17,4.68159e-17,-6.24594e-16,-2.08944e-16,-2.10669e-13,8.67789e-14,2.30661e-15,2.38737e-15,-5.8493e-13,-6.8763e-14,-3.32515e-09,7.60154e-10,-1.73138e-07,8.99507e-08,-1.99498e-09,2.90164e-05,-2.01496e-08,-7.05332e-09,4.27698e-21,1.30574e-19,-6.7622e-22,1.8322e-21,4.53305e-18,-7.8111e-19,1.01775e-16,-5.12521e-26,-5.75157e-23
-9.04933e-19,-1.03831e-18,1.38526e-17,4.63408e-18,4.67235e-15,-1.92464e-15,-5.11574e-17,-5.29486e-17,1.29729e-14,1.52507e-15,7.37472e-11,-1.68592e-11,3.83997e-09,-1.99498e-09,6.45916e-11,-9.39464e-07,6.52384e-10,2.28365e-10,-1.38476e-22,-4.22758e-21,2.1894e-23,-5.93213e-23,-1.46767e-19,2.529e-20,-3.29517e-18,1.65939e-27,1.86219e-24
1.3162e-14,1.51019e-14,-2.01482e-13,-6.74012e-14,-6.79579e-11,2.79932e-11,7.44069e-13,7.70121e-13,-1.88687e-10,-2.21817e-11,-1.07263e-06,2.45211e-07,-5.58511e-05,2.90164e-05,-9.39464e-07,0.0204481,-1.41996e-05,-4.97054e-06,3.01403e-18,9.20164e-17,-4.76538e-19,1.29117e-18,3.19448e-15,-5.50455e-16,7.17217e-14,-3.61178e-23,-4.05319e-20
-9.13996e-18,-1.04871e-17,1.39914e-16,4.68049e-17,4.71914e-14,-1.94391e-14,-5.16697e-16,-5.34789e-16,1.31029e-13,1.54034e-14,7.44858e-10,-1.7028e-10,3.87842e-08,-2.01496e-08,6.52384e-10,-1.41996e-05,1.09319e-08,3.82667e-09,-2.32041e-21,-7.08407e-20,3.66872e-22,-9.94034e-22,-2.45934e-18,4.23779e-19,-5.52164e-17,2.7806e-26,3.12043e-23
-3.19942e-18,-3.67098e-18,4.89764e-17,1.63839e-17,1.65192e-14,-6.80461e-15,-1.80869e-16,-1.87202e-16,4.58662e-14,5.39193e-15,2.60736e-10,-5.96061e-11,1.35763e-08,-7.05332e-09,2.28365e-10,-4.97054e-06,3.82667e-09,2.64561e-09,-1.60424e-21,-4.89765e-20,2.53641e-22,-6.87236e-22,-1.70029e-18,2.92984e-19,-3.81744e-17,1.9224e-26,2.15734e-23
1.94006e-30,2.226e-30,-2.96982e-29,-9.93485e-30,-1.00169e-26,4.12617e-27,1.09675e-28,1.13515e-28,-2.78123e-26,-3.26955e-27,-1.58104e-22,3.61438e-23,-8.23238e-21,4.27698e-21,-1.38476e-22,3.01403e-18,-2.32041e-21,-1.60424e-21,7.44424e-23,2.27268e-21,-1.17698e-23,3.18902e-23,7.88994e-20,-1.35955e-20,1.77143e-18,-8.92061e-28,-1.00108e-24
5.92288e-29,6.79585e-29,-9.06669e-28,-3.03305e-28,-3.0581e-25,1.25969e-25,3.3483e-27,3.46554e-27,-8.49092e-25,-9.98173e-26,-4.82683e-21,1.10345e-21,-2.5133e-19,1.30574e-19,-4.22758e-21,9.20164e-17,-7.08407e-20,-4.89765e-20,2.27268e-21,1.04509e-17,-5.41237e-20,1.46647e-19,3.62819e-16,-6.25189e-17,8.14592e-15,-4.10214e-24,-4.60348e-21
-3.06736e-31,-3.51946e-31,4.69549e-30,1.57077e-30,1.58374e-27,-6.52375e-28,-1.73403e-29,-1.79475e-29,4.39731e-27,5.16937e-28,2.49974e-23,-5.71458e-24,1.3016e-21,-6.7622e-22,2.1894e-23,-4.76538e-19,3.66872e-22,2.53641e-22,-1.17698e-23,-5.41237e-20,2.19932e-20,-5.95902e-20,-1.47432e-16,2.54046e-17,-3.3101e-15,1.66691e-24,1.87063e-21
8.31096e-31,9.53591e-31,-1.27223e-29,-4.25596e-30,-4.29111e-27,1.7676e-27,4.69833e-29,4.86283e-29,-1.19144e-26,-1.40063e-27,-6.77299e-23,1.54836e-23,-3.52665e-21,1.8322e-21,-5.93213e-23,1.29117e-18,-9.94034e-22,-6.87236e-22,3.18902e-23,1.46647e-19,-5.95902e-20,4.82447e-19,1.19362e-15,-2.05678e-16,2.67989e-14,-1.34954e-23,-1.51448e-20
2.05621e-27,2.35928e-27,-3.14763e-26,-1.05297e-26,-1.06166e-23,4.37321e-24,1.16241e-25,1.20311e-25,-2.94775e-23,-3.4653e-24,-1.6757e-19,3.83078e-20,-8.72527e-18,4.53305e-18,-1.46767e-19,3.19448e-15,-2.45934e-18,-1.70029e-18,7.88994e-20,3.62819e-16,-1.47432e-16,1.19362e-15,3.22813e-12,-5.56252e-13,7.2477e-11,-3.64982e-20,-4.09587e-17
-3.54315e-28,-4.06537e-28,5.42382e-27,1.81441e-27,1.8294e-24,-7.53566e-25,-2.003e-26,-2.07314e-26,5.07938e-24,5.97121e-25,2.88748e-20,-6.60099e-21,1.50349e-18,-7.8111e-19,2.529e-20,-5.50455e-16,4.23779e-19,2.92984e-19,-1.35955e-20,-6.25189e-17,2.54046e-17,-2.05678e-16,-5.56252e-13,2.25357e-13,-2.93629e-11,1.47867e-20,1.65938e-17
4.61656e-26,5.29699e-26,-7.06698e-25,-2.3641e-25,-2.38362e-22,9.81862e-23,2.60982e-24,2.7012e-24,-6.6182e-22,-7.7802e-23,-3.76225e-18,8.60078e-19,-1.95897e-16,1.01775e-16,-3.29517e-18,7.17217e-14,-5.52164e-17,-3.81744e-17,1.77143e-18,8.14592e-15,-3.3101e-15,2.67989e-14,7.2477e-11,-2.93629e-11,3.82626e-09,-1.92684e-18,-2.16232e-15
-2.32482e-35,-2.66747e-35,3.55881e-34,1.19052e-34,1.20035e-31,-4.94448e-32,-1.31426e-33,-1.36028e-33,3.33281e-31,3.91797e-32,1.8946e-27,-4.3312e-28,9.86506e-26,-5.12521e-26,1.65939e-27,-3.61178e-23,2.7806e-26,1.9224e-26,-8.92061e-28,-4.10214e-24,1.66691e-24,-1.34954e-23,-3.64982e-20,1.47867e-20,-1.92684e-18,1.55202e-21,1.74169e-18
-2.60894e-32,-2.99347e-32,3.99374e-31,1.33601e-31,1.34705e-28,-5.54876e-29,-1.47488e-30,-1.52652e-30,3.74012e-28,4.3968e-29,2.12615e-24,-4.86053e-25,1.10707e-22,-5.75157e-23,1.86219e-24,-4.05319e-20,3.12043e-23,2.15734e-23,-1.00108e-24,-4.60348e-21,1.87063e-21,-1.51448e-20,-4.09587e-17,1.65938e-17,-2.16232e-15,1.74169e-18,2.42752e-15
