0.0118511,0.000364495,0.03483,-0.000525746,1.56019,4.71245,-4.81023e-06,-5.59114e-08,0.000477606,3.35211e-07,-0.0477511,1.39132e-05,-0.00107053,0.000322887,-4.36504e-06,-0.0302297,-4.34937e-05,9.49954e-05,-5.27324e-06,0.000123859,-2.13582e-05,-3.44772e-05,-0.0371109,-0.000174573,-3.48509,5.54776e-06,0.0096798
0.000364495,0.000835683,0.00164372,8.2529e-05,-0.0896987,0.0495807,-2.84793e-07,-2.25257e-07,0.000220496,-8.61423e-09,0.002107,7.58389e-06,-0.000387602,0.000173818,-8.6376e-08,-0.000390778,-3.26324e-05,-3.27525e-05,1.54695e-06,-1.14093e-05,6.61592e-06,-1.1342e-05,-0.00738686,-8.21308e-05,-0.0360301,1.9352e-06,0.00157337
0.03483,0.00164372,0.466632,-0.00269615,3.9145,11.0361,-4.59737e-06,-8.69899e-07,0.00373317,1.59546e-06,-0.114302,0.000137407,-0.0356874,-0.000284049,-1.59201e-05,-0.0777379,9.45194e-05,0.000164467,-1.00099e-05,0.000163696,-3.15483e-05,-0.000235236,-0.188714,-0.00145567,-8.16607,4.2562e-05,0.0425839
-0.000525746,8.2529e-05,-0.00269615,0.000230958,0.0307972,0.0320913,2.78184e-07,-5.75998e-09,-2.30329e-05,-5.88685e-08,-0.00105874,-5.40129e-07,0.00012037,-1.0021e-05,1.69336e-07,0.00163119,8.92067e-07,9.56944e-06,-5.45086e-07,1.01629e-05,-2.25556e-06,1.81366e-06,0.00492007,6.87224e-06,-0.0235257,-3.50426e-07,-0.000983859
1.56019,-0.0896987,3.9145,0.0307972,1088.82,3020,0.000283798,4.09854e-05,-0.274763,3.49774e-05,-33.1068,-0.0154443,0.10724,-0.253919,-0.00101481,-9.82633,0.0562191,0.0791021,-0.00427198,0.100502,-0.0175487,0.0123821,-7.13116,0.125987,-2233.54,-0.00225774,2.79979
4.71245,0.0495807,11.0361,0.0320913,3020,9854.56,0.000562503,4.3927e-05,-0.360431,0.000108442,-97.2541,-0.0263168,0.0258188,-0.35543,-0.00300516,-29.923,0.092519,0.233935,-0.012665,0.361009,-0.0525127,0.0138693,-8.66972,0.180025,-7287.34,-0.0022942,6.7387
-4.81023e-06,-2.84793e-07,-4.59737e-06,2.78184e-07,0.000283798,0.000562503,1.86338e-08,1.94968e-10,-3.29942e-06,9.05419e-11,-8.91961e-06,-1.45716e-07,2.40317e-07,-3.12949e-06,-2.55138e-09,3.94682e-07,5.88252e-07,2.32263e-08,-1.36985e-09,7.05655e-09,-5.5904e-09,1.72901e-07,-1.92464e-05,1.38798e-06,-0.000415627,-3.19577e-08,4.13062e-06
-5.59114e-08,-2.25257e-07,-8.69899e-07,-5.75998e-09,4.09854e-05,4.3927e-05,1.94968e-10,1.31908e-10,-1.75173e-07,2.89487e-12,-9.40315e-07,-7.18996e-09,1.49182e-07,-1.56329e-07,-4.16651e-11,-5.41822e-08,2.96213e-08,1.09401e-08,-5.56769e-10,-2.27514e-09,-2.60396e-09,9.18692e-09,3.23549e-06,7.09619e-08,-3.2634e-05,-1.68278e-09,-6.13005e-07
0.000477606,0.000220496,0.00373317,-2.30329e-05,-0.274763,-0.360431,-3.29942e-06,-1.75173e-07,0.00417445,-4.50364e-08,0.00611748,0.000185924,-0.00112991,0.00380156,8.19682e-07,0.00101799,-0.000719646,5.48493e-05,-2.89176e-06,4.15502e-05,-1.1295e-05,-0.000217862,0.0286807,-0.00176375,0.2675,4.08634e-05,-0.00581156
3.35211e-07,-8.61423e-09,1.59546e-06,-5.88685e-08,3.49774e-05,0.000108442,9.05419e-11,2.89487e-12,-4.50364e-08,2.84333e-11,-9.95287e-07,-2.57967e-09,-6.59283e-08,-5.04871e-08,-2.27099e-10,-1.37399e-06,1.07325e-08,-1.22329e-09,6.53217e-11,-6.48702e-10,2.70933e-10,1.88051e-09,-3.25458e-06,2.17583e-08,-8.01872e-05,-4.49308e-10,7.0176e-07
-0.0477511,0.002107,-0.114302,-0.00105874,-33.1068,-97.2541,-8.91961e-06,-9.40315e-07,0.00611748,-9.95287e-07,1.10701,0.000359123,-0.00223691,0.00576923,3.1057e-05,0.302614,-0.0013406,-0.00314454,0.000169613,-0.0047524,0.000700358,-0.000267936,0.111022,-0.00282252,71.9242,4.70354e-05,-0.0681413
1.39132e-05,7.58389e-06,0.000137407,-5.40129e-07,-0.0154443,-0.0263168,-1.45716e-07,-7.18996e-09,0.000185924,-2.57967e-09,0.000359123,8.34537e-06,-4.92166e-05,0.00016939,4.24774e-08,0.000111535,-3.21406e-05,2.70151e-06,-1.41996e-07,1.97151e-06,-5.59734e-07,-9.68323e-06,0.00148139,-7.88175e-05,0.019497,1.82242e-06,-0.000304664
-0.00107053,-0.000387602,-0.0356874,0.00012037,0.10724,0.0258188,2.40317e-07,1.49182e-07,-0.00112991,-6.59283e-08,-0.00223691,-4.92166e-05,0.00366211,-0.000679311,5.08412e-07,0.000673697,0.000128342,9.8245e-08,4.95007e-08,-1.06904e-05,3.9955e-08,5.92467e-05,-0.00516528,0.000472263,-0.0195716,-1.11469e-05,0.000983068
0.000322887,0.000173818,-0.000284049,-1.0021e-05,-0.253919,-0.35543,-3.12949e-06,-1.56329e-07,0.00380156,-5.04871e-08,0.00576923,0.00016939,-0.000679311,0.00350233,8.48643e-07,0.00108341,-0.000663032,4.85606e-05,-2.5443e-06,3.67034e-05,-9.94485e-06,-0.000198378,0.0261483,-0.00160648,0.2637,3.71975e-05,-0.0053191
-4.36504e-06,-8.6376e-08,-1.59201e-05,1.69336e-07,-0.00101481,-0.00300516,-2.55138e-09,-4.16651e-11,8.19682e-07,-2.27099e-10,3.1057e-05,4.24774e-08,5.08412e-07,8.48643e-07,3.32906e-09,1.82803e-05,-1.75691e-07,-5.71039e-08,3.18425e-09,-7.27085e-08,1.30432e-08,-3.75888e-08,2.64893e-05,-3.70486e-07,0.00222224,7.8098e-09,-6.76333e-06
-0.0302297,-0.000390778,-0.0777379,0.00163119,-9.82633,-29.923,3.94682e-07,-5.41822e-08,0.00101799,-1.37399e-06,0.302614,0.000111535,0.000673697,0.00108341,1.82803e-05,0.184918,-0.000367124,-0.000603914,3.29761e-05,-0.00076534,0.000134381,-1.75802e-05,0.253193,-0.000704671,22.1225,1.23066e-05,-0.0652193
-4.34937e-05,-3.26324e-05,9.45194e-05,8.92067e-07,0.0562191,0.092519,5.88252e-07,2.96213e-08,-0.000719646,1.07325e-08,-0.0013406,-3.21406e-05,0.000128342,-0.000663032,-1.75691e-07,-0.000367124,0.000125708,-8.80657e-06,4.60698e-07,-6.36959e-06,1.79596e-06,3.75236e-05,-0.00515235,0.000304437,-0.0685748,-7.04706e-06,0.00105981
9.49954e-05,-3.27525e-05,0.000164467,9.56944e-06,0.0791021,0.233935,2.32263e-08,1.09401e-08,5.48493e-05,-1.22329e-09,-0.00314454,2.70151e-06,9.8245e-08,4.85606e-05,-5.71039e-08,-0.000603914,-8.80657e-06,2.69672e-05,-1.45789e-06,2.14141e-05,-5.8989e-06,-2.78693e-06,0.00199199,-2.48199e-05,-0.173017,5.67076e-07,-0.000263641
-5.27324e-06,1.54695e-06,-1.00099e-05,-5.45086e-07,-0.00427198,-0.012665,-1.36985e-09,-5.56769e-10,-2.89176e-06,6.53217e-11,0.000169613,-1.41996e-07,4.95007e-08,-2.5443e-06,3.18425e-09,3.29761e-05,4.60698e-07,-1.45789e-06,7.89603e-08,-1.14376e-06,3.18876e-07,1.46935e-07,-0.000101984,1.30691e-06,0.00936693,-2.99103e-08,1.30761e-05
0.000123859,-1.14093e-05,0.000163696,1.01629e-05,0.100502,0.361009,7.05655e-09,-2.27514e-09,4.15502e-05,-6.48702e-10,-0.0047524,1.97151e-06,-1.06904e-05,3.67034e-05,-7.27085e-08,-0.00076534,-6.36959e-06,2.14141e-05,-1.14376e-06,4.37503e-05,-4.78711e-06,-2.14072e-06,0.00234555,-1.86696e-05,-0.266946,4.43432e-07,-0.000300186
-2.13582e-05,6.61592e-06,-3.15483e-05,-2.25556e-06,-0.0175487,-0.0525127,-5.5904e-09,-2.60396e-09,-1.1295e-05,2.70933e-10,0.000700358,-5.59734e-07,3.9955e-08,-9.94485e-06,1.30432e-08,0.000134381,1.79596e-06,-5.8989e-06,3.18876e-07,-4.78711e-06,1.29461e-06,5.71347e-07,-0.000461402,5.13456e-06,0.0388369,-1.16768e-07,6.19006e-05
-3.44772e-05,-1.1342e-05,-0.000235236,1.81366e-06,0.0123821,0.0138693,1.72901e-07,9.18692e-09,-0.000217862,1.88051e-09,-0.000267936,-9.68323e-06,5.92467e-05,-0.000198378,-3.75888e-08,-1.75802e-05,3.75236e-05,-2.78693e-06,1.46935e-07,-2.14072e-06,5.71347e-07,1.13897e-05,-0.00139163,9.19588e-05,-0.0103047,-2.13412e-06,0.000280358
-0.0371109,-0.00738686,-0.188714,0.00492007,-7.13116,-8.66972,-1.92464e-05,3.23549e-06,0.0286807,-3.25458e-06,0.111022,0.00148139,-0.00516528,0.0261483,2.64893e-05,0.253193,-0.00515235,0.00199199,-0.000101984,0.00234555,-0.000461402,-0.00139163,1.56296,-0.0131482,6.40926,0.00029013,-0.311031
-0.000174573,-8.21308e-05,-0.00145567,6.87224e-06,0.125987,0.180025,1.38798e-06,7.09619e-08,-0.00176375,2.17583e-08,-0.00282252,-7.88175e-05,0.000472263,-0.00160648,-3.70486e-07,-0.000704671,0.000304437,-2.48199e-05,1.30691e-06,-1.86696e-05,5.13456e-06,9.19588e-05,-0.0131482,0.00074646,-0.133514,-1.728e-05,0.00267258
-3.48509,-0.0360301,-8.16607,-0.0235257,-2233.54,-7287.34,-0.000415627,-3.2634e-05,0.2675,-8.01872e-05,71.9242,0.019497,-0.0195716,0.2637,0.00222224,22.1225,-0.0685748,-0.173017,0.00936693,-0.266946,0.0388369,-0.0103047,6.40926,-0.133514,5388.91,0.00170397,-4.98263
5.54776e-06,1.9352e-06,4.2562e-05,-3.50426e-07,-0.00225774,-0.0022942,-3.19577e-08,-1.68278e-09,4.08634e-05,-4.49308e-10,4.70354e-05,1.82242e-06,-1.11469e-05,3.71975e-05,7.8098e-09,1.23066e-05,-7.04706e-06,5.67076e-07,-2.99103e-08,4.43432e-07,-1.16768e-07,-2.13412e-06,0.00029013,-1.728e-05,0.00170397,4.01854e-07,-5.81311e-05
0.0096798,0.00157337,0.0425839,-0.000983859,2.79979,6.7387,4.13062e-06,-6.13005e-07,-0.00581156,7.0176e-07,-0.0681413,-0.000304664,0.000983068,-0.0053191,-6.76333e-06,-0.0652193,0.00105981,-0.000263641,1.30761e-05,-0.000300186,6.19006e-05,0.000280358,-0.311031,0.00267258,-4.98263,-5.81311e-05,0.0647689
