0.0338832,0.000426698,0.00731693,-0.00414455,-0.00554929,0.000589543,-2.55479e-07,-7.66911e-12,-3.38625e-10,1.50769e-10,8.22737e-11,-2.64285e-12,2.87826e-11,-4.19047e-12,1.60439e-19,4.70202e-16,-9.76062e-22,-5.3688e-29,1.6072e-29,4.7262e-29,-8.05863e-30,-5.75119e-29,-1.99409e-27,1.46847e-28,-7.32077e-26,-1.50029e-32,-5.928e-32
0.000426698,1.31827e-05,0.000226054,-0.000128044,-0.000171443,1.82137e-05,-7.89291e-09,-2.36934e-13,-1.04617e-11,4.65796e-12,2.54181e-12,-8.16496e-14,8.89225e-13,-1.29463e-13,4.9567e-21,1.45267e-17,-3.0155e-23,-1.65867e-30,4.96537e-31,1.46014e-30,-2.48968e-31,-1.7768e-30,-6.16066e-29,4.53676e-30,-2.26172e-27,-4.63509e-34,-1.83143e-33
0.00731693,0.000226054,0.00452945,-0.00256563,-0.00343521,0.000364949,-1.58151e-07,-4.74746e-12,-2.09621e-10,9.33319e-11,5.09305e-11,-1.63602e-12,1.78175e-11,-2.59405e-12,9.93179e-20,2.91073e-16,-6.04218e-22,-3.32349e-29,9.94915e-30,2.92569e-29,-4.98859e-30,-3.5602e-29,-1.23442e-27,9.09035e-29,-4.53183e-26,-9.28737e-33,-3.66965e-32
-0.00414455,-0.000128044,-0.00256563,0.00148188,0.00198414,-0.00021079,9.13461e-08,2.74208e-12,1.21075e-10,-5.39074e-11,-2.94168e-11,9.44946e-13,-1.02912e-11,1.4983e-12,-5.73648e-20,-1.6812e-16,3.48989e-22,1.91961e-29,-5.74651e-30,-1.68984e-29,2.88135e-30,2.05633e-29,7.12984e-28,-5.25048e-29,2.61753e-26,5.36428e-33,2.11955e-32
-0.00554929,-0.000171443,-0.00343521,0.00198414,0.00294659,-0.000313039,1.35656e-07,4.07219e-12,1.79805e-10,-8.00565e-11,-4.36862e-11,1.40331e-12,-1.52831e-11,2.22508e-12,-8.5191e-20,-2.49671e-16,5.18275e-22,2.85076e-29,-8.534e-30,-2.50954e-29,4.27902e-30,3.0538e-29,1.05883e-27,-7.79735e-29,3.88723e-26,7.96635e-33,3.14769e-32
0.000589543,1.82137e-05,0.000364949,-0.00021079,-0.000313039,0.000155589,-6.74247e-08,-2.02399e-12,-8.93681e-11,3.97903e-11,2.17133e-11,-6.97487e-13,7.59614e-12,-1.10593e-12,4.23423e-20,1.24093e-16,-2.57597e-22,-1.41691e-29,4.24164e-30,1.24731e-29,-2.12679e-30,-1.51782e-29,-5.2627e-28,3.8755e-29,-1.93206e-26,-3.9595e-33,-1.56449e-32
-2.55479e-07,-7.89291e-09,-1.58151e-07,9.13461e-08,1.35656e-07,-6.74247e-08,4.24157e-07,1.27326e-11,5.62198e-10,-2.50314e-10,-1.36594e-10,4.38776e-12,-4.7786e-11,6.95719e-12,-2.66368e-19,-7.80649e-16,1.6205e-21,8.9135e-29,-2.66834e-29,-7.84663e-29,1.33793e-29,9.54835e-29,3.31067e-27,-2.43801e-28,1.21542e-25,2.49085e-32,9.84191e-32
-7.66911e-12,-2.36934e-13,-4.74746e-12,2.74208e-12,4.07219e-12,-2.02399e-12,1.27326e-11,1.88842e-13,8.33821e-12,-3.71251e-12,-2.02589e-12,6.50768e-14,-7.08734e-13,1.03185e-13,-3.95062e-21,-1.15781e-17,2.40343e-23,1.322e-30,-3.95752e-31,-1.16377e-30,1.98434e-31,1.41616e-30,4.9102e-29,-3.61591e-30,1.80265e-27,3.69429e-34,1.4597e-33
-3.38625e-10,-1.04617e-11,-2.09621e-10,1.21075e-10,1.79805e-10,-8.93681e-11,5.62198e-10,8.33821e-12,1.6322e-09,-7.26721e-10,-3.96566e-10,1.27387e-11,-1.38734e-10,2.01984e-11,-7.7333e-19,-2.26641e-15,4.7047e-21,2.58781e-28,-7.74682e-29,-2.27806e-28,3.88432e-29,2.77212e-28,9.61167e-27,-7.07812e-28,3.52867e-25,7.23154e-32,2.85734e-31
1.50769e-10,4.65796e-12,9.33319e-11,-5.39074e-11,-8.00565e-11,3.97903e-11,-2.50314e-10,-3.71251e-12,-7.26721e-10,3.96063e-10,2.16129e-10,-6.94262e-12,7.56102e-11,-1.10081e-11,4.21465e-19,1.2352e-15,-2.56406e-21,-1.41036e-28,4.22202e-29,1.24155e-28,-2.11696e-29,-1.51081e-28,-5.23837e-27,3.85758e-28,-1.92313e-25,-3.94119e-32,-1.55725e-31
8.22737e-11,2.54181e-12,5.09305e-11,-2.94168e-11,-4.36862e-11,2.17133e-11,-1.36594e-10,-2.02589e-12,-3.96566e-10,2.16129e-10,3.09238e-09,-9.93355e-11,1.08184e-09,-1.57505e-10,6.03036e-18,1.76733e-14,-3.66868e-20,-2.01795e-27,6.0409e-28,1.77641e-27,-3.02896e-28,-2.16167e-27,-7.4951e-26,5.51946e-27,-2.75162e-24,-5.63909e-31,-2.22813e-30
-2.64285e-12,-8.16496e-14,-1.63602e-12,9.44946e-13,1.40331e-12,-6.97487e-13,4.38776e-12,6.50768e-14,1.27387e-11,-6.94262e-12,-9.93355e-11,6.64929e-10,-7.24157e-09,1.0543e-09,-4.03659e-17,-1.18301e-13,2.45573e-19,1.35077e-26,-4.04364e-27,-1.18909e-26,2.02752e-27,1.44697e-26,5.01705e-25,-3.6946e-26,1.84187e-23,3.77468e-30,1.49146e-29
2.87826e-11,8.89225e-13,1.78175e-11,-1.02912e-11,-1.52831e-11,7.59614e-12,-4.7786e-11,-7.08734e-13,-1.38734e-10,7.56102e-11,1.08184e-09,-7.24157e-09,7.6203e-07,-1.10944e-07,4.2477e-15,1.24488e-11,-2.58417e-17,-1.42141e-24,4.25512e-25,1.25128e-24,-2.13356e-25,-1.52265e-24,-5.27944e-23,3.88783e-24,-1.9382e-21,-3.97209e-28,-1.56946e-27
-4.19047e-12,-1.29463e-13,-2.59405e-12,1.4983e-12,2.22508e-12,-1.10593e-12,6.95719e-12,1.03185e-13,2.01984e-11,-1.10081e-11,-1.57505e-10,1.0543e-09,-1.10944e-07,1.51919e-07,-5.81648e-15,-1.70465e-11,3.53856e-17,1.94638e-24,-5.82665e-25,-1.71341e-24,2.92153e-25,2.08501e-24,7.22927e-23,-5.3237e-24,2.65403e-21,5.43909e-28,2.14911e-27
1.60439e-19,4.9567e-21,9.93179e-20,-5.73648e-20,-8.5191e-20,4.23423e-20,-2.66368e-19,-3.95062e-21,-7.7333e-19,4.21465e-19,6.03036e-18,-4.03659e-17,4.2477e-15,-5.81648e-15,2.99271e-15,8.7708e-12,-1.82067e-17,-1.00146e-24,2.99795e-25,8.81589e-25,-1.5032e-25,-1.07278e-24,-3.71962e-23,2.73917e-24,-1.36556e-21,-2.79854e-28,-1.10576e-27
4.70202e-16,1.45267e-17,2.91073e-16,-1.6812e-16,-2.49671e-16,1.24093e-16,-7.80649e-16,-1.15781e-17,-2.26641e-15,1.2352e-15,1.76733e-14,-1.18301e-13,1.24488e-11,-1.70465e-11,8.7708e-12,6.25425e-08,-1.29828e-13,-7.14114e-21,2.13776e-21,6.2864e-21,-1.07189e-21,-7.64976e-21,-2.65238e-19,1.95323e-20,-9.73749e-18,-1.99557e-24,-7.88494e-24
-9.76062e-22,-3.0155e-23,-6.04218e-22,3.48989e-22,5.18275e-22,-2.57597e-22,1.6205e-21,2.40343e-23,4.7047e-21,-2.56406e-21,-3.66868e-20,2.45573e-19,-2.58417e-17,3.53856e-17,-1.82067e-17,-1.29828e-13,1.36395e-13,7.50237e-21,-2.2459e-21,-6.6044e-21,1.12611e-21,8.03672e-21,2.78654e-19,-2.05204e-20,1.02301e-17,2.09651e-24,8.2838e-24
-5.3688e-29,-1.65867e-30,-3.32349e-29,1.91961e-29,2.85076e-29,-1.41691e-29,8.9135e-29,1.322e-30,2.58781e-28,-1.41036e-28,-2.01795e-27,1.35077e-26,-1.42141e-24,1.94638e-24,-1.00146e-24,-7.14114e-21,7.50237e-21,1.01429e-21,-3.03636e-22,-8.92885e-22,1.52246e-22,1.08653e-21,3.76728e-20,-2.77426e-21,1.38306e-18,2.83439e-25,1.11993e-24
1.6072e-29,4.96537e-31,9.94915e-30,-5.74651e-30,-8.534e-30,4.24164e-30,-2.66834e-29,-3.95752e-31,-7.74682e-29,4.22202e-29,6.0409e-28,-4.04364e-27,4.25512e-25,-5.82665e-25,2.99795e-25,2.13776e-21,-2.2459e-21,-3.03636e-22,2.89793e-22,8.52179e-22,-1.45305e-22,-1.03699e-21,-3.59554e-20,2.64779e-21,-1.32001e-18,-2.70517e-25,-1.06888e-24
4.7262e-29,1.46014e-30,2.92569e-29,-1.68984e-29,-2.50954e-29,1.24731e-29,-7.84663e-29,-1.16377e-30,-2.27806e-28,1.24155e-28,1.77641e-27,-1.18909e-26,1.25128e-24,-1.71341e-24,8.81589e-25,6.2864e-21,-6.6044e-21,-8.92885e-22,8.52179e-22,6.0641e-21,-1.03399e-21,-7.37925e-21,-2.55858e-19,1.88416e-20,-9.39315e-18,-1.925e-24,-7.60612e-24
-8.05863e-30,-2.48968e-31,-4.98859e-30,2.88135e-30,4.27902e-30,-2.12679e-30,1.33793e-29,1.98434e-31,3.88432e-29,-2.11696e-29,-3.02896e-28,2.02752e-27,-2.13356e-25,2.92153e-25,-1.5032e-25,-1.07189e-21,1.12611e-21,1.52246e-22,-1.45305e-22,-1.03399e-21,2.06898e-21,1.47657e-20,5.11965e-19,-3.77016e-20,1.87954e-17,3.85187e-24,1.52196e-23
-5.75119e-29,-1.7768e-30,-3.5602e-29,2.05633e-29,3.0538e-29,-1.51782e-29,9.54835e-29,1.41616e-30,2.77212e-28,-1.51081e-28,-2.16167e-27,1.44697e-26,-1.52265e-24,2.08501e-24,-1.07278e-24,-7.64976e-21,8.03672e-21,1.08653e-21,-1.03699e-21,-7.37925e-21,1.47657e-20,1.40525e-19,4.87237e-18,-3.58806e-19,1.78876e-16,3.66583e-23,1.44845e-22
-1.99409e-27,-6.16066e-29,-1.23442e-27,7.12984e-28,1.05883e-27,-5.2627e-28,3.31067e-27,4.9102e-29,9.61167e-27,-5.23837e-27,-7.4951e-26,5.01705e-25,-5.27944e-23,7.22927e-23,-3.71962e-23,-2.65238e-19,2.78654e-19,3.76728e-20,-3.59554e-20,-2.55858e-19,5.11965e-19,4.87237e-18,1.9793e-16,-1.45758e-17,7.26648e-15,1.48917e-21,5.88404e-21
1.46847e-28,4.53676e-30,9.09035e-29,-5.25048e-29,-7.79735e-29,3.8755e-29,-2.43801e-28,-3.61591e-30,-7.07812e-28,3.85758e-28,5.51946e-27,-3.6946e-26,3.88783e-24,-5.3237e-24,2.73917e-24,1.95323e-20,-2.05204e-20,-2.77426e-21,2.64779e-21,1.88416e-20,-3.77016e-20,-3.58806e-19,-1.45758e-17,8.35219e-16,-4.16383e-13,-8.53322e-20,-3.37167e-19
-7.32077e-26,-2.26172e-27,-4.53183e-26,2.61753e-26,3.88723e-26,-1.93206e-26,1.21542e-25,1.80265e-27,3.52867e-25,-1.92313e-25,-2.75162e-24,1.84187e-23,-1.9382e-21,2.65403e-21,-1.36556e-21,-9.73749e-18,1.02301e-17,1.38306e-18,-1.32001e-18,-9.39315e-18,1.87954e-17,1.78876e-16,7.26648e-15,-4.16383e-13,2.07735e-10,4.25725e-17,1.68213e-16
-1.50029e-32,-4.63509e-34,-9.28737e-33,5.36428e-33,7.96635e-33,-3.9595e-33,2.49085e-32,3.69429e-34,7.23154e-32,-3.94119e-32,-5.63909e-31,3.77468e-30,-3.97209e-28,5.43909e-28,-2.79854e-28,-1.99557e-24,2.09651e-24,2.83439e-25,-2.70517e-25,-1.925e-24,3.85187e-24,3.66583e-23,1.48917e-21,-8.53322e-20,4.25725e-17,8.73579e-19,3.45171e-18
-5.928e-32,-1.83143e-33,-3.66965e-32,2.11955e-32,3.14769e-32,-1.56449e-32,9.84191e-32,1.4597e-33,2.85734e-31,-1.55725e-31,-2.22813e-30,1.49146e-29,-1.56946e-27,2.14911e-27,-1.10576e-27,-7.88494e-24,8.2838e-24,1.11993e-24,-1.06888e-24,-7.60612e-24,1.52196e-23,1.44845e-22,5.88404e-21,-3.37167e-19,1.68213e-16,3.45171e-18,2.93289e-17
