0.0114818,0.000372622,0.0332282,-0.000773192,0.132081,0.674218,-4.1069e-06,-7.60263e-08,0.000758338,4.14294e-07,-0.000636631,2.66768e-05,-0.00124143,0.000583408,-4.26193e-06,-0.0280762,-9.42791e-05,-9.31074e-05,4.9168e-06,-0.000112102,2.04543e-05,-4.89722e-05,-0.0505274,-0.000287141,-0.497606,7.09632e-06,0.0103531
0.000372622,0.0005431,0.000624968,9.50657e-05,0.0173646,0.125657,-1.35148e-07,-9.75205e-08,0.000142849,-8.56246e-09,-7.05339e-05,4.54807e-06,-0.000239134,0.000110157,-1.56193e-07,-0.000865609,-2.01054e-05,-1.97617e-05,9.06813e-07,-2.16988e-05,3.81817e-06,-7.25788e-06,-0.00436187,-5.20018e-05,-0.0923694,1.17792e-06,0.000944818
0.0332282,0.000624968,0.491905,-0.00355529,0.77257,0.340722,-1.25938e-06,-6.05086e-07,0.00417487,1.85919e-06,0.00267047,0.000165049,-0.0385712,-4.1933e-05,-1.5907e-05,-0.0731696,4.73159e-05,-0.00033923,1.7652e-05,-0.000574457,8.0926e-05,-0.000259703,-0.216247,-0.00163513,-0.257276,4.46574e-05,0.0419818
-0.000773192,9.50657e-05,-0.00355529,0.000284678,0.0238387,-0.101715,2.66587e-07,-1.76072e-09,-6.07742e-05,-7.76924e-08,0.000268279,-1.90637e-06,0.000147174,-4.20637e-05,3.07165e-07,0.0030393,5.79188e-06,5.64781e-06,-3.37121e-07,-9.10395e-06,-1.41262e-06,4.10342e-06,0.00665386,2.10622e-05,0.0754312,-7.32185e-07,-0.00141593
0.132081,0.0173646,0.77257,0.0238387,280.879,-136.821,-0.000152922,-1.94145e-05,-0.0647538,-1.10702e-06,1.41407,-0.00393535,0.00596941,-0.0535161,-3.65816e-05,-0.542733,0.010916,-0.0694935,0.00373497,-0.173238,0.0156923,0.00263734,-7.93763,0.0338269,100.835,-0.000547114,1.16367
0.674218,0.125657,0.340722,-0.101715,-136.821,1671.37,-0.000219337,-1.1305e-05,0.109221,3.34726e-05,-3.58676,0.00148493,-0.120705,0.0913382,-0.000426221,-4.24879,-0.0126146,-0.0278564,0.0014932,0.0728383,0.00566413,-0.00603443,6.71691,-0.0416049,-1234.92,0.00113958,0.16411
-4.1069e-06,-1.35148e-07,-1.25938e-06,2.66587e-07,-0.000152922,-0.000219337,1.77589e-08,1.15411e-10,-3.02663e-06,1.21519e-10,-3.72156e-07,-1.32908e-07,-1.05461e-07,-2.91339e-06,-2.86478e-09,2.04406e-06,5.46578e-07,3.30945e-08,-1.90271e-09,8.56781e-08,-7.93577e-09,1.5841e-07,-1.54105e-05,1.26999e-06,0.000162903,-2.9516e-08,3.06693e-06
-7.60263e-08,-9.75205e-08,-6.05086e-07,-1.76072e-09,-1.94145e-05,-1.1305e-05,1.15411e-10,5.93741e-11,-9.32723e-08,-5.72028e-14,-8.55181e-08,-3.59516e-09,7.778e-08,-8.35908e-08,5.59128e-12,2.91689e-07,1.55088e-08,1.07767e-08,-5.62534e-10,1.36744e-08,-2.57374e-09,5.00605e-09,3.07546e-06,3.65162e-08,8.32317e-06,-9.09017e-10,-5.84667e-07
0.000758338,0.000142849,0.00417487,-6.07742e-05,-0.0647538,0.109221,-3.02663e-06,-9.32723e-08,0.00382692,-2.52418e-08,-0.000402719,0.000170391,-0.00104146,0.00348198,5.51239e-07,-0.0014249,-0.0006571,8.39658e-05,-4.47777e-06,5.72937e-05,-1.79166e-05,-0.000199939,0.0251703,-0.0016136,-0.0802429,3.7525e-05,-0.00484295
4.14294e-07,-8.56246e-09,1.85919e-06,-7.76924e-08,-1.10702e-06,3.34726e-05,1.21519e-10,-5.72028e-14,-2.52418e-08,3.65451e-11,-6.08432e-08,-1.84651e-09,-8.32035e-08,-3.35067e-08,-2.77759e-10,-1.77988e-06,7.86625e-09,-5.61382e-09,3.03966e-10,-2.14675e-09,1.25168e-09,7.39365e-10,-4.30064e-06,1.42567e-08,-2.46867e-05,-2.99639e-10,8.74793e-07
-0.000636631,-7.05339e-05,0.00267047,0.000268279,1.41407,-3.58676,-3.72156e-07,-8.55181e-08,-0.000402719,-6.08432e-08,0.0127409,-1.71134e-05,0.000192724,-0.000328931,6.32094e-07,0.00519475,5.75116e-05,-0.000277028,1.48945e-05,-0.000879834,6.3416e-05,1.83368e-05,-0.0474808,0.000192727,2.64921,-3.73878e-06,0.00498806
2.66768e-05,4.54807e-06,0.000165049,-1.90637e-06,-0.00393535,0.00148493,-1.32908e-07,-3.59516e-09,0.000170391,-1.84651e-09,-1.71134e-05,7.66241e-06,-4.51058e-05,0.000155078,3.03455e-08,8.38325e-07,-2.93427e-05,4.60302e-06,-2.45568e-07,3.44168e-06,-9.89057e-07,-8.88139e-06,0.00135747,-7.21503e-05,-0.00108666,1.67618e-06,-0.000263953
-0.00124143,-0.000239134,-0.0385712,0.000147174,0.00596941,-0.120705,-1.05461e-07,7.778e-08,-0.00104146,-8.32035e-08,0.000192724,-4.51058e-05,0.00379072,-0.000585982,7.23149e-07,0.00237828,0.00010916,-1.01677e-05,6.03632e-07,-2.14498e-06,2.159e-06,5.52006e-05,-0.00180456,0.00043248,0.0890806,-1.03445e-05,0.000261927
0.000583408,0.000110157,-4.1933e-05,-4.20637e-05,-0.0535161,0.0913382,-2.91339e-06,-8.35908e-08,0.00348198,-3.35067e-08,-0.000328931,0.000155078,-0.000585982,0.00320916,6.113e-07,-0.00111642,-0.000605695,7.41567e-05,-3.94005e-06,4.9263e-05,-1.57821e-05,-0.000181882,0.0230331,-0.00146844,-0.0670747,3.41308e-05,-0.00444609
-4.26193e-06,-1.56193e-07,-1.5907e-05,3.07165e-07,-3.65816e-05,-0.000426221,-2.86478e-09,5.59128e-12,5.51239e-07,-2.77759e-10,6.32094e-07,3.03455e-08,7.23149e-07,6.113e-07,3.32017e-09,1.63265e-05,-1.2935e-07,5.47483e-08,-2.86619e-09,4.62925e-08,-1.18138e-08,-2.36225e-08,3.36882e-05,-2.60272e-07,0.000314254,5.94449e-09,-6.96291e-06
-0.0280762,-0.000865609,-0.0731696,0.0030393,-0.542733,-4.24879,2.04406e-06,2.91689e-07,-0.0014249,-1.77988e-06,0.00519475,8.38325e-07,0.00237828,-0.00111642,1.63265e-05,0.159184,6.64966e-05,0.000536826,-2.87312e-05,0.000552023,-0.000119218,0.000108232,0.31722,0.000295956,3.12928,-4.56637e-06,-0.0653845
-9.42791e-05,-2.01054e-05,4.73159e-05,5.79188e-06,0.010916,-0.0126146,5.46578e-07,1.55088e-08,-0.0006571,7.86625e-09,5.75116e-05,-2.93427e-05,0.00010916,-0.000605695,-1.2935e-07,6.64966e-05,0.000114494,-1.46978e-05,7.81391e-07,-1.00284e-05,3.13401e-06,3.42938e-05,-0.00463246,0.000277484,0.00925141,-6.45222e-06,0.000898302
-9.31074e-05,-1.97617e-05,-0.00033923,5.64781e-06,-0.0694935,-0.0278564,3.30945e-08,1.07767e-08,8.39658e-05,-5.61382e-09,-0.000277028,4.60302e-06,-1.01677e-05,7.41567e-05,5.47483e-08,0.000536826,-1.46978e-05,3.44221e-05,-1.85714e-06,4.64552e-05,-7.63073e-06,-3.96757e-06,0.0041198,-3.93928e-05,0.0206281,8.03822e-07,-0.000754132
4.9168e-06,9.06813e-07,1.7652e-05,-3.37121e-07,0.00373497,0.0014932,-1.90271e-09,-5.62534e-10,-4.47777e-06,3.03966e-10,1.48945e-05,-2.45568e-07,6.03632e-07,-3.94005e-06,-2.86619e-09,-2.87312e-05,7.81391e-07,-1.85714e-06,1.00299e-07,-2.49276e-06,4.11701e-07,2.11238e-07,-0.000219017,2.10091e-06,-0.0011058,-4.28003e-08,4.00424e-05
-0.000112102,-2.16988e-05,-0.000574457,-9.10395e-06,-0.173238,0.0728383,8.56781e-08,1.36744e-08,5.72937e-05,-2.14675e-09,-0.000879834,3.44168e-06,-2.14498e-06,4.9263e-05,4.62925e-08,0.000552023,-1.00284e-05,4.64552e-05,-2.49276e-06,0.000112073,-1.04696e-05,-2.46462e-06,0.00588816,-2.91402e-05,-0.0536755,5.1447e-07,-0.000933074
2.04543e-05,3.81817e-06,8.0926e-05,-1.41262e-06,0.0156923,0.00566413,-7.93577e-09,-2.57374e-09,-1.79166e-05,1.25168e-09,6.3416e-05,-9.89057e-07,2.159e-06,-1.57821e-05,-1.18138e-08,-0.000119218,3.13401e-06,-7.63073e-06,4.11701e-07,-1.04696e-05,1.69584e-06,8.41483e-07,-0.000937469,8.44316e-06,-0.00419663,-1.70753e-07,0.000171224
-4.89722e-05,-7.25788e-06,-0.000259703,4.10342e-06,0.00263734,-0.00603443,1.5841e-07,5.00605e-09,-0.000199939,7.39365e-10,1.83368e-05,-8.88139e-06,5.52006e-05,-0.000181882,-2.36225e-08,0.000108232,3.42938e-05,-3.96757e-06,2.11238e-07,-2.46462e-06,8.41483e-07,1.04661e-05,-0.00118903,8.41991e-05,0.00443577,-1.96071e-06,0.000228775
-0.0505274,-0.00436187,-0.216247,0.00665386,-7.93763,6.71691,-1.54105e-05,3.07546e-06,0.0251703,-4.30064e-06,-0.0474808,0.00135747,-0.00180456,0.0230331,3.36882e-05,0.31722,-0.00463246,0.0041198,-0.000219017,0.00588816,-0.000937469,-0.00118903,1.73397,-0.0118677,-4.97731,0.000264412,-0.32765
-0.000287141,-5.20018e-05,-0.00163513,2.10622e-05,0.0338269,-0.0416049,1.26999e-06,3.65162e-08,-0.0016136,1.42567e-08,0.000192727,-7.21503e-05,0.00043248,-0.00146844,-2.60272e-07,0.000295956,0.000277484,-3.93928e-05,2.10091e-06,-2.91402e-05,8.44316e-06,8.41991e-05,-0.0118677,0.000681848,0.0305751,-1.58465e-05,0.00228578
-0.497606,-0.0923694,-0.257276,0.0754312,100.835,-1234.92,0.000162903,8.32317e-06,-0.0802429,-2.46867e-05,2.64921,-0.00108666,0.0890806,-0.0670747,0.000314254,3.12928,0.00925141,0.0206281,-0.0011058,-0.0536755,-0.00419663,0.00443577,-4.97731,0.0305751,912.454,-0.000840248,-0.118179
7.09632e-06,1.17792e-06,4.46574e-05,-7.32185e-07,-0.000547114,0.00113958,-2.9516e-08,-9.09017e-10,3.7525e-05,-2.99639e-10,-3.73878e-06,1.67618e-06,-1.03445e-05,3.41308e-05,5.94449e-09,-4.56637e-06,-6.45222e-06,8.03822e-07,-4.28003e-08,5.1447e-07,-1.70753e-07,-1.96071e-06,0.000264412,-1.58465e-05,-0.000840248,3.70055e-07,-5.09689e-05
0.0103531,0.000944818,0.0419818,-0.00141593,1.16367,0.16411,3.06693e-06,-5.84667e-07,-0.00484295,8.74793e-07,0.00498806,-0.000263953,0.000261927,-0.00444609,-6.96291e-06,-0.0653845,0.000898302,-0.000754132,4.00424e-05,-0.000933074,0.000171224,0.000228775,-0.32765,0.00228578,-0.118179,-5.09689e-05,0.0634696
