0.929214,0.000985277,0.00198846,-0.0110335,-0.00106465,-0.000360703,0.000884465,8.27453e-10,5.09365e-09,-8.47481e-08,-5.04836e-10,-6.81032e-10,4.26915e-09,-7.38554e-13,6.92819e-12,6.58749e-14,-1.4198e-14,7.50429e-23,-8.564e-22,-4.9734e-24,4.23145e-23,-2.00447e-21,-1.7396e-21,6.67561e-21,-5.03333e-19,3.69833e-22,1.03308e-24
0.000985277,3.01061e-06,6.07593e-06,-3.37139e-05,-3.25314e-06,-1.10217e-06,2.70257e-06,2.52836e-12,1.55642e-11,-2.58956e-10,-1.54258e-12,-2.08096e-12,1.30448e-11,-2.25672e-15,2.11698e-14,2.01287e-16,-4.33833e-17,2.29301e-25,-2.61682e-24,-1.51967e-26,1.29296e-25,-6.12485e-24,-5.31552e-24,2.0398e-23,-1.53798e-21,1.13006e-24,3.15669e-27
0.00198846,6.07593e-06,0.000209515,-0.00116255,-0.000112177,-3.80057e-05,9.3192e-05,8.71849e-11,5.36694e-10,-8.92952e-09,-5.31923e-11,-7.17572e-11,4.49821e-10,-7.7818e-14,7.29992e-13,6.94094e-15,-1.49597e-15,7.90693e-24,-9.02349e-23,-5.24025e-25,4.45848e-24,-2.11202e-22,-1.83294e-22,7.03378e-22,-5.30339e-20,3.89676e-23,1.08851e-25
-0.0110335,-3.37139e-05,-0.00116255,0.0102956,0.000993449,0.000336581,-0.000825315,-7.72116e-10,-4.75301e-09,7.90805e-08,4.71075e-10,6.35488e-10,-3.98365e-09,6.89162e-13,-6.46486e-12,-6.14695e-14,1.32485e-14,-7.00243e-23,7.99127e-22,4.6408e-24,-3.94846e-23,1.87042e-21,1.62326e-21,-6.22917e-21,4.69672e-19,-3.451e-22,-9.63996e-25
-0.00106465,-3.25314e-06,-0.000112177,0.000993449,0.00017605,5.96457e-05,-0.000146255,-1.36827e-10,-8.42282e-10,1.40139e-08,8.34794e-11,1.12615e-10,-7.05944e-10,1.22127e-13,-1.14564e-12,-1.0893e-14,2.34777e-15,-1.2409e-23,1.41614e-22,8.22399e-25,-6.99709e-24,3.31457e-22,2.87659e-22,-1.10387e-21,8.32308e-20,-6.11554e-23,-1.7083e-25
-0.000360703,-1.10217e-06,-3.80057e-05,0.000336581,5.96457e-05,0.000813145,-0.00199388,-1.86535e-09,-1.14828e-08,1.9105e-07,1.13807e-09,1.53527e-09,-9.62409e-09,1.66495e-12,-1.56185e-11,-1.48504e-13,3.20069e-14,-1.69172e-22,1.93061e-21,1.12117e-23,-9.53909e-23,4.51874e-21,3.92164e-21,-1.5049e-20,1.13468e-18,-8.33727e-22,-2.32892e-24
0.000884465,2.70257e-06,9.3192e-05,-0.000825315,-0.000146255,-0.00199388,0.0188418,1.76273e-08,1.0851e-07,-1.8054e-06,-1.07546e-08,-1.45081e-08,9.09461e-08,-1.57335e-11,1.47592e-10,1.40334e-12,-3.02461e-13,1.59865e-21,-1.8244e-20,-1.05949e-22,9.01429e-22,-4.27014e-20,-3.70589e-20,1.42211e-19,-1.07226e-17,7.87859e-21,2.20079e-23
8.27453e-10,2.52836e-12,8.71849e-11,-7.72116e-10,-1.36827e-10,-1.86535e-09,1.76273e-08,1.37156e-13,8.44309e-13,-1.40476e-11,-8.36803e-14,-1.12886e-13,7.07643e-13,-1.22421e-16,1.1484e-15,1.09192e-17,-2.35342e-18,1.24389e-26,-1.41954e-25,-8.24378e-28,7.01393e-27,-3.32255e-25,-2.88351e-25,1.10653e-24,-8.34311e-23,6.13025e-26,1.71241e-28
5.09365e-09,1.55642e-11,5.36694e-10,-4.75301e-09,-8.42282e-10,-1.14828e-08,1.0851e-07,8.44309e-13,3.86098e-10,-6.4239e-09,-3.82666e-11,-5.16222e-11,3.23601e-10,-5.59823e-14,5.25157e-13,4.99332e-15,-1.07621e-15,5.68825e-24,-6.49151e-23,-3.76984e-25,3.20743e-24,-1.51939e-22,-1.31862e-22,5.06011e-22,-3.81526e-20,2.80333e-23,7.83078e-26
-8.47481e-08,-2.58956e-10,-8.92952e-09,7.90805e-08,1.40139e-08,1.9105e-07,-1.8054e-06,-1.40476e-11,-6.4239e-09,3.56418e-07,2.12315e-09,2.86416e-09,-1.79544e-08,3.10607e-12,-2.91373e-11,-2.77045e-13,5.97112e-14,-3.15602e-22,3.60169e-21,2.09162e-23,-1.77958e-22,8.43002e-21,7.31609e-21,-2.8075e-20,2.11683e-18,-1.55538e-21,-4.34476e-24
-5.04836e-10,-1.54258e-12,-5.31923e-11,4.71075e-10,8.34794e-11,1.13807e-09,-1.07546e-08,-8.36803e-14,-3.82666e-11,2.12315e-09,5.22306e-10,7.04599e-10,-4.41688e-09,7.64111e-13,-7.16794e-12,-6.81545e-14,1.46893e-14,-7.76397e-23,8.86035e-22,5.14551e-24,-4.37787e-23,2.07383e-21,1.7998e-21,-6.90661e-21,5.20751e-19,-3.82631e-22,-1.06883e-24
-6.81032e-10,-2.08096e-12,-7.17572e-11,6.35488e-10,1.12615e-10,1.53527e-09,-1.45081e-08,-1.12886e-13,-5.16222e-11,2.86416e-09,7.04599e-10,7.54574e-08,-4.73016e-07,8.18307e-11,-7.67634e-10,-7.29885e-12,1.57311e-12,-8.31464e-21,9.48879e-20,5.51046e-22,-4.68838e-21,2.22092e-19,1.92745e-19,-7.39648e-19,5.57686e-17,-4.0977e-20,-1.14464e-22
4.26915e-09,1.30448e-11,4.49821e-10,-3.98365e-09,-7.05944e-10,-9.62409e-09,9.09461e-08,7.07643e-13,3.23601e-10,-1.79544e-08,-4.41688e-09,-4.73016e-07,3.5522e-06,-6.14522e-10,5.76469e-09,5.4812e-11,-1.18136e-11,6.24404e-20,-7.12578e-19,-4.13818e-21,3.52083e-20,-1.66784e-18,-1.44746e-18,5.55452e-18,-4.18804e-16,3.07724e-19,8.59591e-22
-7.38554e-13,-2.25672e-15,-7.7818e-14,6.89162e-13,1.22127e-13,1.66495e-12,-1.57335e-11,-1.22421e-16,-5.59823e-14,3.10607e-12,7.64111e-13,8.18307e-11,-6.14522e-10,2.70345e-10,-2.53604e-09,-2.41133e-11,5.19712e-12,-2.74692e-20,3.13482e-19,1.8205e-21,-1.54891e-20,7.33729e-19,6.36775e-19,-2.44358e-18,1.84243e-16,-1.35376e-19,-3.78157e-22
6.92819e-12,2.11698e-14,7.29992e-13,-6.46486e-12,-1.14564e-12,-1.56185e-11,1.47592e-10,1.1484e-15,5.25157e-13,-2.91373e-11,-7.16794e-12,-7.67634e-10,5.76469e-09,-2.53604e-09,2.44955e-08,2.32909e-10,-5.01988e-11,2.65324e-19,-3.02791e-18,-1.75841e-20,1.49608e-19,-7.08706e-18,-6.15058e-18,2.36025e-17,-1.7796e-15,1.30759e-18,3.65261e-21
6.58749e-14,2.01287e-16,6.94094e-15,-6.14695e-14,-1.0893e-14,-1.48504e-13,1.40334e-12,1.09192e-17,4.99332e-15,-2.77045e-13,-6.81545e-14,-7.29885e-12,5.4812e-11,-2.41133e-11,2.32909e-10,8.8063e-10,-1.89801e-10,1.00319e-18,-1.14485e-17,-6.64855e-20,5.65669e-19,-2.67962e-17,-2.32553e-17,8.9241e-17,-6.72866e-15,4.94401e-18,1.38105e-20
-1.4198e-14,-4.33833e-17,-1.49597e-15,1.32485e-14,2.34777e-15,3.20069e-14,-3.02461e-13,-2.35342e-18,-1.07621e-15,5.97112e-14,1.46893e-14,1.57311e-12,-1.18136e-11,5.19712e-12,-5.01988e-11,-1.89801e-10,4.10139e-10,-2.16778e-18,2.47389e-17,1.43667e-19,-1.22234e-18,5.79034e-17,5.02521e-17,-1.92839e-16,1.45399e-14,-1.06834e-17,-2.98429e-20
7.50429e-23,2.29301e-25,7.90693e-24,-7.00243e-23,-1.2409e-23,-1.69172e-22,1.59865e-21,1.24389e-26,5.68825e-24,-3.15602e-22,-7.76397e-23,-8.31464e-21,6.24404e-20,-2.74692e-20,2.65324e-19,1.00319e-18,-2.16778e-18,6.40587e-21,-7.31047e-20,-4.24544e-22,3.61208e-21,-1.71107e-19,-1.48497e-19,5.69848e-19,-4.29659e-17,3.157e-20,8.8187e-23
-8.564e-22,-2.61682e-24,-9.02349e-23,7.99127e-22,1.41614e-22,1.93061e-21,-1.8244e-20,-1.41954e-25,-6.49151e-23,3.60169e-21,8.86035e-22,9.48879e-20,-7.12578e-19,3.13482e-19,-3.02791e-18,-1.14485e-17,2.47389e-17,-7.31047e-20,8.76045e-19,5.08749e-21,-4.32852e-20,2.05045e-18,1.77951e-18,-6.82875e-18,5.1488e-16,-3.78317e-19,-1.05678e-21
-4.9734e-24,-1.51967e-26,-5.24025e-25,4.6408e-24,8.22399e-25,1.12117e-23,-1.05949e-22,-8.24378e-28,-3.76984e-25,2.09162e-23,5.14551e-24,5.51046e-22,-4.13818e-21,1.8205e-21,-1.75841e-20,-6.64855e-20,1.43667e-19,-4.24544e-22,5.08749e-21,1.68284e-21,-1.43178e-20,6.78246e-19,5.88623e-19,-2.25881e-18,1.70311e-16,-1.25139e-19,-3.49562e-22
4.23145e-23,1.29296e-25,4.45848e-24,-3.94846e-23,-6.99709e-24,-9.53909e-23,9.01429e-22,7.01393e-27,3.20743e-24,-1.77958e-22,-4.37787e-23,-4.68838e-21,3.52083e-20,-1.54891e-20,1.49608e-19,5.65669e-19,-1.22234e-18,3.61208e-21,-4.32852e-20,-1.43178e-20,1.4637e-19,-6.93368e-18,-6.01747e-18,2.30917e-17,-1.74109e-15,1.27929e-18,3.57356e-21
-2.00447e-21,-6.12485e-24,-2.11202e-22,1.87042e-21,3.31457e-22,4.51874e-21,-4.27014e-20,-3.32255e-25,-1.51939e-22,8.43002e-21,2.07383e-21,2.22092e-19,-1.66784e-18,7.33729e-19,-7.08706e-18,-2.67962e-17,5.79034e-17,-1.71107e-19,2.05045e-18,6.78246e-19,-6.93368e-18,3.57804e-16,3.10524e-16,-1.19162e-15,8.98465e-14,-6.60163e-17,-1.84409e-19
-1.7396e-21,-5.31552e-24,-1.83294e-22,1.62326e-21,2.87659e-22,3.92164e-21,-3.70589e-20,-2.88351e-25,-1.31862e-22,7.31609e-21,1.7998e-21,1.92745e-19,-1.44746e-18,6.36775e-19,-6.15058e-18,-2.32553e-17,5.02521e-17,-1.48497e-19,1.77951e-18,5.88623e-19,-6.01747e-18,3.10524e-16,4.97886e-16,-1.91061e-15,1.44058e-13,-1.05849e-16,-2.95676e-19
6.67561e-21,2.0398e-23,7.03378e-22,-6.22917e-21,-1.10387e-21,-1.5049e-20,1.42211e-19,1.10653e-24,5.06011e-22,-2.8075e-20,-6.90661e-21,-7.39648e-19,5.55452e-18,-2.44358e-18,2.36025e-17,8.9241e-17,-1.92839e-16,5.69848e-19,-6.82875e-18,-2.25881e-18,2.30917e-17,-1.19162e-15,-1.91061e-15,7.37843e-15,-5.56325e-13,4.0877e-16,1.14185e-18
-5.03333e-19,-1.53798e-21,-5.30339e-20,4.69672e-19,8.32308e-20,1.13468e-18,-1.07226e-17,-8.34311e-23,-3.81526e-20,2.11683e-18,5.20751e-19,5.57686e-17,-4.18804e-16,1.84243e-16,-1.7796e-15,-6.72866e-15,1.45399e-14,-4.29659e-17,5.1488e-16,1.70311e-16,-1.74109e-15,8.98465e-14,1.44058e-13,-5.56325e-13,4.19682e-11,-3.08369e-14,-8.61392e-17
3.69833e-22,1.13006e-24,3.89676e-23,-3.451e-22,-6.11554e-23,-8.33727e-22,7.87859e-21,6.13025e-26,2.80333e-23,-1.55538e-21,-3.82631e-22,-4.0977e-20,3.07724e-19,-1.35376e-19,1.30759e-18,4.94401e-18,-1.06834e-17,3.157e-20,-3.78317e-19,-1.25139e-19,1.27929e-18,-6.60163e-17,-1.05849e-16,4.0877e-16,-3.08369e-14,2.95315e-14,8.24928e-17
1.03308e-24,3.15669e-27,1.08851e-25,-9.63996e-25,-1.7083e-25,-2.32892e-24,2.20079e-23,1.71241e-28,7.83078e-26,-4.34476e-24,-1.06883e-24,-1.14464e-22,8.59591e-22,-3.78157e-22,3.65261e-21,1.38105e-20,-2.98429e-20,8.8187e-23,-1.05678e-21,-3.49562e-22,3.57356e-21,-1.84409e-19,-2.95676e-19,1.14185e-18,-8.61392e-17,8.24928e-17,6.17398e-17
