5.25441e+14,-4.76999e+14,4.53509e+14,-3.49933e+14,3.4822e+14,-3.32421e+14,1.65328e+12,-4.77714e+11,4.76115e+11,-1.56931e+10,1.56164e+10,-6.75702e+09,6.75691e+09,-4.74278e+09,2.31727e+09,-2.31417e+09,1.17443e+06,-1.14153e+06,1.1243e+06,-1.12354e+06,283497,-281185,280371,-81170.2,81153.4,-17.1998,17.1361
-4.76999e+14,4.33023e+14,-4.11698e+14,3.17671e+14,-3.16117e+14,3.01774e+14,-1.50086e+12,4.33672e+11,-4.32221e+11,1.42463e+10,-1.41767e+10,6.13407e+09,-6.13397e+09,4.30553e+09,-2.10363e+09,2.10082e+09,-1.06616e+06,1.03629e+06,-1.02064e+06,1.01996e+06,-257360,255262,-254523,73686.9,-73671.6,15.6141,-15.5563
4.53509e+14,-4.11698e+14,3.91424e+14,-3.02028e+14,3.00549e+14,-2.86913e+14,1.42695e+12,-4.12316e+11,4.10936e+11,-1.35447e+10,1.34785e+10,-5.83199e+09,5.8319e+09,-4.0935e+09,2.00004e+09,-1.99736e+09,1.01365e+06,-985255,970383,-969729,244686,-242692,241989,-70058.2,70043.6,-14.8452,14.7902
-3.49933e+14,3.17671e+14,-3.02028e+14,2.33048e+14,-2.31908e+14,2.21386e+14,-1.10105e+12,3.18148e+11,-3.17083e+11,1.04513e+10,-1.04002e+10,4.50004e+09,-4.49997e+09,3.15859e+09,-1.54325e+09,1.54119e+09,-782147,760235,-748759,748255,-188803,187264,-186721,54057.7,-54046.5,11.4547,-11.4123
3.4822e+14,-3.16117e+14,3.00549e+14,-2.31908e+14,2.30773e+14,-2.20302e+14,1.09566e+12,-3.16591e+11,3.15531e+11,-1.04001e+10,1.03493e+10,-4.47801e+09,4.47794e+09,-3.14313e+09,1.5357e+09,-1.53365e+09,778319,-756514,745095,-744593,187879,-186347,185808,-53793.2,53782,-11.3987,11.3565
-3.32421e+14,3.01774e+14,-2.86913e+14,2.21386e+14,-2.20302e+14,2.10307e+14,-1.04595e+12,3.02227e+11,-3.01215e+11,9.92827e+09,-9.87973e+09,4.27484e+09,-4.27477e+09,3.00053e+09,-1.46602e+09,1.46406e+09,-743006,722190,-711289,710810,-179355,177892,-177377,51352.5,-51341.8,10.8815,-10.8412
1.65328e+12,-1.50086e+12,1.42695e+12,-1.10105e+12,1.09566e+12,-1.04595e+12,5.20198e+09,-1.50311e+09,1.49808e+09,-4.93778e+07,4.91364e+07,-2.12607e+07,2.12604e+07,-1.4923e+07,7.2912e+06,-7.28145e+06,3695.3,-3591.78,3537.56,-3535.18,892.012,-884.74,882.177,-255.399,255.346,-0.0541186,0.0539182
-4.77714e+11,4.33672e+11,-4.12316e+11,3.18148e+11,-3.16591e+11,3.02227e+11,-1.50311e+09,4.34323e+08,-4.32869e+08,1.42677e+07,-1.41979e+07,6.14327e+06,-6.14318e+06,4.31199e+06,-2.10679e+06,2.10397e+06,-1067.76,1037.84,-1022.18,1021.49,-257.747,255.645,-254.905,73.7975,-73.7822,0.0156375,-0.0155797
4.76115e+11,-4.32221e+11,4.10936e+11,-3.17083e+11,3.15531e+11,-3.01215e+11,1.49808e+09,-4.32869e+08,4.3142e+08,-1.42199e+07,1.41504e+07,-6.1227e+06,6.12261e+06,-4.29755e+06,2.09974e+06,-2.09693e+06,1064.18,-1034.37,1018.75,-1018.07,256.884,-254.789,254.051,-73.5504,73.5351,-0.0155852,0.0155275
-1.56931e+10,1.42463e+10,-1.35447e+10,1.04513e+10,-1.04001e+10,9.92827e+09,-4.93778e+07,1.42677e+07,-1.42199e+07,468699,-466408,201809,-201806,141650,-69208.9,69116.3,-35.0762,34.0935,-33.5789,33.5563,-8.46707,8.39804,-8.37372,2.42428,-2.42377,0.000513699,-0.000511798
1.56164e+10,-1.41767e+10,1.34785e+10,-1.04002e+10,1.03493e+10,-9.87973e+09,4.91364e+07,-1.41979e+07,1.41504e+07,-466408,464127,-200822,200819,-140958,68870.5,-68778.4,34.9047,-33.9268,33.4147,-33.3922,8.42568,-8.35699,8.33278,-2.41242,2.41192,-0.000511188,0.000509295
-6.75702e+09,6.13407e+09,-5.83199e+09,4.50004e+09,-4.47801e+09,4.27484e+09,-2.12607e+07,6.14327e+06,-6.1227e+06,201809,-200822,86893.3,-86892,60990.8,-29799.4,29759.6,-15.1028,14.6797,-14.4581,14.4484,-3.64569,3.61597,-3.60549,1.04383,-1.04361,0.000221185,-0.000220366
6.75691e+09,-6.13397e+09,5.8319e+09,-4.49997e+09,4.47794e+09,-4.27477e+09,2.12604e+07,-6.14318e+06,6.12261e+06,-201806,200819,-86892,86890.6,-60989.8,29799,-29759.1,15.1026,-14.6795,14.4579,-14.4482,3.64563,-3.61591,3.60544,-1.04381,1.04359,-0.000221181,0.000220362
-4.74278e+09,4.30553e+09,-4.0935e+09,3.15859e+09,-3.14313e+09,3.00053e+09,-1.4923e+07,4.31199e+06,-4.29755e+06,141650,-140958,60990.8,-60989.8,42809.7,-20916.3,20888.3,-10.6007,10.3038,-10.1482,10.1414,-2.55892,2.53806,-2.53071,0.732666,-0.732514,0.00015525,-0.000154676
2.31727e+09,-2.10363e+09,2.00004e+09,-1.54325e+09,1.5357e+09,-1.46602e+09,7.2912e+06,-2.10679e+06,2.09974e+06,-69208.9,68870.5,-29799.4,29799,-20916.3,10219.5,-10205.8,5.17941,-5.0343,4.95831,-4.95497,1.25026,-1.24007,1.23648,-0.357972,0.357898,-7.58536e-05,7.55729e-05
-2.31417e+09,2.10082e+09,-1.99736e+09,1.54119e+09,-1.53365e+09,1.46406e+09,-7.28145e+06,2.10397e+06,-2.09693e+06,69116.3,-68778.4,29759.6,-29759.1,20888.3,-10205.8,10192.2,-5.17248,5.02757,-4.95168,4.94835,-1.24859,1.23841,-1.23482,0.357494,-0.357419,7.57522e-05,-7.54717e-05
1.17443e+06,-1.06616e+06,1.01365e+06,-782147,778319,-743006,3695.3,-1067.76,1064.18,-35.0762,34.9047,-15.1028,15.1026,-10.6007,5.17941,-5.17248,0.00262501,-0.00255147,0.00251296,-0.00251126,0.000633654,-0.000628488,0.000626667,-0.000181426,0.000181389,-3.84439e-08,3.83016e-08
-1.14153e+06,1.03629e+06,-985255,760235,-756514,722190,-3591.78,1037.84,-1034.37,34.0935,-33.9268,14.6797,-14.6795,10.3038,-5.0343,5.02757,-0.00255147,0.00247999,-0.00244255,0.00244091,-0.000615901,0.00061088,-0.000609111,0.000176344,-0.000176307,3.73669e-08,-3.72286e-08
1.1243e+06,-1.02064e+06,970383,-748759,745095,-711289,3537.56,-1022.18,1018.75,-33.5789,33.4147,-14.4581,14.4579,-10.1482,4.95831,-4.95168,0.00251296,-0.00244255,0.00240568,-0.00240406,0.000606604,-0.000601659,0.000599916,-0.000173682,0.000173646,-3.68028e-08,3.66666e-08
-1.12354e+06,1.01996e+06,-969729,748255,-744593,710810,-3535.18,1021.49,-1018.07,33.5563,-33.3922,14.4484,-14.4482,10.1414,-4.95497,4.94835,-0.00251126,0.00244091,-0.00240406,0.00240245,-0.000606196,0.000601254,-0.000599512,0.000173565,-0.000173529,3.67781e-08,-3.66419e-08
283497,-257360,244686,-188803,187879,-179355,892.012,-257.747,256.884,-8.46707,8.42568,-3.64569,3.64563,-2.55892,1.25026,-1.24859,0.000633654,-0.000615901,0.000606604,-0.000606196,0.000152958,-0.000151711,0.000151272,-4.37947e-05,4.37856e-05,-9.28e-09,9.24565e-09
-281185,255262,-242692,187264,-186347,177892,-884.74,255.645,-254.789,8.39804,-8.35699,3.61597,-3.61591,2.53806,-1.24007,1.23841,-0.000628488,0.00061088,-0.000601659,0.000601254,-0.000151711,0.000150474,-0.000150038,4.34376e-05,-4.34286e-05,9.20435e-09,-9.17027e-09
280371,-254523,241989,-186721,185808,-177377,882.177,-254.905,254.051,-8.37372,8.33278,-3.60549,3.60544,-2.53071,1.23648,-1.23482,0.000626667,-0.000609111,0.000599916,-0.000599512,0.000151272,-0.000150038,0.000149604,-4.33118e-05,4.33028e-05,-9.17769e-09,9.14371e-09
-81170.2,73686.9,-70058.2,54057.7,-53793.2,51352.5,-255.399,73.7975,-73.5504,2.42428,-2.41242,1.04383,-1.04381,0.732666,-0.357972,0.357494,-0.000181426,0.000176344,-0.000173682,0.000173565,-4.37947e-05,4.34376e-05,-4.33118e-05,1.25392e-05,-1.25366e-05,2.65704e-09,-2.6472e-09
81153.4,-73671.6,70043.6,-54046.5,53782,-51341.8,255.346,-73.7822,73.5351,-2.42377,2.41192,-1.04361,1.04359,-0.732514,0.357898,-0.357419,0.000181389,-0.000176307,0.000173646,-0.000173529,4.37856e-05,-4.34286e-05,4.33028e-05,-1.25366e-05,1.2534e-05,-2.65648e-09,2.64665e-09
-17.1998,15.6141,-14.8452,11.4547,-11.3987,10.8815,-0.0541186,0.0156375,-0.0155852,0.000513699,-0.000511188,0.000221185,-0.000221181,0.00015525,-7.58536e-05,7.57522e-05,-3.84439e-08,3.73669e-08,-3.68028e-08,3.67781e-08,-9.28e-09,9.20435e-09,-9.17769e-09,2.65704e-09,-2.65648e-09,5.63094e-13,-5.6101e-13
17.1361,-15.5563,14.7902,-11.4123,11.3565,-10.8412,0.0539182,-0.0155797,0.0155275,-0.000511798,0.000509295,-0.000220366,0.000220362,-0.000154676,7.55729e-05,-7.54717e-05,3.83016e-08,-3.72286e-08,3.66666e-08,-3.66419e-08,9.24565e-09,-9.17027e-09,9.14371e-09,-2.6472e-09,2.64665e-09,-5.6101e-13,5.58933e-13
