2667.36,2.15937,-21415.2,413.925,0.46426,441.605,1408.36,-0.00015683,-2.71923,-9.64377,0.00032849,-10.3454,2018.61,85.944,-170.483,-0.339361,-184.825,0.0689752,-0.138051,-0.000155925,-0.148444,10.2792,0.0143647,10.6836,-0.310358,-20.0312,-0.0292363
2.15937,0.00267233,-17.3981,0.167259,-0.000234241,0.182767,1.14725,-1.87169e-07,0.000667861,0.00520999,2.02821e-07,0.00543297,1.64742,0.0617984,-0.121331,-0.000156518,-0.132532,8.47071e-05,-0.000173295,-2.5095e-07,-0.000183327,-0.00390305,-2.74685e-05,-0.00393966,-6.55873e-05,0.010617,6.21308e-05
-21415.2,-17.3981,582322,171.409,17.3615,-238.381,-40091.3,0.00370359,-1.01958,-15.0516,-0.00471099,-11.2217,-55433,-247.722,181.61,-5.79946,425.073,-0.193175,0.164758,-0.00721293,0.320841,10.545,0.174581,7.57754,8.3125,-25.1855,-0.259243
413.925,0.167259,171.409,623.839,1.58339,635.26,-39.7776,1.07878e-05,-5.98869,-27.394,-0.00037617,-28.8108,-44.01,19.5939,-42.3577,-0.113077,-43.2522,0.00952,-0.0208019,-6.1031e-05,-0.0212076,25.6152,0.0586765,26.2712,0.111201,-56.1579,-0.127681
0.46426,-0.000234241,17.3615,1.58339,0.0678673,1.13441,-1.19753,1.85689e-07,-0.00571501,-0.0473245,-2.31522e-05,-0.025149,-1.71032,0.0123823,-0.0524938,-0.00556033,-0.0333767,-1.1736e-05,6.12741e-06,-3.91531e-06,1.9513e-05,0.034256,0.00223681,0.0240201,0.00683862,-0.0716659,-0.00484311
441.605,0.182767,-238.38,635.26,1.13441,656.766,-13.4135,8.10918e-06,-6.18832,-28.0224,0.000120741,-29.8243,-5.71587,20.4412,-43.7148,-0.101982,-45.0014,0.00998676,-0.0213996,-4.54396e-05,-0.0221493,26.3399,0.0504125,27.171,-0.169075,-57.8321,-0.110977
1408.36,1.14725,-40091.3,-39.7776,-1.19753,-13.4135,2765.56,-0.000251533,0.321043,2.08317,0.000303116,1.91332,3817.73,14.3853,-7.03416,0.403136,-23.5252,0.0112604,-0.00729088,0.000493517,-0.0177267,-1.75084,-0.0127737,-1.59168,-0.541667,3.92328,0.019597
-0.00015683,-1.87169e-07,0.00370359,1.07878e-05,1.85689e-07,8.10918e-06,-0.000251533,5.22537e-11,-5.13781e-08,-2.60698e-07,-6.81209e-12,-2.37847e-07,-0.000352929,1.2563e-07,-2.67356e-06,-8.557e-08,-1.12449e-06,7.60433e-11,-2.24059e-09,-8.92656e-11,-1.28089e-09,2.41431e-07,1.21116e-09,2.22872e-07,6.14031e-08,-4.92962e-07,-1.2863e-09
-2.71923,0.000667861,-1.01958,-5.98869,-0.00571501,-6.18832,0.321043,-5.13781e-08,0.0651513,0.29552,-7.94934e-07,0.314738,0.364684,-0.137761,0.296118,0.000531279,0.303598,2.03573e-05,-4.20437e-05,1.06494e-07,-4.33521e-05,-0.277534,-0.000276113,-0.286397,0.000998969,0.610033,0.000606308
-9.64377,0.00520999,-15.0516,-27.394,-0.0473245,-28.0224,2.08318,-2.60699e-07,0.29552,1.36422,1.00126e-06,1.42866,2.64583,-0.50639,1.1062,0.00275657,1.11957,0.000190772,-0.00039758,1.07209e-07,-0.000411189,-1.27002,-0.00217997,-1.29955,0.00426429,2.79233,0.00478729
0.00032849,2.02821e-07,-0.00471099,-0.00037617,-2.31522e-05,0.000120741,0.000303116,-6.81209e-12,-7.94934e-07,1.00126e-06,5.70104e-08,-3.24469e-06,0.000458187,2.04916e-05,-3.98714e-05,-1.69476e-07,-4.12184e-05,1.26108e-08,-2.70097e-08,-7.31439e-10,-2.48623e-08,1.81097e-06,-5.08518e-09,3.24383e-06,-2.33685e-05,-6.06517e-06,-1.3602e-07
-10.3454,0.00543297,-11.2217,-28.8108,-0.025149,-29.8243,1.91333,-2.37847e-07,0.314738,1.42866,-3.24469e-06,1.52765,2.35545,-0.538855,1.16328,0.00223371,1.19053,0.00020015,-0.000419338,3.31054e-07,-0.000434279,-1.34122,-0.00121754,-1.38681,0.00420096,2.95493,0.00267479
2018.61,1.64742,-55433,-44.01,-1.71032,-5.71584,3817.73,-0.000352929,0.364683,2.64583,0.000458187,2.35544,5278.08,22.6567,-15.3023,0.557037,-38.4258,0.0179202,-0.014673,0.000689141,-0.0295012,-2.14331,-0.0188254,-1.89522,-0.793217,4.89579,0.0294804
85.944,0.0617984,-247.722,19.5939,0.0123823,20.4412,14.3853,1.2563e-07,-0.137761,-0.50639,2.04916e-05,-0.538855,22.6567,3.7935,-7.93683,-0.00928803,-8.2792,0.00287297,-0.00607984,-6.90085e-06,-0.00632239,0.531034,0.000318797,0.548073,-0.0111714,-1.04704,-0.000671873
-170.483,-0.121331,181.61,-42.3577,-0.0524938,-43.7148,-7.03416,-2.67356e-06,0.296118,1.1062,-3.98714e-05,1.16328,-15.3023,-7.93683,16.8364,0.0261408,17.4,-0.00600017,0.0128831,2.20783e-05,0.013274,-1.15076,-0.00123183,-1.18054,0.015568,2.27271,0.00253113
-0.339361,-0.000156518,-5.79946,-0.113077,-0.00556033,-0.101982,0.403136,-8.557e-08,0.000531279,0.00275657,-1.69476e-07,0.00223371,0.557037,-0.00928803,0.0261408,0.00310926,0.0221414,-6.76262e-06,1.76193e-05,2.0644e-06,1.78381e-05,-0.00246746,-0.000101883,-0.00219035,-0.000351214,0.00500605,0.000181996
-184.825,-0.132532,425.073,-43.2522,-0.0333767,-45.0014,-23.5252,-1.12449e-06,0.303598,1.11957,-4.12184e-05,1.19053,-38.4258,-8.2792,17.4,0.0221414,18.1038,-0.00626514,0.0133188,1.72117e-05,0.0138189,-1.17226,-0.000764723,-1.20931,0.0206402,2.31344,0.00157124
0.0689752,8.47071e-05,-0.193175,0.00952,-1.1736e-05,0.00998676,0.0112604,7.60431e-11,2.03573e-05,0.000190772,1.26108e-08,0.00020015,0.0179202,0.00287297,-0.00600017,-6.76262e-06,-0.00626514,3.9138e-06,-8.29852e-06,-9.91719e-09,-8.60489e-06,-0.000133119,-1.22975e-06,-0.000135737,-2.32614e-06,0.000389602,2.74934e-06
-0.138051,-0.000173295,0.164758,-0.0208019,6.12742e-06,-0.0213996,-0.00729088,-2.24059e-09,-4.20437e-05,-0.000397579,-2.70097e-08,-0.000419338,-0.014673,-0.00607984,0.0128831,1.76193e-05,0.0133188,-8.29852e-06,1.78035e-05,3.03216e-08,1.82956e-05,0.000275768,2.52444e-06,0.000282919,-3.66193e-06,-0.000814916,-5.71368e-06
-0.000155925,-2.5095e-07,-0.00721293,-6.1031e-05,-3.91531e-06,-4.54396e-05,0.000493517,-8.92656e-11,1.06494e-07,1.07209e-07,-7.31439e-10,3.31054e-07,0.000689141,-6.90085e-06,2.20783e-05,2.0644e-06,1.72117e-05,-9.91719e-09,3.03216e-08,2.43937e-09,2.39214e-08,-3.22025e-07,3.52207e-09,-3.90586e-07,-5.78165e-07,4.07438e-07,-3.67943e-08
-0.148444,-0.000183327,0.320841,-0.0212076,1.95131e-05,-0.0221493,-0.0177267,-1.28089e-09,-4.33521e-05,-0.000411189,-2.48623e-08,-0.000434279,-0.0295012,-0.00632239,0.013274,1.78381e-05,0.0138189,-8.60489e-06,1.82956e-05,2.39214e-08,1.89598e-05,0.000285564,2.60161e-06,0.000292618,2.31199e-06,-0.000842906,-5.88146e-06
10.2792,-0.00390305,10.545,25.6152,0.034256,26.3399,-1.75084,2.41431e-07,-0.277534,-1.27002,1.81097e-06,-1.34122,-2.14331,0.531034,-1.15076,-0.00246746,-1.17226,-0.000133119,0.000275768,-3.22025e-07,0.000285564,1.18749,0.00161411,1.22023,-0.00439356,-2.61055,-0.0035457
0.0143647,-2.74685e-05,0.174581,0.0586765,0.00223681,0.0504125,-0.0127737,1.21116e-09,-0.000276113,-0.00217997,-5.08518e-09,-0.00121754,-0.0188254,0.000318797,-0.00123183,-0.000101883,-0.000764723,-1.22975e-06,2.52444e-06,3.52207e-09,2.60161e-06,0.00161411,0.000104567,0.00116149,-0.000255293,-0.00344076,-0.000230453
10.6836,-0.00393966,7.57755,26.2712,0.0240201,27.171,-1.59168,2.22872e-07,-0.286397,-1.29955,3.24383e-06,-1.38681,-1.89522,0.548073,-1.18054,-0.00219035,-1.20931,-0.000135737,0.000282919,-3.90586e-07,0.000292618,1.22023,0.00116149,1.26044,-0.00411727,-2.68524,-0.00255105
-0.310358,-6.55873e-05,8.3125,0.111201,0.00683862,-0.169075,-0.541667,6.14031e-08,0.000998969,0.0042643,-2.33685e-05,0.00420096,-0.793217,-0.0111714,0.015568,-0.000351214,0.0206402,-2.32613e-06,-3.66193e-06,-5.78165e-07,2.31199e-06,-0.00439356,-0.000255293,-0.00411727,0.0153977,0.0107684,0.000642797
-20.0312,0.010617,-25.1856,-56.1579,-0.0716659,-57.8321,3.92328,-4.92963e-07,0.610033,2.79233,-6.06517e-06,2.95493,4.8958,-1.04704,2.27271,0.00500605,2.31344,0.000389602,-0.000814916,4.07438e-07,-0.000842906,-2.61055,-0.00344076,-2.68524,0.0107684,5.74573,0.0075707
-0.0292363,6.21308e-05,-0.259243,-0.127681,-0.00484311,-0.110977,0.019597,-1.2863e-09,0.000606308,0.00478729,-1.3602e-07,0.00267479,0.0294804,-0.000671873,0.00253113,0.000181996,0.00157124,2.74934e-06,-5.71368e-06,-3.67943e-08,-5.88146e-06,-0.0035457,-0.000230453,-0.00255105,0.000642797,0.0075707,0.00050923
